0.76591587 -0.30832699 -1.25883865 0.16053103 -0.91345859 1.39250648 0.48361987 0.42983353 0.85664827 0.17508845 -0.51563340 -0.79350108 -1.92820907 1.34903657 1.29330015 0.69322538 -0.26569876 0.32231459 -0.07518464 -0.95653188 -1.20495987 -1.50392067 -1.70312071 -0.31698719 1.16660810 0.13758141 -0.32220486 0.36161545 -1.74300730 1.45733917 0.46293455 -0.85568756 0.06380668 2.10128212 -0.78154474 -0.73034912 -0.13883492 -1.34465063 1.14288831 -0.04247495 -1.15173769 -0.05481501 1.45064640 0.18553145 0.76739675 1.09271133 1.28354120 -1.26052177 2.52939367 -0.92494303
0.15186749 -0.00471889 0.35943735 1.26581681 -1.63401687 -1.18369794 0.83109713 0.82523656 1.00279140 0.74782568 0.67161626 0.43158290 -0.16766690 0.76163822 1.28110516 -1.11317670 -0.13910165 0.42083752 -1.03747523 0.70309210 0.15192302 0.12303974 0.92041618 1.56635010 2.30534840 -1.38474059 -1.85789216 0.65918452 -0.68441969 -0.73950392 -0.21785124 -0.43676025 0.03374727 -0.98499936 -1.30883181 1.12496722 -0.40522352 -1.62411070 1.30783296 -1.82119107 0.09524320 1.08437705 -0.23306683 -1.01697719 -2.30708838 0.67823517 0.97360283 -0.52560705 0.54641986 0.71531284
0.49823505 -1.34184384 0.75757384 0.06306329 -0.16286899 -0.14921261 0.79334813 -0.69832981 0.41868341 -1.16913390 -0.77122903 1.45444942 0.92358857 -0.44413483 -0.56737292 -0.67123085 -1.12165022 0.25099343 -0.11964194 0.26650414 -0.54733551 0.13063221 1.61028349 1.24948084 1.17332339 0.19112866 0.99052286 -0.22910801 -1.38627410 0.67931354 0.05278873 -1.25220180 -0.37816554 -1.30734587 2.27979612 -0.07864770 -0.03086173 0.11951263 -1.46509886 0.38547906 -0.94571549 0.56237757 0.96942258 0.57636058 0.70697612 0.83090222 -0.08906831 0.81679511 -1.96280801 -0.87035269
-1.09496093 0.75139254 1.01959062 1.41075408 -0.08150963 -0.59252369 -0.00401109 -0.71731788 0.08337140 0.92378229 0.23938991 -0.97773373 -0.94856626 -2.16809368 -0.06107672 -1.09058666 -0.73514396 -0.91503990 0.19565958 -0.14094199 0.19982646 1.17655110 -0.49678382 -0.16369101 -1.65268993 0.26654863 -0.63332409 -0.69416201 -0.51902992 1.10750115 -0.13968596 1.21981525 0.35240686 1.50451112 1.53937435 -0.15538555 0.22372849 0.26872772 0.38632971 -0.29516318 -0.15522358 -2.11657643 0.54446715 1.24296415 1.19483566 -0.88235956 1.40805578 0.40169987 0.46066591 0.37506783
-0.17694302 -1.25265801 0.52428031 -0.41812810 -0.19447631 1.19757020 -0.06040450 -0.29825178 1.15593004 -0.29561612 0.87890428 0.46898726 0.89024746 -0.57188362 -1.64507735 -0.18889569 -0.45492798 0.90122181 0.46366152 0.11723331 0.72524738 0.54105026 0.27348444 0.35201782 0.04224494 0.10275046 -1.64502132 0.43238914 1.31820500 -0.07933500 -0.29964757 -0.79474491 -0.77143991 0.53444988 1.10405362 -1.11324501 0.17387806 0.48654541 -1.13187134 -0.54500031 -0.76376122 -0.34821281 1.01373935 -0.20730291 -0.10294323 -0.50744903 0.96174294 -1.14208949 -0.00965009 1.33326888
1.58673489 0.32378218 -0.21111518 0.13270824 -0.28784809 0.06020667 1.20054746 1.64868617 0.61599135 -0.74044621 1.07160103 -0.57003117 0.50676650 0.79051071 -0.61849827 0.81669754 -0.52316284 -0.52660638 0.03079407 -0.19693753 -0.98924774 -2.92117119 0.51478976 0.78257221 0.75681865 0.36702797 0.38952765 0.12452289 -0.81635612 -1.03601515 -0.73817688 -0.45991305 0.44066358 0.18714207 1.27129138 2.48984647 0.11002342 0.26108360 -1.16410887 0.45979229 1.73050666 -0.38016543 -0.65267187 -0.97034615 -1.41477001 0.49898988 -1.01022482 -0.23823327 -2.22813296 0.41102141
-0.83368921 -0.29854995 0.93258160 1.66565323 -0.55995387 -0.63302135 -0.06061462 -0.04626243 1.97226012 0.64257622 0.39012104 0.40816203 -0.27011871 0.18800740 -1.53093183 0.29206753 -0.55639589 -0.86502361 1.19196975 0.11863918 -0.12115690 0.32024369 2.16041899 1.04402232 0.33730429 0.16821167 -0.51550227 -0.32709709 -0.85253602 -1.13373649 -0.66465801 0.28224793 -0.62119699 -0.01063988 0.67805719 -1.38062346 -0.55988348 -1.15706253 0.79874659 0.51114613 0.21100923 -0.27065825 0.90264779 -3.47102761 -0.19459066 0.00960894 -0.87694556 1.62535262 1.67542207 0.23229082
-0.70346332 0.10245362 0.67645311 -1.14720678 -0.02070413 -0.20828670 0.63151115 0.09340647 -0.01741759 1.07670569 0.30774197 0.98034292 -1.44735599 -0.22023526 -0.72440273 1.07626653 1.21098363 -0.87396961 0.48208106 -1.02833402 2.39230847 1.07003593 -1.13295305 -0.60977316 0.05614647 1.29020977 0.19947048 -0.52533561 -2.48478079 -1.19544363 0.22027038 -0.50484723 -0.77389097 -0.59715241 -0.53593266 0.80867994 -0.99876946 0.64790028 0.54953456 -0.55705988 -1.16526330 0.45077282 0.54524267 1.09210718 0.61931235 1.69019210 -1.99822855 0.28831911 0.07140943 1.84491801
0.52106696 -1.85069644 1.38412869 0.28768888 1.53732014 0.01617866 -0.53025162 -1.38633370 1.97942233 -0.06145334 -1.32983065 0.65018886 -1.49392402 1.11396420 -0.64686316 -0.19210178 -0.73190898 0.39381596 2.19112968 1.06711841 1.28312480 0.06834771 -0.51809090 -0.45586056 -0.37817216 0.10797866 0.33816814 -1.39765429 -0.25313869 -0.61604911 1.15424514 -1.51703846 0.14021534 0.84266680 -0.85074079 -0.86001688 -0.57774717 0.19568487 1.02435195 0.79415125 -1.87271774 1.36296642 -0.29727420 -0.69138360 1.67639208 0.99925971 0.76739007 -0.85477024 -0.90996534 -0.65856516
-0.42607245 -1.35553253 0.96205437 -1.85415316 -0.39536268 -1.07282126 0.15064768 -1.07712996 -0.22207609 0.23085603 -1.32712770 0.59688371 1.92785168 1.29831290 0.32728609 0.46797758 1.54051328 -0.89133096 0.86723417 -0.02071215 0.68372124 -0.56275851 -0.42112753 0.34906265 -0.38562208 -0.10887069 -0.43310678 -0.35036519 1.01160502 0.87057501 -0.18045011 0.64408106 0.05041835 0.23913774 1.43692744 0.73284757 1.14054573 -1.78922391 0.05809586 -1.00932038 2.43703604 0.57535249 -1.10507834 0.48217922 -0.03988518 0.61414969 -0.24978554 -0.95507216 -1.87186611 -0.58030951
-0.11858309 1.25139546 -0.75086790 -1.70808244 -1.74223638 2.16568470 -0.93836457 -0.67783368 0.84812123 -0.99193114 -0.03634734 1.82170653 0.99228442 -0.27766904 -1.28629243 0.99024844 -0.49087605 -1.32171655 0.86339092 -1.20685029 -0.92090207 -0.30316904 1.23625028 -0.54655266 -0.06387506 0.13173100 -0.95240122 -0.28177124 -0.12740909 2.28740478 0.28855336 1.98860049 0.98896354 0.03691731 1.40819395 -0.42018396 -1.15182877 1.50170028 -0.03713558 -0.08024868 0.09774481 -0.04560350 0.32133681 -0.26313779 0.07115078 -1.05491543 1.00310469 -0.37517685 -0.63587886 -0.46829119
-2.89949059 1.88220179 -0.40672296 0.66563106 1.13673615 -0.05131722 -0.08323663 0.59645849 0.73345715 -0.79012668 -0.62851119 -1.64970767 -0.35560963 -1.95591211 -0.32731509 0.21830478 -0.61020100 0.38591585 1.04995644 1.18451309 1.71637607 1.15085518 1.00824142 0.25113454 0.67180747 0.49672779 -1.09940517 1.18251085 0.95155364 -1.14362061 -0.54374593 0.52761215 1.29168844 -1.05217731 0.31847829 -0.90810686 2.24566412 1.60462081 -1.66914308 -0.75672781 0.03457807 0.71490312 -0.60203671 -0.54710972 -1.53558528 -0.34056199 -0.02602731 -1.25783777 0.06634479 0.12804459
1.51935887 0.00785069 0.19327776 1.96793640 0.24907933 -0.05718642 -0.24654627 1.15020466 -0.62249392 1.35375798 -1.43061912 -1.84845912 1.10619724 0.83710420 -1.61041248 1.48366785 -0.38812694 -1.50665450 0.17440905 -1.63199735 1.34590304 -0.79168308 0.78219008 1.81313384 -0.43052885 -0.05351938 -1.71641445 -0.61053550 -0.75273579 1.44179726 0.39968422 0.16864197 0.10249527 -2.01512408 -1.41797698 -0.21885696 0.26374149 2.57975531 -1.51393676 -0.25288966 -2.05681014 1.06215143 1.52623343 0.44290727 -0.07198511 -0.41014388 0.03649508 -0.80787641 1.93952370 -0.54323703
0.86338162 -0.35150659 -0.25558773 -0.66670138 0.13505948 -0.86993724 1.81419539 0.65314269 -0.25264719 -0.08363916 0.87046587 -0.26518509 1.54353464 0.25355691 0.67202276 -0.21804798 -0.05565047 -0.01717704 -0.18694508 -0.79502553 0.28243878 -0.64530551 0.20088558 -0.90878242 -0.64644289 0.67549431 0.67187935 -1.18994486 1.06932020 -0.35327837 1.22081900 -0.10639081 0.09018876 0.58724880 -1.98753524 1.20855987 0.36141354 2.84827924 -0.05718501 -0.74522424 -2.18432736 -0.76752108 -0.18641725 0.48561251 -0.15570673 1.13749170 -3.10153532 1.46540499 -1.18661618 0.06146652
0.00974090 0.62398916 0.90492380 -0.13299505 0.30779058 -1.42237103 -0.28033313 1.79018176 1.94009984 0.55182010 -0.79613578 -0.25915441 -0.18777482 0.36447814 0.26288241 0.43788430 1.95213342 -0.66930431 0.82254785 -0.06263985 0.33291468 -2.42541146 0.36254489 -0.17606293 0.20644230 -1.66628551 0.56267118 -0.60449344 1.20967853 -0.81190729 -0.67861485 0.65382427 0.10534918 -1.34039724 -1.10572422 2.52401733 0.38366419 0.40198129 0.18686199 0.31409883 1.37429500 -1.74603939 -0.15971144 -0.97847629 0.08293271 -1.60222888 -0.52829522 1.37147355 -1.02341115 -0.47899279
-0.63245863 -0.29672384 -1.73165369 1.07215369 -1.28008747 0.98155409 -0.97235650 0.32772046 1.05290747 -1.85003614 -0.72182804 -0.22314817 -0.30691034 0.04441624 -0.26641259 -0.19792256 -0.11632824 1.09501290 -0.12575804 0.74945885 -1.75062180 -2.04059553 1.28700042 -0.44055009 0.64587677 1.04757309 1.58068955 -0.20305806 0.83651882 -0.67719811 1.48018074 -0.72615880 -0.94389933 -0.31154162 -1.22186315 1.33478737 1.94259417 1.43511724 -1.72292328 -0.15510227 -0.56809312 1.59441304 1.24397087 -0.01381276 -0.61671758 1.69010568 -0.02236385 0.05800862 -0.05712137 -0.22008285
1.21381760 -0.99577427 0.71397197 0.92948037 -0.34473434 2.03018904 0.14019006 -1.20833647 2.22361183 -0.61653453 -0.78233576 -0.48494083 0.47053230 1.46716988 -0.81602705 0.45276567 0.07156642 -0.77749354 0.39019254 -0.29428813 -0.02915566 0.40627271 0.73265594 -0.04346474 -1.98346651 0.10893780 0.58812809 0.66211581 -0.23211171 -0.16409573 -1.58787870 0.99623203 -0.36825347 -0.07333736 0.28008807 0.48612827 -2.44945860 -0.34210232 0.14651926 0.70984876 -0.58476019 0.61056060 0.15777375 -1.13436532 0.66511208 0.52792901 -0.55161363 0.27042100 0.06251895 -0.73267609
0.52407360 -0.51001793 0.40693346 -1.57729661 0.17667384 -1.64839709 0.99752069 1.56684005 -0.46532571 -0.89446694 -0.60424697 -1.68483472 -0.53873396 -1.17525506 -1.32007182 -0.53537178 0.96813434 0.15685843 -0.31348458 0.53398722 1.74430299 -1.71642768 0.27187818 -0.24763203 0.17538190 1.52243972 -0.31636125 0.42595926 0.79838306 -0.67194480 0.54529619 -0.31232759 2.22559071 -0.53024036 1.27602577 0.69976920 -0.63241845 -1.66264546 -1.29423785 2.18823123 -1.05403364 1.19495821 0.61721116 0.44460487 -0.13997251 -0.02779983 0.54045624 1.15294826 -0.25820830 0.06210655
0.12782583 0.13391331 -0.16252503 0.76670736 1.26142824 -0.61997187 1.25047910 1.19675648 -0.12941021 0.54954910 -0.06776329 -0.54966527 1.33769178 -0.89533675 1.50986207 -0.56180286 2.19397521 0.06502309 0.65140593 -0.34782463 -0.41778016 -0.55022007 -0.04796652 -0.14664261 -0.62507927 0.30009076 0.20078056 -1.63372612 2.27417159 0.87360191 -1.43720233 -0.73504585 0.91769409 0.13592373 0.79584277 0.12941273 -0.32967719 0.10223462 -0.16190208 -0.02989424 -0.84201670 -2.95268750 0.49343053 -1.57566404 1.25996315 -0.35944292 -0.47196367 -0.07121529 -2.01932049 0.07005378
0.46558881 -0.70248562 -0.51666886 -0.83138776 0.00932247 0.20875897 -0.24951667 2.18603253 -0.35842302 -0.59958905 0.11620855 -0.50930989 0.09050108 -0.77365381 0.50344795 1.25013995 0.85243928 0.30528793 -1.05673480 0.14886096 -0.65145332 -0.83888638 -0.35175127 -0.16759586 -0.99903107 1.00024831 -0.24941295 -0.48935708 2.68746495 -0.69393069 0.07170157 0.30561393 1.65630639 0.23836108 -0.31081799 -0.48225167 -0.08002664 -0.61582786 -0.27688769 1.65000558 0.16662426 -0.18788646 0.18331534 -0.70287067 1.01664233 -0.78471172 -0.22645846 -0.12589455 0.42649263 -0.70831257
0.46560228 0.49718732 0.23936027 -1.72163618 1.27167761 0.47619927 0.02959218 0.15604354 -0.15599374 -0.67308009 1.00947571 -0.12938678 0.06109790 0.83430320 -0.26776832 -1.23204517 -1.98951244 -1.62814844 -1.12684798 0.12663248 0.64219671 0.02541159 -0.96604174 0.89932895 0.88195276 0.12061404 -0.50553411 0.94529098 0.70477009 0.73458147 1.01030898 -0.32646692 1.73056304 -0.31578365 0.56051123 -0.92496681 1.09283531 -0.79379845 0.18683942 -1.18565416 0.91970730 1.06394482 -0.99878067 -0.69115257 -0.45734838 1.35617077 0.34491590 -0.15430084 -0.03531260 -1.11421204
-0.10956154 1.16639519 -0.52386934 3.23698306 1.17736149 -1.20238376 -0.97313297 0.25614759 -0.14047787 -0.23918554 1.78670669 -3.13992047 -0.65696794 0.87689483 2.09761071 1.47610807 -0.26717442 -0.49834439 -0.07891743 -2.00910830 0.45316514 -0.25163013 -0.57654274 0.06097971 0.09121172 -0.96327853 -1.10396445 0.56772953 0.80663341 0.60595483 -0.93340331 1.33443654 -0.87240052 1.65779042 0.18782437 -0.37328705 -0.81013519 -1.21053779 -1.16592789 -0.32667196 -0.41817275 0.74844402 0.93529707 -0.55804688 -1.08479691 -0.95245260 0.04437624 1.59319854 0.15404651 1.07080829
0.92846626 -0.26203790 -0.12257134 -0.68439484 -0.37269387 -0.42624348 -2.32101893 -0.70066255 1.60357654 -0.92169112 0.23788337 -0.55458897 0.07307325 -1.66227305 1.13598979 2.06688142 -1.27416360 -0.13062060 -0.20841242 1.24960709 0.62165427 0.16881217 -0.16146305 -0.36024320 0.03926453 -0.60294056 -0.08130373 -0.14073846 -1.88270080 1.45588303 -1.99917674 1.15509689 1.19525993 0.30949238 1.60291851 0.67842239 0.18187299 -0.18753700 0.45348293 1.34413517 -1.63616681 1.03936946 -0.66866255 -1.27378011 1.05551696 0.37830657 0.24140306 0.93038827 1.07489383 -1.53432882
-1.35367107 0.22447126 -1.57940269 0.31189254 0.10566781 -1.87458909 0.17495139 -0.41261363 1.01854658 -0.05181563 0.45276368 0.00644285 0.52048242 -0.25064149 -0.75624251 1.00492048 0.27535075 -1.04238451 1.91732991 0.31093115 -0.88816631 0.52854264 0.00155069 -0.57769823 -1.92678308 -1.34800637 0.84060663 1.15373993 1.24796760 -0.98490220 -0.82729000 -0.11464784 -0.58137143 -1.46595562 -0.58578128 0.45423520 -0.07087493 0.50942427 1.52723157 0.35923612 0.82683152 1.00745881 0.96509588 -0.43872294 0.93036216 0.50191385 -0.15535073 0.51015741 0.33746016 0.34533563
2.33676887 -1.58659732 -1.27185106 -0.80861425 -0.52689117 0.00549635 0.25428525 0.07699984 0.04897000 0.12826218 0.09413303 -0.96975327 0.52101254 -1.46936274 -0.57154632 -1.07844174 0.68067950 -0.12324353 -0.66208380 0.27491444 1.85625255 -1.01839364 0.76504779 1.33096731 0.43566689 0.53561413 0.42673630 -0.30528003 -0.56893939 1.69347656 -0.36935896 -0.78999591 -0.00972297 0.47360545 -0.94195867 -2.75476670 -0.32937860 -0.10900635 -1.51816046 1.49369299 0.93333232 0.41670930 -0.27298611 2.05667090 0.43987995 1.48008704 -1.47576654 0.97492200 1.11901057 -0.26240653
0.99842256 0.44456652 0.28199953 0.79890782 -1.03507900 0.75059664 1.21020746 -0.05176309 -0.33813554 -2.36952090 -0.83104151 -1.19455719 -0.02068341 -2.67858720 1.04876029 2.14427328 0.19634125 0.05954710 0.26152703 1.21866679 -0.09602042 -0.00213098 0.07864893 -0.16152845 -1.30776691 0.25055003 -0.20408341 -1.38740993 -1.51846540 0.59721947 -0.25556156 -0.23394272 0.96285993 -0.43114132 1.10845315 -1.25927055 -1.65034902 -0.62919652 0.75272417 1.65207505 -1.69652879 -0.34159607 1.99117804 1.84209263 -0.34202495 0.06044277 1.91711712 0.62404984 -0.42138356 0.22940607
0.48401445 -0.12958907 -0.35334831 -1.20494306 -0.95090508 2.75064945 -0.05388682 2.30614901 0.15394458 1.72891796 -0.76828784 -1.87849772 -0.19117522 -0.05093776 -0.10417395 0.29254454 0.36546487 -0.33405277 0.40431273 1.04585612 0.37944201 -1.39874125 -0.01596410 -0.33588764 0.13961059 -0.52660292 0.14453235 -1.20439661 -0.44897026 0.94334829 0.24452129 -1.07513130 -0.26051617 0.18559571 0.22466351 1.92462039 1.53648734 0.72750294 -0.32977065 0.62312353 1.06438088 0.22166866 -0.40605196 -2.16304684 -0.74235517 0.45021263 -0.69351643 0.86881375 -1.94087374 -0.71160406
-0.10510403 1.08630097 -1.41669476 -1.10888708 -1.35143459 -0.29500148 -0.90402520 0.70394427 -0.17440425 0.13669932 0.69188249 0.11384294 1.10633039 0.10100358 -0.82686347 -0.46279436 -0.73197180 0.97208738 -0.47973168 -1.77008593 0.44819343 -0.74855471 -0.23111427 -0.20983757 0.66899079 0.50405979 2.21486831 -1.31691217 0.91709381 1.16323185 0.37816736 -0.46917459 -0.38829613 -0.03208736 -0.75718886 -1.04797506 -0.18199298 0.40229627 1.41520417 1.67517149 0.88527173 1.38028097 1.20044446 0.36351877 -1.13250709 1.35322225 -0.64403206 -0.21103670 -0.04381007 -1.78718519
0.30700734 -1.83059359 0.02869614 0.44013008 0.49663380 0.77186167 0.18640274 1.58173323 0.87255090 0.07718258 0.35062036 1.49150205 -0.59959346 -0.24576692 -1.08550298 -1.36696839 0.97534215 -1.46262276 -0.27977836 0.23216359 0.03777919 0.63622230 -0.75286478 -0.95387483 0.93147093 0.27480972 -0.83576196 1.15086317 -0.18541276 0.92267340 0.59139341 -1.18918073 -1.60070741 1.13711619 0.20146815 0.61232573 0.61363232 -1.53155541 -0.86457515 -0.79253697 0.35734633 0.30754274 1.05180907 0.16103241 0.44843426 0.14713827 -0.78006935 -1.00297749 0.24423307 0.68785840
-0.90460473 1.62040401 -0.59781581 1.91295445 -0.37955961 -0.32943732 0.31974009 2.06598330 -2.30163097 -1.74186230 -1.03417504 0.26863843 -1.88736641 -0.46527854 0.50940013 0.58107042 -0.56577981 -0.12499158 0.41991150 0.53208816 -0.87280542 0.72239542 -0.52300137 0.78883564 -2.53962922 0.08681858 -0.89611793 -0.17686164 -0.29230514 -0.75339055 -0.41410717 -2.23385477 0.25287554 -0.41724005 0.90064096 2.39999580 -0.01682234 -0.57784241 0.86616653 -0.74218643 -0.22014691 -0.18663211 0.77520257 1.18478417 1.54442084 0.86920184 1.80774856 0.66943944 0.51462239 0.67259365
0.40727711 0.08862276 0.81569993 0.97602183 -0.60462022 -0.63496542 1.11369002 -0.08843374 0.99027228 -0.42986631 0.34554437 1.26975107 -0.91489768 -1.81554675 1.48900259 -1.54455924 0.76474893 -1.07826698 0.58740753 -1.10173190 0.92481601 -0.99560493 0.78443158 0.60883164 -0.50209814 -1.33424151 -0.97820926 -0.07289130 -1.06034708 0.86209786 1.74490345 -0.90590590 0.26328358 0.21004336 0.48627165 0.91734177 0.15371498 1.12359977 -0.23751561 0.77722305 -2.10670519 -0.27162743 -0.67985159 0.83715814 0.34101677 -0.42679149 -1.75694931 1.87905455 0.20805919 -0.46810812
-0.47020540 -0.60214019 -0.39901578 1.87424803 1.52019203 -2.08758402 0.56529063 0.05919391 1.28597736 -0.46564105 -0.41999781 0.26418605 0.29859778 0.65725327 -0.59079123 -0.66602248 -0.00049322 0.68087262 -0.68652999 1.06126547 0.19345452 -0.00539606 -1.14332902 1.39644349 -0.50928861 0.81644374 0.54812479 -0.45717028 -0.76667571 -1.65709627 -0.51928073 1.07348025 0.41582188 -0.37903845 0.88204908 0.26621768 -0.44385031 0.21549064 0.37065309 -0.95122260 0.26523897 1.06783211 -0.52399582 0.80837870 -0.07745845 1.06040418 0.48789623 -0.53090519 -1.81670570 -1.00676358
-0.36462137 1.07867253 0.54111677 1.38272870 0.00235031 0.35058886 -1.80738068 0.82353985 -0.14261569 0.32764235 -0.09891597 -1.40203452 0.90604830 -0.10228740 -1.28671873 -0.97862560 0.50149751 0.07713442 1.06524932 1.74748576 0.17651697 -0.74800521 1.24536347 -0.08276101 -0.23918615 0.20791571 0.78595829 0.73451054 0.65770441 -0.33460638 0.16829471 -0.63116318 -0.91954237 0.29914314 -1.88949883 -0.90805292 -1.69606042 0.47417188 0.20977934 -1.11185169 0.34701538 -0.49571338 -0.34173235 0.83812749 1.76462257 0.01669836 -0.32337055 -0.55566412 0.47027552 0.21262091
0.48856604 0.52326751 1.45975339 0.63362271 -1.45258796 0.78584707 0.35261762 1.81201231 -0.93900287 1.28890610 -0.02803358 -1.49391282 1.26044190 -0.53530741 -0.77421862 -0.75713652 1.36310959 0.56612390 -1.44024801 0.35489336 -0.30252752 1.18930995 -0.84152836 0.65616709 -1.98227501 -0.15946494 -1.59135056 -0.97629362 0.14424346 -1.08614099 -0.48873156 -0.27585480 0.97903162 1.20854867 0.86347121 -0.38185090 0.57001293 -0.01672805 1.16744256 0.42831832 1.11295187 -0.17704183 -0.23216163 -0.50219738 -0.97954196 -1.32679939 0.12548749 0.02379880 -1.01836920 1.33379090
-0.03694465 1.23528695 -1.12411928 1.11399829 -0.76030004 -0.34448439 -1.53514802 0.15708175 1.64749455 -1.98438191 0.08340943 -0.76023585 -0.14640738 0.53121060 -0.52458924 -1.14483762 0.17772098 0.25174204 -0.39703912 -0.01267305 0.11829466 0.78217852 0.77729046 -1.34168077 -0.42763224 0.53417945 0.26662332 0.36038417 0.03724885 1.44810247 1.27082145 -0.41367921 1.19638622 -0.14456438 -0.95993042 -1.76822889 0.21878013 2.55625939 -0.09864225 0.13450803 0.29321873 -1.16377699 -0.08651119 -0.02794305 0.81697249 1.19355714 1.32293177 -2.46174192 0.23315962 -0.06315004
-1.10937691 0.64248860 -0.73806810 -1.81727493 0.08405123 0.73195314 0.26023737 -2.90016818 0.79272777 0.62191308 1.70987058 0.31824979 0.76748061 0.58312380 -1.71652639 -0.38402730 -0.32315484 0.28700301 0.97011846 0.83410686 -1.32221842 1.84829247 -1.06436908 -0.28452733 0.12870844 0.25088608 -1.51230562 -0.13309462 2.08348680 -1.11018527 -1.01142776 1.23707402 0.22666343 -1.04769385 0.18744436 -1.71104777 0.39561406 -1.16027915 0.84640980 0.53166014 -0.46850443 -1.33866358 0.71057028 1.23716521 -0.08769033 -0.28080273 0.84784299 1.16758621 1.61839545 0.66211355
1.03049350 0.42269778 -3.06341243 -1.21051347 0.35003889 -1.59902060 0.71273792 -1.46449053 -1.09591317 0.32548201 0.63069665 -0.59138507 1.09435451 -0.61271435 0.17452814 0.36572382 1.35685599 -1.13081765 -0.06989428 0.75279087 -1.33102536 1.84008241 -0.43737939 1.18360674 -1.86278975 -0.92263204 -1.34736013 0.50220490 1.34574258 1.46372640 0.95098996 0.35678294 -0.68314892 0.04790592 1.21961629 1.27798879 -1.80534625 0.72100645 1.47812176 -0.15381318 0.06039931 -0.38916463 0.68128890 0.54179841 0.50112098 0.14300025 -0.78328156 -0.90254694 0.14860827 0.85252488
0.69930470 -1.97196531 0.42726696 0.70644629 0.04539312 0.30511418 0.86315376 -1.16644895 1.09550166 -0.80011469 0.55331773 0.60455406 -0.23260522 0.01835252 0.56657964 -0.11830490 -0.21180184 0.30545694 -0.70966321 -0.06231310 -0.05929892 0.16136768 -0.85239077 0.10972497 1.44152141 -0.16205868 -0.31382740 -2.63549852 0.28213772 0.09753967 1.93743670 -0.08998984 1.99828672 -0.07306066 0.65386194 2.02902174 -1.23685217 -0.18223920 -0.02214833 -0.24998197 -0.62427747 -0.84588921 1.34599340 -1.78542447 0.48232356 -1.18025219 0.71213812 -1.31117201 -0.40181798 0.82000262
-0.58302838 0.95385891 1.25369108 0.01250416 0.34090137 0.30146548 -1.23861432 -0.52072537 1.21508157 0.11322400 0.07514197 -0.69770408 -0.03366216 -2.41872001 -0.29277641 0.53798008 1.26793575 -0.05700029 0.29989213 -1.85169744 -0.40299365 0.58246100 0.02753686 0.22652882 1.51506484 1.40050077 1.91527057 -1.32416403 -1.52379251 0.94530320 -0.20599416 -0.21140277 -1.08797324 1.06569088 0.44067633 -0.70578730 0.80217725 -0.58298445 -0.41910273 -0.95784009 1.06905341 -0.10167442 0.75577551 -0.54610175 0.28008282 0.12670307 0.40004206 -1.18818247 0.18003587 -0.17805517
1.21923149 1.22370374 1.79602754 0.44925803 0.40397042 -1.74793518 -0.95545834 -0.66272640 -1.97421777 1.29212809 -0.96374738 0.94429231 -1.39961839 -0.30499515 -1.09068334 0.62346822 -0.17110834 -1.72836256 0.17155109 0.24484979 0.08742965 -0.70437974 0.41529283 1.42861843 -0.76399881 -0.22524129 0.55920440 2.00315809 1.31702781 -0.77878129 -0.32269570 1.53969133 2.26113439 0.97552556 -0.68867493 0.08452141 -1.08850503 -2.04216743 -0.94398922 1.35111654 -0.69432384 0.37232199 1.41499817 1.73546755 -0.26434368 -0.67071265 0.69136083 -1.65742445 0.00042379 -1.79258811
1.06513536 0.59292680 -1.51414943 0.06571024 0.11487964 -0.55846232 -0.36569929 -0.50246882 0.15744351 -0.37125257 0.92596334 0.37720734 -0.89210522 1.13628292 -0.00870935 2.45213366 0.65148884 -1.88461888 -0.59447914 -1.34419823 -1.40019834 0.51643437 0.11371382 0.94017059 -0.46912867 1.13849103 0.11215553 0.14587419 -0.02603135 0.67795789 1.68080819 0.36296552 -0.34475634 -0.22376548 -0.17923927 0.04738327 -1.95958638 0.44281974 -0.67937213 -1.19251907 1.33753872 0.98676717 0.10341374 0.38125092 -0.17197977 0.42839622 0.07859630 -1.86924767 0.53499424 -0.03775315
1.74678695 1.28857672 -0.37872750 1.10058486 -0.17238225 -0.04160617 0.91069800 -1.00087297 0.13437384 0.46760353 -0.04168757 0.50232589 0.13570899 0.80968475 0.36384121 -0.11950342 -0.05794644 -1.57139945 0.02694509 -2.10633969 0.10765190 0.62217665 1.34412575 0.45108488 -0.62522256 1.88263893 0.47015387 1.58052897 -1.33817899 -0.15545620 -1.07767463 0.67816108 -0.50839478 -1.77936804 0.53769857 0.82478172 -0.00700292 -0.39645958 -0.47689265 -0.58425146 -1.73551166 -0.65019089 -0.39304477 0.79158401 -0.35461453 -1.26842678 -0.15361077 -0.74440008 1.16129458 0.68781632
0.30613235 0.39287442 -0.76457518 -0.75929439 -0.69099897 0.33057469 -0.00916431 0.65330076 -2.19464302 -0.68133920 -1.06918991 0.36088738 0.26992682 0.77840453 0.93942946 0.86438477 -1.10456216 -0.47854021 -0.35229322 -0.66440624 0.63424009 -1.21973848 -1.00202835 1.13706172 -1.19747365 -0.46270004 -0.73394567 0.47286081 -2.63809252 -0.64915609 0.75450063 1.77946258 1.39689815 -0.59528732 -1.59257889 0.40901479 1.91677153 -0.49012199 1.30568612 0.53946525 -0.10216679 0.03012775 -0.89880162 -0.18586127 2.05645418 1.43704176 0.26617506 1.32035494 0.85557562 0.43683940
-0.36139429 -0.42017698 1.12465632 0.52665061 -0.80037051 0.45744738 -0.29339686 0.20230347 -0.90417767 -0.66985250 -1.00960815 -1.08540618 1.78506100 0.47778329 -0.13042857 0.18912783 0.47263625 -0.46644583 -0.50203258 -1.46525455 -0.24645706 0.80254108 -0.33049104 -0.06821797 -2.10584545 -0.70991164 -0.06617741 -0.43135262 -1.00580812 0.16306615 1.37105775 -0.96356606 -0.55481315 0.73562586 -1.08181334 -0.53820515 -0.61112159 1.36937797 0.66688228 0.79549849 0.58657861 -0.58646035 -0.30230176 0.90552390 0.92912883 1.58738053 1.97993600 -0.33351979 0.57914215 1.42603791
-1.70334816 1.42598486 -1.74800122 1.12183738 -0.90829659 0.25601211 1.49040794 1.22132671 1.41061997 2.95456481 -0.78366411 -0.20262556 -0.45001727 0.60901988 0.55413020 -1.65706468 -1.64635909 0.12470669 1.02220726 -0.72853374 -0.32023805 0.83662516 1.77913070 -0.48855895 0.48231471 0.62124699 -0.35208625 -1.16252720 -1.86725390 0.30135739 2.02001452 1.08840108 -1.00729132 0.68176502 1.62091124 -0.57815415 -0.52608919 -1.68850660 1.15950680 -0.04713823 -0.80472660 0.55968446 -0.77558815 -0.87457961 -1.38931990 -0.51041603 0.67675847 0.14343223 0.00922875 -1.03421843
-0.35947955 -0.30192438 0.42077243 0.49038553 0.53058696 -1.88947487 -0.73490500 0.47790483 1.24699688 -1.61251104 -0.14166734 0.25255403 -3.70363522 0.52938068 1.59801126 0.28830430 -0.35236681 -0.64917785 -0.26484370 1.49392331 -1.41545260 0.46847019 -0.01550204 -0.11893630 -0.35029110 0.88850468 -0.27812108 1.18113196 0.93203413 0.42890066 -0.90150303 0.38301164 0.55249131 1.02574205 2.09710312 -0.01825755 0.18743007 0.57404602 1.03190577 -0.88005841 0.51739788 0.72162533 0.40265745 -1.55160689 -0.42872977 -0.92757624 1.02535927 -0.34787673 -1.16484785 -0.31208301
0.41960055 -1.33825958 1.37680137 -0.06906836 -0.78023982 0.47900549 -1.08907688 -0.91911405 -0.74413115 -0.74330938 -2.12876296 -0.10540787 0.76995403 -1.18736255 0.89799440 2.09459305 0.56323713 -0.24767709 0.96244651 2.56876349 0.27199534 0.54917419 -1.15423918 1.46887672 -0.23017862 -0.45290253 0.81549817 0.57667732 0.82562703 -0.32322103 -0.91062176 1.32949042 0.14746985 -1.54459298 0.58855760 -0.14793320 -0.57013357 -1.11291802 -0.51451969 1.62740695 -1.03420579 1.62035573 -0.82169217 0.47551775 1.31544244 -1.10055101 -0.47213471 -0.50619441 0.47107187 -0.96931392
0.62022674 1.52673244 0.32151559 -0.26401156 0.03275317 -0.70921677 1.86387837 1.69042981 -1.19348502 1.30902851 -0.50355762 0.19354628 0.83315653 1.06509554 0.73562276 0.00398127 -0.32325155 -0.63309097 -0.83622682 -0.42579260 -0.20768060 -2.34319472 0.49938297 0.37378427 2.17432427 1.00637662 -2.06520009 -1.41329241 -1.26973808 0.30872557 -0.17825174 -1.91882551 -0.48619646 0.20645741 -0.59849441 0.10450161 0.18681067 1.13097584 1.92490137 0.19834006 0.87553942 -0.54429275 -0.83281153 -0.06073657 0.52621752 -0.61989206 1.30175471 0.22889329 -1.82698786 -1.09427691
0.09526838 -1.38050628 0.45797482 1.25399673 -1.35703528 0.50151110 -0.65879959 -0.18395336 0.49249995 0.16857733 -1.07136953 1.40362251 0.00101632 1.24176896 -1.42256618 1.92614758 1.04407835 1.12509847 -0.41519508 -0.12247982 1.09080279 -0.64908814 0.29459295 -0.53967553 -0.91136473 -3.00775099 1.88046825 0.29984388 0.00191078 -0.73412889 -0.24783644 -1.12709916 1.74145567 0.60289919 0.05804436 -0.57701468 0.92010468 -0.43782747 -0.35717788 -1.71242476 0.03154873 -0.83677739 0.99176651 -0.28007740 1.34882689 -1.74351704 0.00982659 0.18903142 0.57804155 1.00107217
-0.07347550 -1.44631493 0.06761480 0.54556882 0.79840463 0.28528860 -0.50732017 -0.65649259 1.37877846 -0.86244869 -0.72764367 1.07625282 -0.34323719 -0.53135294 -0.98021424 0.64905882 -2.14162230 1.12788618 -1.78679061 -0.25189525 0.17021020 0.50605690 -1.35303855 -0.23393030 1.40658760 -0.27457449 0.85442585 -0.07103140 -0.28489774 0.06892513 1.49848688 0.02512929 -0.38084790 0.90436018 1.55718660 -0.04076027 0.90843534 1.83280694 0.22081615 -0.68105614 0.19054157 -0.23477261 0.61855489 -0.37264672 -0.31964236 0.91832268 -0.48536274 -1.45051408 -0.99763942 0.91136611
1.14426053 0.47196448 -0.58530271 2.69978547 2.56071663 -0.94670308 0.34993121 -0.78477079 1.04148328 -0.71114773 -0.29932186 -1.36837661 1.34754241 -0.38105193 -0.25097677 0.18894227 -1.82599688 -0.01063819 -1.17101824 0.38646135 -0.90914577 -1.31243598 -0.85067952 -1.56237125 -0.40201300 1.71453846 0.31904468 -0.58060455 0.88474464 0.61739576 1.16585839 0.48343638 0.61334926 -0.55209035 -0.81729245 -0.10636101 -0.16253661 0.62801820 -0.33407775 -0.52473021 0.48241514 -2.65317035 1.05029130 -0.30206695 -0.94355029 -0.38121486 0.83651042 -0.47502071 1.32521403 1.85073292
-0.61870110 1.09613359 -1.22595942 -1.00841904 -1.54949772 -0.32998520 1.59030008 0.56022525 0.26353654 1.69626844 -0.13275026 0.91103709 1.24612844 0.46067768 0.44652286 0.46637169 0.67740470 -0.71061581 0.70805007 0.12393291 -0.37259939 1.52064240 1.48911953 -0.62737513 -2.29444647 0.08788280 -1.44298673 -0.62409222 -1.04211044 0.68031561 0.74038714 0.34778190 -1.02347386 0.08057690 0.61444038 0.90346199 -0.10007521 -1.38769078 -1.19843996 -1.70195377 -1.04892099 0.12325634 2.02689266 -0.92846394 -0.58259040 0.70118541 0.96617395 0.70467627 -0.71040750 0.38027427
0.64443731 0.40464416 0.06012718 0.01799723 0.60307658 0.61332518 -0.71353871 -1.18586648 0.43905184 0.59137315 -0.09082466 0.25232595 1.25059259 0.08532563 1.33341837 0.31603777 -0.12454091 0.50244302 -2.42168641 -0.47971508 -0.54998010 -1.29897380 -1.07758808 1.15481651 -1.13205957 -0.53679383 -0.45764449 -0.15849103 0.35108650 1.14756596 -0.61601871 -0.63241684 -0.63060582 0.72049886 1.08105850 0.00114221 0.28662637 0.96619880 -0.47451419 0.10284772 1.15571511 1.23031104 -0.74270201 0.47745478 -0.19025695 -1.08673227 -1.17284942 0.03476526 1.70437169 -0.78782511
0.30366886 2.17392349 -1.02119231 -1.85469031 0.50888973 2.07323742 0.54098290 -0.43714365 0.58723897 -0.21863940 0.36978060 0.38746035 0.77596849 0.77124125 1.75949514 2.21519208 2.18028212 -1.58832526 0.23107283 -1.02739620 0.21386762 -0.45266604 -0.44551700 -0.54219228 -1.27411652 -1.70169699 -0.56056887 0.04811738 0.07710492 -0.23751538 -0.32958025 -1.72015965 0.18476340 -1.18922663 0.15323676 -0.40660167 1.07787693 0.46641436 -0.31930709 0.75583827 0.56705904 -0.28451011 0.83614415 0.54001898 -0.06931320 -1.63636506 -0.72779745 -0.13297395 -0.21030885 -0.53057659
0.63072532 -0.16820987 1.15663183 0.41641322 0.35298163 -0.37867570 1.23805261 0.85000765 1.77043092 1.11105394 -0.46312982 0.76558465 -0.10802041 0.84060794 -0.96312863 0.34735966 -0.16468155 -0.18005797 -1.93833375 0.21144304 -0.02814757 1.29730010 0.58078259 0.29520428 -0.19928834 -0.02911687 1.28444314 -2.88559651 -0.62953037 0.17794549 2.53759742 -0.36645386 -0.50316882 0.15379027 0.27572414 0.04760499 -1.57471430 -0.52747095 0.80142283 -0.94865334 -1.20106804 -1.41040146 -0.39920422 0.85824978 -1.31365848 1.56545353 -1.66018379 -0.34339827 -0.07471928 -0.25764006
1.32099521 -0.66704988 -0.39471203 2.66075230 -0.34083155 1.12482119 0.68070930 -1.16990101 -0.17963003 -0.19679247 0.32937264 0.54164422 -1.19045997 -1.78396833 -0.08653036 2.61120319 0.07208758 -0.63071162 0.20566325 1.44147873 0.95502746 -0.70573324 -1.27987194 -1.31557524 -0.84577221 0.29489625 -0.10233115 -0.87992740 -0.73584020 -2.71337652 -1.54928911 0.87543178 -1.56828797 1.15145302 -0.41579875 -0.29291436 2.16637754 0.60415077 0.41379556 1.64570904 0.64172333 0.54073620 -0.99447590 0.38971388 1.60686409 -0.46312991 -0.67654824 -0.52356648 0.41931492 -0.02377182
-0.64382017 1.06206930 1.17542481 -0.52515090 -0.04929081 1.63478053 -1.21543276 -0.39522353 0.95921141 0.10607760 1.19113624 -0.17628863 0.23250400 -1.32526791 0.49963373 -0.06357688 1.69217885 -0.27776548 1.21861458 -1.46383655 -1.17852986 0.73395318 0.18122613 -0.60194117 -0.80640459 1.46424925 -1.50878572 0.75668377 0.07655860 0.22929925 -2.86366510 -0.46399501 0.83413720 -0.74721581 -1.28254104 -0.48137635 0.01361232 1.54843521 -0.23960459 -0.09534590 -1.03169751 1.21954870 -0.32091126 1.36751866 0.16822022 0.31801054 -0.96458703 0.59193808 0.53544217 -0.13130927
1.26522410 0.36232251 -0.02447735 0.02402491 0.14224708 -0.30239713 0.33916849 -1.34263754 0.59645796 -1.45129085 0.15639383 1.41855156 -2.22776008 -1.24194133 0.34593210 -0.24250908 -0.25331393 -1.67239237 1.32663977 1.17549801 -1.34946251 0.74906141 -0.10271117 1.12565875 -0.93645048 -0.16808550 -0.14308822 0.41593227 2.27863383 0.42575717 0.14306411 -0.40222457 -2.28686261 -0.21008101 1.66950691 0.14515707 1.09983003 -0.89222372 0.44029179 -0.44742435 -0.20770261 -0.94011152 0.63945341 0.55588919 0.30580735 1.31945240 -0.87750721 0.71078295 0.25300318 -0.69246709
0.85636371 -0.20206298 0.07824644 -0.37557703 1.07305849 -1.24363983 -0.39534131 0.84500521 0.17786700 -0.75946373 1.28205132 0.71789807 -0.50666928 -0.26210371 1.55187106 1.44932854 -2.14997864 0.65916741 -0.26331282 -1.07665348 0.30360138 -1.49658263 -0.12347262 0.23785780 -0.76322472 -0.96974325 0.42463833 -1.12026358 0.17744277 0.69279730 0.12795247 -0.53416717 -0.54044855 0.32985857 0.61185139 -1.83349657 0.91863447 0.91054302 0.43291470 -0.68122721 -1.15682828 -0.58876294 1.28481245 0.30259725 1.14258730 0.76196891 -0.37963083 0.11426371 1.24778724 -0.29461280
-1.72186792 1.57388496 -0.49673975 0.95802867 0.49612668 1.05050325 1.57047248 -0.48314372 -1.56921029 0.82446331 -0.21864097 -0.23286687 -0.31361231 1.04971015 0.82977742 0.10368138 -0.37328020 -1.04225492 0.01973235 -1.05491209 0.23096639 1.39056516 -0.17115283 -0.68402892 0.20060897 -0.82872939 -0.92334640 1.00919068 0.58623374 0.53131342 1.41228056 -0.17917378 -0.72777736 -1.31462944 -0.03340014 0.10916506 0.85482031 0.62734574 -0.65992337 -0.13495226 2.69079638 0.34045321 -0.27316856 -2.62951851 0.26188767 -1.89029241 -0.63567400 1.77405620 -0.12133983 -0.83909535
-0.39947683 -0.60211444 -1.92658317 0.88479120 -0.12030064 -0.74234599 0.42296666 0.99586403 1.56886411 0.09246847 1.08189178 -0.15699725 0.26715818 0.63164508 0.51536345 -0.17023838 -0.69302881 1.17767668 -0.50104624 1.08716691 0.06752115 -0.93424022 0.08645356 -1.69224799 0.39009935 -0.97314513 -0.97791368 1.21631420 1.20386529 1.51689947 -1.06459129 0.95120597 -1.54551613 -0.45250890 0.82855797 1.93402326 0.04937689 -1.35883367 0.04008470 -0.86281818 0.67366284 -0.18336585 -0.35405773 0.95198458 -0.89510465 1.23257864 -1.48675179 -2.37302852 0.75142646 0.81061625
1.01696873 -0.06926959 -0.62353384 -0.02585366 1.38314772 1.15925467 -0.70735180 -0.40331778 -1.00560975 0.11531177 0.90017265 0.18044493 -0.96562225 -0.60171032 -0.88425958 3.61426902 0.69080913 -1.06117129 -0.40861171 -0.76487887 -0.42212081 2.00155020 0.39946580 0.18683735 -1.35648453 -0.48476031 -0.82372624 -0.24498241 -1.89114702 0.35164043 1.04190922 -1.31370151 0.67832994 -1.66305375 -0.03669333 0.61587161 -0.67500526 -0.15572868 0.25703579 1.05726051 -0.08452626 1.99665844 0.20970577 1.59827554 -0.02804591 0.39919379 0.71390557 -1.01997924 -1.43425286 -0.44426018
0.39971769 0.03446334 -0.35230944 -0.56543523 -1.00591934 0.40367219 1.34399033 -1.40529346 -0.05909868 -0.82480341 -1.63249528 0.14455394 1.16826522 -0.28521547 -0.28435966 0.76921457 -1.80061460 -0.14308862 -0.95604861 -0.87090850 -0.61872756 -0.48333696 1.20404005 0.22305354 0.80708170 -1.03842747 -0.38097686 0.43321976 -0.47674081 0.09203401 0.56417876 2.38259172 -0.04023477 0.49500015 -0.20982255 0.22346632 0.44334331 0.67661214 -0.10824329 0.16635883 0.14516312 1.08655584 0.70396167 0.71644771 -2.28111529 -0.81363887 -0.23540381 -0.60228252 1.90953791 2.01890802
-0.57697296 0.21031313 -0.32076910 0.37634069 0.92076617 0.95230621 0.01034220 -1.43474126 0.88339961 -1.36752963 0.12795554 0.81720412 2.01109695 1.79148328 -0.37419632 -0.69209951 -1.75810993 -1.66218126 -0.74379694 0.35096914 1.47364700 -1.75717521 -1.48210669 0.42874131 -0.90705997 -0.22295274 1.50214195 -1.05784667 -0.84805036 0.87478286 -1.08293235 1.22979438 -2.63282847 -0.46274740 1.54697597 0.29557341 0.87977850 0.38153613 0.54016769 0.87240338 0.48752105 -0.05941501 -0.29009521 -0.49043271 0.06591076 0.15992367 1.29797304 -0.52442342 0.51733100 0.75900251
1.44250488 0.91225439 1.71689641 1.24173665 -0.53791076 0.35935140 -1.31995273 -0.66610056 0.59346920 -0.57820559 -0.94620389 -0.32758218 -0.33755144 -0.46043074 -0.45451650 0.66697699 0.00455648 2.51318860 -0.25742599 -2.31691885 -0.56562293 -0.97249293 0.25028551 0.26152134 0.06174070 1.34286988 1.17955267 -1.32520568 -0.00297025 -0.62423128 -0.89753026 0.84037596 1.49919736 -0.61165249 -0.04171704 0.30045107 0.88171005 0.42102239 1.09255290 -0.93434751 -1.19359207 -2.39577222 -0.44816822 -0.70832491 0.77906269 -1.50204110 0.48601946 0.80955201 0.36170363 1.35468280
-0.08413951 0.12131546 0.31350505 -1.08159041 0.26142123 0.49414715 0.00316948 0.69137377 0.26697022 2.16541195 -0.41789952 -0.06812225 0.15262192 1.20611978 2.10249567 -0.01920641 -0.66455334 0.89172137 1.06047606 -0.59991550 -1.25136197 1.30358684 0.57629037 -0.54893315 0.25850108 -1.06797612 -1.37533760 0.08509064 2.07930231 1.05988371 -1.12914753 1.73194396 0.35560206 -1.57424247 -0.28812286 -0.65728158 -1.20893610 0.16993369 -2.82033467 -1.17850995 0.57894725 0.50067854 1.43319404 -0.63574141 -1.38958287 -0.71979558 -0.26119453 0.06942540 -0.06172758 0.05612330
0.90500534 1.13925850 0.50738233 0.04925399 -1.05183434 -0.36419913 0.53177536 -0.51078218 -2.52249432 -0.02665275 0.75201267 -0.89779210 -0.25345376 -0.15555044 0.40522188 0.20942217 0.12669794 0.10668641 -0.37219858 -0.45955926 -0.80428660 1.86266887 0.77342093 0.11312081 0.31464759 0.81453103 -1.54205394 0.29227972 -1.39099944 -0.57099146 0.56279796 0.07430997 0.53590697 -0.58401674 -0.04439480 2.57905245 -1.76049924 0.46783847 0.20082638 -0.88098294 -0.00371434 1.11623371 0.87760055 0.39935762 0.91096282 -0.22177315 -2.14066744 -0.33548141 0.82690406 0.44101289
-0.32030773 0.46927637 -1.21273911 -0.62464827 -1.97246051 0.13474025 1.59373343 -0.69314206 1.33300710 -0.10144274 0.27681333 -0.82088584 -0.43618351 1.47062218 -1.36351073 1.87510097 -1.36185789 -0.68221939 -1.98780918 1.10179484 0.00388490 1.58978498 -0.52263248 0.59988421 1.33122671 -0.12950329 -0.49882209 1.03167820 -1.19179332 0.22855690 -1.84211195 -0.02450016 -1.29402506 0.64983970 -1.28249240 -0.76098961 0.89212298 1.25397503 -1.26297474 2.02914619 -0.84646088 2.08727169 -0.46121210 0.67290378 1.48649764 -0.59017485 1.71690464 -1.38489640 0.16121280 0.73563665
-0.93460023 -0.18099982 0.72306746 1.71799552 -0.94724834 -1.63095498 -0.07343189 2.23526502 0.71103126 2.99119806 0.35235897 -0.09436060 0.54080260 -0.34980401 -1.40816712 -0.40558144 -0.60967356 0.51617295 0.52837741 -1.36809313 0.14246118 -0.45085615 -0.29227510 1.46234620 1.14626217 -0.75842768 -1.15111780 -1.32117653 -1.78741992 0.42820793 -1.08354104 -0.75902468 1.29084182 -1.05557370 0.44321027 -1.01591492 -1.72356617 2.32098055 -1.94165254 1.09589982 0.84589273 1.06955564 0.95782083 -0.57042074 0.04913364 -0.13420816 0.55957258 0.38674688 0.57865733 -0.07433431
-1.56218064 0.90293497 -1.21538889 0.53742826 -0.24719688 -0.87908483 2.28990436 -1.49459219 0.36475745 -0.48061350 1.21115673 -0.72037786 0.08463581 0.91525042 0.24025862 -0.42579481 -0.78749388 -0.42002797 -0.72912079 1.07154405 -0.73712862 -0.46834654 0.46310386 -2.19370580 -0.77674603 0.71248782 0.09668414 1.89730859 1.77855837 2.16589022 0.45843199 -0.46782726 0.13326149 -1.29860508 0.88884968 0.44230521 -0.89519149 -0.39254865 -1.00501406 1.84639275 -0.37831733 -0.39819497 -0.28720862 0.53875309 0.37876615 -0.66646016 -1.16808641 1.41473591 -0.47452667 0.76251596
-0.85853601 0.27336881 0.27496493 1.04630530 0.37500930 -0.50810146 -1.37928319 0.48052922 -0.17113893 0.65022290 -0.71827650 -0.25499976 -0.73564249 0.26786774 -0.25863245 3.64888406 0.10107066 -0.14884165 0.59130275 1.06384063 0.49562976 0.02625203 -1.40706933 -1.23123014 0.29579470 1.01446593 0.08628900 -1.12891757 -0.06013181 -0.53236264 -0.09858558 -0.09851022 -1.16216743 -1.82996190 0.21524054 -1.05630291 1.12135208 -0.05492126 -0.75765538 -0.13272633 -0.01476542 1.24161053 1.29036546 2.89070487 0.44549266 0.61259437 0.40005976 -1.47015083 -1.47777891 -0.38293001
-0.78442442 1.69089723 -1.34265625 -1.08402228 -0.14022096 0.43126670 -0.95886785 -0.81014293 -0.61286646 0.67648154 -0.89584661 -0.54202253 -0.04442220 -0.92877305 0.66987693 0.21629022 2.07199097 -0.77289575 1.30716193 -0.05440590 0.47683370 0.53912777 -1.19327080 1.09940064 1.14747620 -1.07369196 0.03574461 0.48265821 1.32821202 -1.84422338 0.05328068 0.61262745 -0.60821456 1.17176235 -1.87085187 0.76282585 0.81149262 0.26588929 -0.12122507 1.24641478 0.25327319 0.06330000 -0.30751455 0.56170678 -0.03441058 -0.08705503 -0.78090852 0.34061113 0.21795751 -0.60780543
-0.00341398 -0.35774294 -1.53018379 0.61613494 0.38802341 2.06950259 0.52651435 0.54810131 -0.92452157 0.59273547 -0.09217025 1.40889859 -2.34622765 -0.69292027 0.53534341 0.27592602 -0.19408801 0.45426625 0.02634661 -0.34139973 0.38702208 -0.22542423 1.13592732 0.97757721 -0.31908062 0.10888765 0.46609199 1.13880050 -1.50017536 1.04311657 -1.36229026 -0.34410504 -0.96088773 2.21335626 1.57775676 -0.51816654 2.02057457 1.65007102 -1.92572057 -1.26345956 -1.28872466 -1.09654558 0.75829339 0.36764613 0.52526003 -1.44169974 -1.82779217 -0.57422686 0.23388122 0.02092917
0.95304620 1.01213706 0.25363794 1.13876116 -1.08310127 -0.70345777 -1.31139982 -1.84880638 1.49030232 -1.14731205 -0.51878434 0.39097548 -0.00269280 0.16207479 -0.75501573 1.87127519 0.76175320 0.49980876 0.28141645 -0.81168646 -1.24311793 -1.20870435 0.07857923 0.47617185 1.52121174 1.19965839 0.42893669 -0.70977968 -0.38871369 0.16531721 1.35989165 -1.79266107 -1.51319063 0.08168219 0.06954341 1.24413443 -0.05101003 -0.22420675 -0.56804788 1.76759517 0.03880751 -0.65316898 0.67427516 0.59658837 0.54503673 0.19764586 0.06036856 -0.97220856 -0.63903642 -0.19075704
2.08905411 -1.18988943 -0.39644235 -0.69683611 1.16192639 -0.56454074 -0.66612738 -0.25727487 -1.49489760 -0.75035357 -0.31743410 -0.56947291 -0.35204649 0.82645112 1.88583124 -1.23738945 -0.16287252 0.01324759 1.05565596 0.07720653 0.04879833 0.43841606 1.02358687 0.20959333 0.53640711 -0.66484100 0.35186714 0.53364611 -1.72531521 -0.38158020 0.20127189 -0.35596812 -1.24480605 -0.34426445 -0.02492652 0.72788006 0.60813850 -0.03433852 0.58108050 -1.03388417 -0.02649465 -0.90029424 -0.52791888 -0.31973937 0.83723140 0.45556673 0.68064415 0.33425945 1.19589651 1.40707517
-0.54506683 2.06979990 -0.48230693 0.92290151 -1.88414824 -0.81882715 -0.30808282 0.68758631 1.40044188 -2.58606887 -1.48292530 -0.82471395 -0.60441655 -0.43097016 1.46012306 -0.19577837 -1.75579834 0.15886140 -0.83438241 1.74613297 1.42998874 1.77458370 1.91393149 0.78735042 0.59093791 -1.79514110 0.69408840 0.94004834 0.16080090 0.94958514 0.34348929 1.52925611 0.40081614 -1.78488898 -0.13949826 0.75132322 -0.01756651 -0.47515154 0.09625662 0.45677400 0.64535517 0.40591821 -0.40963408 -1.60803092 -0.18006068 0.05649715 -0.35419208 0.59561038 -0.89733922 -1.56910574
1.16314423 -0.78113675 -1.02673924 1.92971635 -0.17890660 -0.81478524 -1.21386564 -0.03936711 0.66733688 -0.01674684 -0.53131688 1.37573504 1.26477683 -0.23440568 -0.80151498 -0.37284222 -0.25436261 -0.22313973 0.15318741 -1.00389838 -0.94571602 -0.41007736 -0.17601894 -0.61264902 1.53918517 -0.69019556 1.00686288 0.08079799 0.80933797 -0.05066346 0.94311619 -0.48943448 1.01011229 -0.58898407 0.51085633 -1.31325722 -0.67911702 0.35265508 0.43358579 1.28000104 0.59220397 0.14199711 0.40173173 -0.51473963 -1.49371231 -1.10092652 0.75339460 1.01075912 -0.79701483 0.93588924
0.25152293 -0.40709114 -0.00568363 -0.06079996 0.91205335 1.65096438 -0.38393724 0.50812745 -0.55708355 -1.25058985 -1.44622469 -0.11426128 1.88990700 0.68292081 -0.84860927 0.16287525 -0.09227338 0.91019613 -1.43844044 0.02579555 -0.47064796 2.05181527 -0.40925029 -0.94514489 -0.87393188 0.68260318 -0.25043595 -0.03184373 0.47005352 0.59932017 1.37360585 0.52901298 -0.69266534 -1.34981918 0.59043407 0.52431893 1.40220296 -1.24830008 0.48502755 -0.68471587 -0.30410013 1.46692419 -0.54580939 2.00288534 -0.54614574 -0.20238611 -0.48859909 -0.78824776 -0.45144078 -1.32561576
1.90878356 -0.90981418 2.73714256 0.40076938 -0.60254616 0.99816012 0.28947011 1.62438476 -0.70785743 -0.72852772 -0.32767293 -1.61875868 -0.35715723 -1.23119652 -0.31164491 -0.07340346 0.11274473 -0.96549910 1.00367165 0.55907166 1.01322711 0.00899714 -0.52151960 -2.26764846 -0.56864280 -1.56430256 -0.55697942 -0.06224967 0.24055731 0.49116853 -0.97842056 -1.47599483 0.57997179 0.22655727 -0.84208483 0.28680435 1.03206587 -0.08772514 -0.82718408 0.20473956 -0.09413343 0.49007282 2.06017160 0.47441602 0.81149518 0.10185108 0.61332524 0.22408444 -0.48956072 0.66427630
0.58270776 0.02148070 -1.59796584 -1.34331882 0.63996607 -1.71808469 0.83251184 1.20202208 -1.46244383 2.32640219 -1.17454970 0.04535977 0.70629138 -1.52246630 2.29289556 -2.05355549 -0.08330137 -0.14628187 -2.31127477 0.92363906 0.89379019 -1.15020347 0.38204971 1.07712030 0.90054840 0.97311062 1.13992107 -0.94806188 -0.17127605 1.32335973 -1.38706422 -0.22434257 1.28447342 0.30034396 -0.90930063 2.47576642 -0.26888275 -1.23704612 -1.49482536 -0.32388327 -0.69712418 0.78961754 -0.85924339 0.15434514 -0.03249244 1.03850579 0.82974058 1.06429911 0.66778433 -0.71145272
-0.30312192 0.53495288 1.60433745 1.42665815 -0.50287098 1.32882237 -0.80604863 0.79099536 -0.20053752 1.46764922 0.80852634 -0.58905238 -0.19431806 -0.50942862 0.70601612 -2.46312547 -0.59383875 -1.39726007 -0.56272787 -0.41651827 -0.01721299 -1.28369343 0.18423103 0.99282885 -1.35307407 -1.81129491 0.32898512 0.47595000 -0.70157760 0.34041959 1.86379623 -0.04581251 -0.81072283 0.63459361 -0.31503540 0.33974183 0.63135052 0.29224008 0.28207955 -0.26155412 0.41454345 -0.68606710 -0.36083269 -0.94400656 0.72060347 0.76243514 2.14488697 -1.36408150 0.46299356 -0.07369487
0.43884787 -0.22512162 -0.26706335 -1.15164042 -0.17256762 -1.24608123 -0.70901144 0.45124516 -0.15201731 -1.51538157 1.06701171 0.84402436 1.62615478 -0.54785621 -1.24560153 -2.07029939 1.30364895 -0.94542676 1.32733834 -0.78706878 0.85900664 -0.17019638 -0.12518550 0.02698379 0.08150270 -2.28928089 0.46947685 -0.28802222 -0.05019097 -1.10672176 -1.87970066 -0.53462642 -1.07616961 1.09786165 0.87316465 0.24201627 0.80490673 1.98911166 -0.09791987 1.04435551 0.57807207 -0.72938657 1.36336517 0.90260744 1.12103462 -0.81152403 0.40322813 0.22070755 -0.57703257 2.74082446
1.05428731 -1.03892100 -0.67816806 0.86095744 0.11683250 -0.18483591 -0.99605531 0.41722518 -0.78027320 -0.84269035 0.47278845 0.93546253 -0.24002935 -0.80900580 -1.55098462 -0.40788576 0.17456824 1.41723800 0.21096730 -1.75282633 -0.37601781 1.40121770 2.07540083 1.42606175 -0.31753874 0.73715395 -0.46191052 -0.04319627 0.47824323 1.25695109 -0.29559836 0.24292636 -1.33308947 0.94145489 0.21413162 -1.77719426 -1.51084173 0.68939596 -0.53974068 0.59702796 0.19283904 -0.48690552 0.22744654 -0.23911066 -0.56340086 -0.84335715 1.48896956 0.40001276 0.31543475 0.74134105
1.07539666 1.41827726 -0.94086188 0.29601502 -0.65435284 0.51872265 0.27182254 0.25494707 -0.10653169 0.78249037 -0.10183898 -0.86100250 -0.43671057 -1.93488073 -1.54744077 0.90753925 -0.81537139 0.87106729 0.31899163 -0.53251141 -0.38866743 0.51530236 0.83022833 0.90967858 -0.02932761 0.74808234 -2.23374057 -0.11153695 -1.34963167 -0.13355076 0.65110373 0.70173091 1.26819623 0.90044338 -0.75526386 -0.82889235 -1.76228559 1.01742077 -1.34686291 0.90124691 -0.93846136 -1.24242485 -0.10943719 1.32147717 1.12850058 1.21955788 1.64199114 0.31568179 -0.10250027 -0.51631945
-0.30440223 -0.55676794 0.28530031 0.07040221 -0.04781829 -1.11971235 1.03367829 1.30833983 -1.27627552 0.62349033 -0.24755946 -1.21392250 -0.07285035 1.70789361 0.11645260 -2.18199682 -0.30122533 0.70362580 -1.48830974 -0.45969453 1.22187471 0.54429722 -0.43076554 0.55646449 0.05508710 1.01981592 0.78071976 -0.00510931 -1.16630828 -0.43551713 -0.70592088 -0.46520787 -1.24186099 -0.85011446 -0.58932704 1.34359992 1.49743259 0.23954818 -0.52450949 0.18098274 -0.30794230 0.51309532 -0.85952038 -0.21911602 -0.29520875 0.92128408 1.88596463 2.13688993 -0.20307410 -0.12940818
0.04172112 0.61208957 -0.80119872 -0.33042186 0.09004856 -0.78742754 2.20208740 0.77982163 -0.24530008 -1.54743361 0.79803401 -0.46980828 -0.50275731 0.29062730 0.23535642 -0.50210494 -2.67834997 0.75626516 -0.99173534 -0.22619662 -1.14142740 -1.33722067 -0.05750883 0.66601849 -1.28667343 1.32491338 1.29295480 2.06010532 -0.72993428 0.76039255 1.35586643 -0.50181341 -1.55650651 -1.06849611 0.03396890 0.15761195 -1.08405840 0.44535279 0.57742739 0.06849702 -0.99293321 0.44123203 0.24848083 1.48426914 0.42187476 0.81743032 0.54280353 0.30148026 1.79349601 -0.70530802
-0.67539144 0.22336839 -0.75215888 0.44309276 -0.00919585 2.16254067 0.73657268 -1.00180519 0.29191154 -0.70969045 -1.06306684 -0.17685987 -0.74007004 1.14384723 -1.46178401 0.51420474 0.03152361 0.24999337 -0.59159052 1.05643415 0.66441858 0.11551987 0.54669619 0.44395557 -1.66081738 1.10735142 0.23343422 0.56225550 -0.33354566 1.24775827 -0.87704450 1.02627015 -0.08216608 0.29838896 0.53837788 0.26094538 -1.26118052 -0.28754836 0.07281779 -0.73124951 -1.40534449 0.63277787 0.43946716 2.44318366 -1.67844462 0.06533538 -0.17268428 0.22801796 -0.83625513 -0.29342660
-0.76406181 -0.65598649 0.70568752 -0.14284821 -1.06256926 0.48466817 0.42409629 0.95812058 -0.92255402 -0.82756209 -1.02804780 0.78788716 -0.22725303 1.45689535 -1.46804571 1.81493223 -0.17323478 0.64246643 -0.89106876 0.52433681 0.44704467 1.11837602 1.22116923 -0.11337469 -0.06315652 0.04049919 0.47873110 -0.36777407 1.32609713 0.93092293 -0.95527440 -0.49080023 1.08835375 -1.23283374 -0.18218304 1.72695315 -1.12692595 -0.55674833 0.60303545 1.36438227 0.93989569 0.27526075 -0.27575386 -0.58747530 -1.46469021 -1.35021842 0.83309960 -0.60942507 -0.35072652 -1.33897221
-0.21923241 0.99442577 -1.05504572 -0.82409030 0.33308756 0.43010029 0.67888683 -1.31283724 -1.69884479 -1.72641933 -0.30349359 0.04234090 2.14973760 -0.07458728 0.70540738 1.59574819 2.40152931 0.07863141 -0.32377172 0.70195079 0.56102884 -0.80839866 -0.13826215 -0.03450774 -0.61235398 0.39883479 -0.82086861 -0.36909631 1.84745157 -2.69799685 0.01911801 0.47233522 -0.26999080 -0.12523514 1.11613262 -0.09360829 0.74358261 -1.25910783 -2.28749728 -0.90622914 0.56922662 1.79854476 1.72239304 1.40304685 0.20765926 -1.28965890 -0.61872834 -0.32708403 1.51037037 -1.29033649
-0.45526475 -1.15924871 1.05309105 -1.34178519 -0.26743424 -0.84096545 0.54591388 0.73861665 0.72712463 -0.28743756 1.01380479 0.31700379 0.80787092 0.19684374 0.48514137 0.28372699 -1.46466172 -0.75821048 -1.18037713 2.14675069 -0.78374076 1.29268885 -0.07671184 -2.73161030 1.14432502 -0.51135010 -0.90820032 -0.29795548 -0.02642681 -0.02323014 -1.64904904 1.33143485 1.58244324 -0.79123652 -2.54503298 0.74730527 -0.07981226 -0.06798797 0.37824225 0.62059313 0.94405979 0.85212815 0.29909697 -1.00692058 0.92999703 -1.16828310 0.48205787 0.37308684 1.46210742 0.70268983
-0.85639405 -0.06483834 -0.57664537 0.77948463 0.77818286 -0.13557956 0.29599673 0.53536117 -0.97902948 0.34847182 0.13518961 -0.98053700 0.55830723 -0.38446477 0.23232222 1.41483283 0.92167300 0.51651567 -0.92854410 -1.38642955 -1.11900139 -2.77121663 1.56152189 -0.95664620 1.27743387 0.62207222 -1.76969302 -0.78113961 -0.13097586 0.61186093 0.80388755 0.24094264 -1.09762359 0.23488009 0.12177528 1.71377850 1.64390564 0.50110912 -0.34311503 -0.48596820 0.90064543 -0.57698017 -1.40705371 -1.17042327 2.03059793 0.47791624 -1.00236404 1.37884760 -1.38807893 1.67692149
-0.22256620 0.02318951 0.96075827 2.22086573 1.46799064 0.09714422 -0.81892878 0.62372696 -2.08528829 -0.15601680 1.63541853 0.80942714 -0.45450723 1.04455650 0.20549412 -0.97303653 -1.22497284 0.42803636 -1.68379402 -0.27652252 -0.05127003 0.86604565 0.65966731 -0.48949051 1.70711374 0.55898184 0.85764414 -1.39925778 -1.63403130 -0.45715204 1.26017845 -0.16540463 -0.50369126 0.96791583 0.99612778 0.06851931 -0.43101552 -0.37250471 0.21510874 -0.51476103 -0.12149906 0.58451539 0.41678247 0.56377321 1.09010160 -1.36526012 0.06910221 -0.33479550 -2.86251426 -0.90475738
-0.91615206 -0.68467957 -0.10229182 -0.88824654 0.58845037 -1.12892544 -0.74802303 0.74861199 0.39723361 -0.90043616 0.56284606 1.03132665 1.88848054 1.27926111 0.06352611 0.96129662 0.64009839 -0.36280739 -1.24417675 -0.09270396 1.91439521 0.95902634 -0.01198679 0.33311838 0.92381895 0.84488404 -0.48170155 -1.07312858 -0.14205715 1.20034468 -0.36681825 -0.18255815 0.16427167 -1.21391356 -0.38504863 1.02085125 0.72462606 -1.72996831 -0.39009082 0.27529681 -0.01558182 -1.76328695 0.11709251 -0.12121929 -1.90564406 0.51500750 1.00296628 -1.19513464 0.37249070 0.47245833
0.18594071 0.77032006 -0.22601539 -0.40629163 -1.24380767 0.42771047 0.22384414 -0.14837712 -0.23123829 -0.66695470 -0.93438059 0.28771588 -1.02380240 0.49408469 0.09599840 -0.71665323 0.24657206 -1.09212720 1.30925357 -0.78413230 1.13155580 0.56344759 -1.09843183 1.26247227 -0.34207451 -0.08273586 -1.64233375 1.53004992 0.70264995 -0.54173326 0.32954583 1.04109073 0.07985038 -0.21410061 0.46539176 0.64226222 0.91646886 0.52499157 -0.05394109 -0.48382464 1.98538804 0.47579283 -0.27568683 -0.32986498 -1.73183429 0.86236334 0.09701079 -1.72162890 -0.13094829 0.49032870
-0.97572446 -0.90340602 0.48009974 0.03629008 1.05580616 0.98420632 -0.98725921 0.12661387 -0.04269601 0.17390527 -0.26040390 -0.38328803 0.71596903 1.29800737 0.42570513 1.22723234 -1.33001566 -0.33749485 -1.76584435 -1.59128499 -0.60491508 1.03061211 2.30338192 -1.18588626 1.23753440 -0.68501723 -0.49111584 1.90478659 0.79056317 -1.09720337 0.97983205 -0.26168895 -0.37185916 0.36579525 -0.51054394 -0.90459645 -1.92916620 1.02291393 0.71474111 -0.41322738 0.22888437 1.32482815 -1.16091561 0.02557961 0.41481602 -0.66643840 0.25970122 -0.58378726 1.22184038 0.08895113
-1.50526750 0.92936647 1.83893788 1.22795749 -0.52505279 -0.72632468 -1.22305715 -1.74106336 0.00485939 0.91228980 -0.56755298 -0.00458815 1.32189703 1.90230596 -2.03676701 0.33014432 -1.14678943 -1.52738857 0.14061321 0.33946303 1.15726721 1.05490685 1.11355972 -0.69879252 -0.40494621 0.53646266 0.88260084 0.74324095 -0.10518534 -0.99294877 -0.03086752 -0.37535942 0.14608577 1.04903555 -0.20261417 -1.40040016 -0.98125029 -1.45240057 0.86748064 1.30389762 0.93182051 0.24484417 0.27295849 1.33023250 0.77678877 -0.85854989 -0.75136334 -0.65576744 -0.31594110 -0.14236079
0.73816693 -0.57439947 -0.18605077 0.56981850 0.12246251 0.02957676 -0.57623512 -0.21739146 -1.62977552 0.86448270 -0.95731938 0.08905372 0.70782346 -0.11378942 -0.17091382 1.12916303 -0.45880064 -0.31490061 -0.40072849 0.61844403 0.09032788 0.97720653 0.12061480 0.89510626 1.25700223 -1.32881057 1.23620403 -0.82917446 0.54399163 0.79655784 0.28703818 -2.11170745 0.14561532 -0.34627283 -0.84755361 0.39154732 -0.87600100 -0.03681397 -0.49382174 -0.01297117 0.96424848 0.61264485 -0.79128122 -0.63233590 0.59875613 -0.03761285 -0.02287230 1.50042939 1.36218715 -1.68589818
0.39669716 1.05834126 -0.82875341 -0.04492539 0.39045131 -0.83309209 -0.70111030 2.02623749 1.54143786 -0.06173240 -0.22427623 -0.97788733 -0.55563176 -1.38722694 -0.85100520 -0.52544850 0.00258400 1.91064155 0.15477753 -0.47597563 -0.12349486 0.87399554 0.00404433 0.83998126 -1.07765257 0.11849979 -0.81205267 -1.31359065 0.36247057 1.00482905 0.06330295 0.82386863 -0.78447533 0.26823506 -0.68245184 -0.43293208 0.42166141 0.11753617 -0.40474200 -0.72328824 -1.20141852 0.87100869 -0.29101345 -0.20850356 1.72771776 0.50200331 1.75488770 -0.73713702 1.16210854 -1.13996470
1.54321349 0.02863393 2.40195465 -1.09141862 -0.59527385 1.01909864 -1.35831654 0.33397430 1.89530730 -1.66831779 0.22454092 -1.73616540 0.19398199 -3.64803171 0.65121830 -1.20952606 -0.36350042 -0.24754304 0.66940933 -0.18841343 0.75395876 0.13822021 0.27750546 0.89360774 0.47149411 0.36376581 -0.30375361 0.27735436 -1.16483736 1.30779183 -0.32819790 -0.73505127 -1.40035498 -0.38613611 -0.74178123 1.40538406 -0.57453293 0.20522296 -0.80772853 1.64242148 0.46762928 2.13143277 0.14407375 0.96659994 -1.04689288 1.78875506 -1.54327440 0.63042212 -0.03271765 -0.64736152
0.77877516 -2.31969690 0.24568617 0.59877598 0.46547797 1.15891349 -1.47660196 1.61237013 0.70934361 -0.69227087 0.52767372 1.02251935 -0.72319973 0.77497822 1.09364235 0.79906321 -1.58900070 0.42766672 0.49748558 -1.79399908 -1.80962133 0.27605459 -0.04347296 -0.28652382 -1.21304560 -0.23758706 -0.22388570 0.42481026 -0.41156998 -0.10602636 1.44360256 1.63481832 -0.54821843 0.70730102 -0.95983285 1.00507736 -1.25282872 -1.26041031 1.44115746 0.16827467 -0.34300107 1.54094779 -0.92577463 0.60177660 0.17902222 0.46130359 -0.47377676 -0.44188055 -0.82589346 0.33279136
-1.06058562 1.38389361 -0.29558989 0.41133419 0.93191379 2.10584044 1.75833011 1.19006467 -1.69850910 -0.33642572 1.31709051 -0.29471067 -0.59614360 0.20294981 1.61814296 -1.88335776 -1.30282080 -0.01483219 -2.13919234 -0.73400939 0.04866096 0.52847016 -1.37562704 -0.24823076 0.13234803 -0.94940728 0.33470458 -0.38717633 0.42083746 -1.86279380 -0.21453896 -0.79466987 0.63207889 1.07049859 0.28066075 -0.40733069 0.76453525 2.04258037 -0.34861982 -0.41561314 1.75144613 1.05717683 -0.78458387 0.13180962 -0.70013309 1.44579983 -0.73184949 1.16837537 -0.62095135 -1.57252216
1.07752848 1.16779208 -1.50320971 1.78618550 -0.88179368 -1.91349292 0.95631641 0.59612346 1.29970646 -1.22084427 1.22198892 -0.44661304 0.66271991 -1.95831907 -0.07288843 0.61052895 -0.14082716 0.69111121 1.04888642 -1.85168314 0.80977333 -2.24050760 0.59661102 0.44803402 1.09194386 -1.29413927 -1.12700450 0.07778252 -1.56650388 -1.62875080 2.90967083 0.60787040 -1.29487348 1.39745533 0.12251966 -0.25582004 0.17549211 -0.07482183 0.45339954 -1.09553027 1.14660048 2.23958230 0.01583903 0.12028658 -2.34901190 0.25227395 0.44776309 1.30258894 -1.42086983 -0.02400704
0.51949912 -0.20432675 -0.77173728 -0.61889040 0.15468155 -1.30566597 -0.49405301 -0.02443487 -0.97328162 0.42948455 -0.43451485 0.68503839 0.72575521 -0.39536136 -0.06811476 1.55712509 -1.00540078 0.72703063 1.10404944 0.36969239 0.18583807 -1.35310042 -0.91606653 -0.58036608 -1.81075513 -0.65901178 0.39150670 -0.00116458 1.29610693 0.18524456 -0.61773276 -0.08681439 0.24652518 2.84342670 -0.41169187 0.24147367 -2.04932809 1.00050139 0.29267970 0.49940044 -0.84842348 0.67808259 0.74620992 -0.03770595 -0.62173599 -0.02678357 -0.49035379 1.78273273 1.16733110 0.03648699
-0.15175992 -0.94157362 -1.57689166 1.83525455 -0.09074039 -0.12087801 1.04478574 -0.18239713 -0.67698067 2.14189076 0.47770059 -0.84631312 -2.29547787 -1.05121052 -0.82565010 0.96198148 -1.75527906 -0.34373221 0.90580404 -1.10306883 0.49508092 0.09147266 -1.49122930 -0.45639488 1.26510954 -0.41664973 0.15296787 1.20708764 0.24614006 -0.74922353 0.14535937 1.16289532 1.49434376 -0.13202763 0.99532878 1.43307936 -0.43429843 1.75938010 1.10936058 -0.10790119 -2.07524204 -1.84458542 -0.33945587 -0.10040841 0.49626923 1.65835905 0.63745707 -0.84723729 -0.00849569 0.29904142
1.81045341 0.80708110 -0.48278716 1.30798936 -1.46792459 0.69867224 -1.13554060 1.64015126 -0.19958302 2.33107305 0.44085822 -3.08365440 -0.56608629 0.36811954 -0.57394975 -0.06547146 -0.59456754 -0.24136955 -0.11826511 -1.32509160 1.09546816 -0.79508770 0.22290364 0.71377778 0.51647317 -0.00176850 -0.59871292 -0.16077185 -1.49218976 -0.98280632 -0.11916757 -0.20491815 0.45263961 1.23598373 0.29925102 -0.84356982 -1.64617634 0.42835698 0.57249308 -1.58757150 0.06381206 -0.27792767 1.01405692 -1.21157420 0.49652690 0.04405219 2.26983666 0.32489982 0.53977066 1.06953478
-1.60986233 1.29619682 -0.64515793 0.81959116 1.33460450 0.34679914 -0.24529137 -0.78556991 0.98426205 0.35704443 -1.69514060 -0.70302409 1.02686095 -0.71184409 -1.83625698 0.02138888 0.07435577 1.43800128 0.89593554 1.04712796 -1.69378114 -0.87711507 0.69016302 0.69811678 0.58328700 0.65931761 0.08013969 -0.41318813 0.13169856 -0.68099022 0.58849669 -1.86014378 0.07854928 -1.93701816 1.64813709 -0.63325322 0.57865351 -0.48817492 0.35066688 -1.42814529 1.03582788 1.47720647 -1.49753332 -0.23033905 1.17001176 0.67960602 0.62568414 -1.09331775 1.73447359 -0.37923011
-0.95102435 -1.83433008 -1.51662934 0.66839206 1.39565647 1.12895620 -0.31444260 2.32279134 -0.63234365 0.72151953 0.11804968 -1.36952960 -1.31691778 0.82581657 -0.36952505 -0.76435864 -1.70186567 0.29929206 -1.46662402 1.05542982 1.37200165 0.32196587 -0.36607561 -0.16777138 0.68287253 1.71623433 0.38183847 0.24139778 0.99638236 0.67044491 -0.44619292 0.67696822 0.18661739 -0.08567655 0.63513029 0.68764287 0.17802633 0.67178977 -0.46155617 -0.55105639 -0.52013117 -1.22330248 -1.73456037 -2.61340356 -0.66581517 -0.20725033 1.94262719 -0.16181886 1.12687492 1.43718398
-1.86725652 -1.47318363 -1.34850919 -0.62412542 -0.42951623 2.13976264 -0.17956264 -0.05234426 1.24773502 -0.79412174 0.42184669 1.76789510 0.08691592 0.61909121 -0.93023819 0.92493176 0.48523736 -0.60002190 2.15727472 -0.43403888 -0.35575691 0.54131019 1.42056084 1.37083423 -1.13848603 -0.51167440 0.94644535 1.61903334 0.55987877 1.06718361 0.69824243 -1.68384027 0.46615529 1.05606699 -1.21954858 -1.04471457 -1.24525952 -0.31424898 -0.31262425 0.46443284 -1.57327557 -0.24355286 1.19708157 0.39510641 -1.05516481 0.41373539 -1.88657784 0.00388827 0.47886848 -0.25522760
0.66488957 0.59215510 -0.57220286 -1.25733101 1.42327976 1.22026265 1.01618969 0.46932003 -1.52271235 -0.92447966 0.56374693 4.11716890 1.07150126 -0.25648108 0.01177310 0.28428522 -0.44488227 0.00941669 0.35361594 1.27260041 0.91988373 -1.56214869 -0.52334577 -1.13828075 0.96500105 -0.40760788 1.41328180 -0.39902243 -0.88887990 0.60356706 0.14463176 0.22872782 0.35382488 -1.02456832 -1.45130754 -1.52092516 1.81312799 1.19875240 0.49010313 -1.20258725 -0.29875073 -0.05857188 0.78500319 -0.70492649 -1.05803239 0.09526909 -0.28047940 -2.08833742 -1.05634868 -0.59084654
0.02204191 -0.49349794 3.32690859 0.59122527 -1.22833335 -0.74793309 0.12987398 -0.38659701 -0.31410050 0.36216152 -0.91909474 0.72707134 0.17294012 1.80870163 0.17699587 -1.67269099 -0.18188922 0.30304208 -1.56235433 1.83076620 -0.46568689 -0.93694752 0.22814693 0.41838342 -0.84909302 -0.34396282 -0.36489782 0.14631028 0.35997006 0.29363841 -1.25011635 0.76111096 0.12327011 1.01880109 1.69706428 -0.78631133 0.92473429 0.71932977 1.37016630 -1.60943830 -0.98397553 -0.38265380 -0.83594358 0.40414464 -0.19828579 0.40870389 -0.34743580 -0.22186393 -0.47554004 0.18900639
-0.52594286 0.54122853 1.29272127 0.11087564 -0.71644729 0.91685039 -0.01756154 0.06295092 -0.00198376 -1.49751341 -0.27946284 0.28422922 -0.20978026 -0.57209098 -0.05721766 -2.57769132 0.34952533 0.12959233 -0.53820062 0.13034610 0.93767166 0.80053717 0.43914092 0.12414463 0.23849779 -0.43973446 0.02588213 -1.20939815 0.41888800 -0.11209542 -0.32638094 -0.59045863 -0.59527302 -0.53137517 1.35815597 1.61415100 1.06594968 1.64329517 0.55630231 0.08595860 -0.14861454 2.42397785 -1.55544102 0.28224564 -1.00486052 -0.96281254 0.91246116 -0.04102966 -1.25435472 0.02673372
-0.21553567 0.37872541 -0.22553624 -1.06493783 0.18693468 -0.80103296 0.23518366 -0.47143745 0.60965210 -0.43390673 -0.08670748 -0.61005318 1.18388176 2.00076413 0.90342617 0.65602052 -0.50815040 -1.30740869 -1.66575170 1.41338396 0.12555814 -1.42072284 0.09979247 -0.09174652 0.45280182 -0.10426819 -0.05153251 -1.04288363 -0.44255155 -0.69532228 0.79325932 0.46440288 -1.46704924 2.89668989 -1.21707273 0.21243498 0.15428036 -1.51623642 0.26894766 1.69150341 0.46718901 -1.55064213 0.28293499 0.59847146 -0.93063635 0.22571878 1.05229259 0.26421064 0.27972710 1.04826534
1.02771926 1.19280100 0.32194486 -0.31706557 -1.57665086 0.04195037 -0.10760026 0.38475540 0.34527132 -0.39786094 -1.38455117 0.44676033 -0.73129660 -0.24289015 1.20786309 1.05071330 -0.64537597 -0.79823053 0.18682958 -0.02258110 -0.02117399 0.61916155 1.45916879 0.85369956 -0.36577311 -0.84060323 1.22274196 -1.21062005 -0.37573841 1.25690174 -2.14863253 0.06955245 -1.74419761 -1.90552175 0.80668432 -0.56776851 1.59361768 1.72268200 -0.15059906 1.04968846 -1.03019059 -0.28209528 0.11079892 -0.97049123 -0.44506902 2.62933803 -0.02167479 -0.41463292 -0.18806505 0.28841272
0.69183928 0.35344061 1.45920479 -0.09630845 -0.20223966 0.49508998 -0.21927018 0.18932995 -1.45452476 0.04433610 0.18679942 -0.50014049 3.15104532 0.36198637 0.57454866 -0.15866819 1.47575259 0.86127782 -1.81305373 1.35351765 1.23076451 0.69802189 0.43655726 0.63542241 -1.02768540 0.31908211 -0.96193349 0.47289345 0.83762956 -0.17010173 0.22010829 -2.25932860 -0.48117134 -0.45480418 1.20979965 -0.17575820 0.32949591 -0.18818782 0.19941208 -0.26041767 -2.43407917 0.04592847 1.17441630 -1.79803967 -1.74701142 -1.92982137 1.49484074 -0.50433147 -0.78691143 -0.03219866
-0.07453012 -1.79395580 2.48599863 1.97077084 -0.18516459 0.42942262 0.04484054 0.22596599 -0.66580451 -2.50429487 -1.04877162 -1.24896336 0.43597308 1.38748074 -1.38658178 0.48086977 0.48060134 0.61593705 0.53216219 0.97192180 0.12337836 -0.88981700 1.08586979 -0.14159708 1.48099005 -3.28837752 -0.33232427 0.54004186 0.64366347 -2.38093853 -1.05155659 0.25041476 0.82182091 0.89414656 0.66436428 0.80914998 -0.58459175 0.19664915 -1.45612752 -0.54591942 0.91950577 0.18137519 -0.20243771 0.01612304 0.77467424 -1.01850986 1.25921202 1.33393133 0.66716737 -0.92098975
0.37504098 -1.26336718 -2.17374420 0.03715247 0.79574227 -1.93336964 -0.33051687 0.84335655 0.61049587 0.47243419 0.98571521 -0.42093518 0.77171552 -0.86868328 1.01915550 -0.64161503 1.20638633 1.53814721 0.13781597 2.32327580 -0.72063917 -0.31705779 0.69325256 -1.05922782 -0.28099176 -0.48686126 -0.85541916 0.93106538 -1.13969946 0.65892792 0.74021840 0.77154034 0.90734345 -1.19049382 1.20795798 0.45105568 0.87945437 0.01688674 1.26873362 -2.51779985 0.96901232 0.43511587 -1.05393231 -0.42705616 0.04297475 -0.81262952 0.91619086 -0.84243780 -0.07205085 -1.62002444
0.06656487 0.99382138 -0.48441353 -2.16603947 0.48631278 0.93661386 0.55094212 1.62829196 -0.76143086 1.33238328 -0.32251701 0.63071102 0.96169686 -1.21204400 0.69451380 -0.48287094 -0.62835950 -0.06407347 0.14767492 0.45911515 -0.37694529 1.83498693 -0.51802659 -2.11200762 1.49494398 1.00881243 -0.93648070 -0.42690018 -0.07492194 -0.07116204 -0.41156501 0.78978729 -0.41425446 0.36331600 -1.94613099 0.91793066 0.46737683 -1.88678360 0.58329564 -1.86964774 1.64951479 -0.33956820 0.08449303 0.36260033 0.03233394 -0.19627711 -0.78736538 0.50049949 0.29707205 0.16335325
-0.38716584 -0.83181387 -0.81892610 -0.78559142 0.75836021 0.19654237 0.81230217 0.36696678 -1.78520834 0.79832953 1.60585678 0.97652882 0.62685865 -0.38944104 0.95576078 -0.37919718 0.52341121 -0.07819442 -0.89682424 1.00479829 0.25724143 0.41847375 1.26521778 -0.06542879 0.33387035 -1.76062083 0.67688799 -0.55261594 1.81561184 -1.35911953 1.01546669 0.46830466 -0.09723699 -1.05786288 -0.22018002 1.03816319 -1.92979264 -1.71318567 -0.81931913 0.71931279 -2.08059025 -0.34163800 0.02387827 0.84597164 0.33520716 0.11973212 -0.57782292 0.43107793 0.73140472 0.77582932
1.28881073 0.26067731 0.49946466 1.63128924 1.33130085 0.67952138 -0.09208126 0.50357705 -0.03216077 0.77466422 0.80418640 -0.88808030 1.37335336 0.62878919 -0.20028855 -0.34851745 0.20846455 1.56379580 -0.02185390 -2.08081651 0.53358006 0.27906451 -0.14611459 -0.65939927 -0.15150641 -1.48267543 -0.48978928 0.63919353 -0.76605636 1.03328109 0.56066984 -1.93527961 -0.98945540 0.06477885 1.55138683 0.00379913 0.40297005 -1.18112898 0.54676545 -1.33675933 0.10827401 0.54726613 -1.53856826 0.12196363 -1.07711112 1.24354565 -1.59874010 -0.78186363 -0.61651957 0.05707342
-0.70393741 -1.03712845 -1.89503253 0.50875825 0.18603976 -0.22099686 1.11228108 -0.60111588 -1.27827632 1.11539745 0.95763046 1.99082804 -0.04762400 0.03024181 0.67730981 -0.69777739 -0.79521459 -2.13079333 -0.75024974 -1.21708751 0.96972030 -0.68009424 0.07928043 -0.65268153 1.10444367 -0.36786443 1.23678803 0.69954675 0.52825367 -0.69715601 0.22443093 -0.63947892 0.54990149 1.69400382 0.26566330 0.84788543 1.94500029 0.59227222 0.23120017 -0.91790986 -2.31146502 -0.44465229 -0.89950126 0.24629420 1.89794862 0.80558151 -1.20615351 0.20947537 0.76665395 -0.23292868
-0.08390261 0.29519543 -1.52824032 1.20630407 -0.24300331 1.12243390 -1.88812137 1.07205617 0.45344520 -0.32994643 -1.15889966 -0.64474851 -1.07404470 1.17740190 1.16213906 -0.36419341 -0.44422385 0.82520312 -0.72108376 1.48431611 -0.07036831 -2.51797628 -0.19830635 -0.02809191 1.81759465 2.10917330 0.09084258 0.17757696 -0.81981510 0.03594957 1.94202578 0.01619858 -1.23588943 1.10624540 -0.66902167 -0.76753443 -1.27034616 -1.08049846 0.17797394 2.75214863 0.58985710 -0.73463297 -1.13039196 0.07912163 0.29657242 0.70353055 -1.11911869 1.02691388 -1.60707235 1.00685680
0.57893819 2.07181239 0.22329278 0.72042745 -0.89571714 -0.50867361 -1.13492703 -0.90989244 -0.91026419 1.54866111 1.03571105 0.40842801 0.27249622 0.45562693 -0.83751237 -0.69882804 0.21333845 -1.03224051 0.24811479 -2.64070129 1.34430420 0.30701005 0.70294237 -0.10263076 -0.81101155 -0.84158152 -0.33275178 -0.36800888 -0.68804973 2.31253910 1.04446495 1.01525116 0.88812506 0.67160523 -0.32972935 -0.22146279 0.33191934 0.77500075 1.24933136 0.94028157 0.02682521 -0.43706775 -1.01650488 -0.08026986 -0.63709211 -0.46696916 0.04931040 -0.45610952 -1.43375182 -0.70025492
-0.28540832 0.88668925 -0.52401054 -0.67006558 -0.64292598 0.77751887 0.35060087 -0.31053042 -0.48808590 -0.36830163 0.07601035 2.74746513 -0.97157383 1.08446908 -0.01072368 0.77235204 0.64398700 -0.22701268 1.35732543 -0.11268836 -0.35817847 -1.07530677 0.25920632 1.27852976 -0.33198711 0.45573303 0.76707470 -0.73737073 -0.62422252 1.05321395 -0.69637275 -0.32920763 -0.67200881 0.68964720 -0.08569658 0.18847150 -0.94263846 0.56783491 0.26659113 0.83346432 -0.30286762 1.02054751 -1.35866332 0.47282553 -0.95657742 0.17987733 -1.66661561 0.24777964 -2.37098646 1.07136917
0.78524250 -0.51813447 -0.32888892 -0.15699522 -0.24190442 -0.70166177 0.27100855 -0.85582078 0.59009713 -0.79328668 -1.52378607 0.08358679 0.39992082 -0.12188183 0.64240146 -0.44731167 1.18537748 0.06322194 -1.71884060 0.75604004 -0.11047783 -0.34744856 0.81811637 1.75212502 0.68537188 -0.40296668 0.51156348 -0.46771199 0.13868344 -0.79316086 1.12426496 1.15116835 0.98459125 -0.70852602 -1.73475635 0.99593264 -0.59757161 -0.17543386 0.37380335 -0.21595544 2.29990530 1.41323483 -0.30489656 -1.05244565 0.70247775 -1.20242095 0.15586700 -1.51115453 0.97895622 -0.81873584
-0.19552115 0.38137650 -0.49709550 -1.86710691 1.93494534 -2.12014341 1.63829219 0.90529287 -0.05459563 1.11994123 -0.90726876 1.10267580 3.08898759 1.51458979 1.27646208 0.40559903 0.07684378 0.33151528 0.51187545 -1.23139501 -0.27161038 0.19520412 -1.04073429 0.00390299 0.69441038 -1.22357368 0.28478250 -0.06381026 -1.17668056 -0.53132522 -2.00292540 0.99519610 -1.24316835 -0.16579966 -0.63562244 1.88144338 0.02815501 1.75854456 0.81031042 -0.16162768 -0.45121074 -0.86974782 0.58898878 -0.42445126 1.12796092 -1.00305736 -1.21652508 -0.58390516 -1.53809416 -0.29414013
0.13911164 -0.80357337 -0.26344460 -2.16115904 1.36716342 -0.34834737 0.78386199 -0.52289349 -0.01761039 -0.15755437 0.50584370 -1.15758634 -0.30373695 0.01040463 0.42770794 -0.15474328 -0.42603973 1.51320076 0.56926566 0.18522067 0.51477545 -0.73139232 -2.44023347 -1.92877638 0.78284454 -0.17390274 -1.06070197 1.57686603 0.30694011 -0.65016317 -0.85027099 0.60031539 2.40139294 -1.32639313 -0.42302030 0.80370551 -0.05073847 0.38130513 -1.62746954 0.67268509 1.69182169 0.05765366 0.29140568 0.33150464 -1.23517573 0.17856975 2.98349595 -0.27697170 -0.43216673 1.52489758
1.61458671 -0.42477784 -1.79848254 0.46963930 0.95781308 0.24271277 -2.18301702 0.44744992 -0.26704648 1.99969935 -1.05901265 -0.93009210 0.09864392 0.18413867 -1.70696247 0.09612559 -0.58105606 -0.43173012 0.09409674 0.99001718 0.98167592 -2.05066991 0.53700387 -0.07696667 -0.22807583 -1.12129402 2.46999741 -1.25609279 0.89006627 1.46172273 -0.06089462 -0.86251932 -0.48197344 -0.95994657 -0.54456294 -1.15988266 -0.59019744 1.19251275 -2.08651233 -1.84839642 1.54996300 -0.00883328 0.77557999 1.31642246 0.83602881 0.47879505 -0.12597866 0.29838470 2.55427647 1.37392235
-0.53804684 1.42377663 0.70831221 0.33173728 0.19934395 -0.89299428 -0.95047390 0.55030578 0.28390804 -0.42782924 0.76758415 0.30986866 -0.25471571 -0.20752132 -0.56025100 0.81150895 -0.34398204 -1.80508828 1.36960769 0.57137781 1.88251472 0.93774068 -0.68974060 -0.36191148 0.67832381 -2.48339057 0.00056919 0.11642595 -0.60774130 0.30465144 -0.03381231 0.54714620 -1.36705709 0.11859123 1.42173111 -1.16692579 -0.39804652 0.24966650 1.08353043 1.17025340 -0.39486042 0.09493925 0.73443383 0.37491578 0.13480480 -1.97516453 -0.29332000 0.38057399 -0.17204821 -0.68078977
-1.11704576 -0.12529019 0.54830080 0.72687042 0.35325298 -0.20072581 -1.01073778 -0.22826460 0.97605795 -1.27576756 0.07899909 0.22976221 1.30820549 0.30324546 -0.94005471 2.17492938 -1.91248620 -0.25978082 1.47174954 -1.98607683 0.84957153 -0.51625258 1.74043512 -1.01455557 0.69541758 -0.80920070 -1.71109521 -0.07552549 0.08667520 -0.40738475 1.74825788 -0.95307958 -0.52776980 0.37548387 1.14436066 0.98102230 -0.58932090 0.34256598 0.98685163 0.12007128 -0.20518987 -1.09241891 0.98096800 0.18366107 -0.54890293 0.05100628 1.36602426 -1.49048054 0.22959858 -0.05491899
0.73489517 -0.97067380 -0.19515124 -0.51118064 -0.62422395 0.14033718 -1.04946172 1.65342796 -0.44925341 1.31578183 0.16578008 0.33444330 -1.13134813 -2.27348566 0.74756789 -1.70652986 -0.76373017 0.07697887 0.24991234 -0.17350812 -0.37587532 0.53394151 0.56643742 -0.01460538 -0.50752079 -0.07984509 -0.66158795 -0.14527452 1.14590287 0.24603398 -0.01346032 1.33161986 -0.38428023 0.16499354 1.39903176 1.32659721 -0.50942892 0.45383391 -0.99151510 -0.76625383 -0.31913471 0.37237263 0.07328182 0.22468583 0.33108118 1.23825824 -0.61397517 -0.25929877 1.40759993 0.31879321
0.36539993 0.85377347 -1.10284877 0.36013064 -0.31948772 0.00436895 -0.87035382 -1.62272274 -0.38538876 1.31233346 0.80569059 -0.02092585 -0.95422214 0.38516933 0.39019156 -0.38730234 -1.09410536 0.28031144 1.10378885 -0.45699909 0.70072609 -1.14263844 0.47911143 -1.35230589 1.31928408 -1.12398422 1.08745718 -1.12028551 -0.51016355 0.28329226 -0.05198133 -0.22500578 -0.67866307 0.36258122 -0.37934750 0.84029388 2.41797853 0.50244069 0.69817853 -0.28174207 -1.65649593 0.66337544 -0.30674303 0.16550669 -1.12433326 -0.07859171 1.21418262 1.22983623 0.31948924 0.13807799
0.42124072 -1.12568402 -0.38268206 1.12183607 0.36076742 -0.14427902 0.52569979 -0.74208432 0.35548416 -2.11499476 0.18145475 -0.14041544 -0.96753436 1.08751047 0.41437259 1.05371380 -1.45472300 0.82257044 0.06329162 0.60195965 -0.79626387 0.29016304 -0.05219121 1.73461163 -0.13777295 0.88619423 -0.73906088 0.35224056 0.61254895 0.43701306 -0.09762532 1.74424589 0.70895582 -1.04669344 -0.40828380 -0.18803601 -1.34798408 0.65848005 -1.09614015 -0.12129769 -0.50890219 -0.50115740 0.47463831 0.43752539 -1.44295061 -0.19385915 1.11993408 0.09269804 -0.31686553 0.49539503
0.73180425 1.69008768 0.86359793 -1.97447646 0.93170393 1.23351717 -1.01704991 2.76979637 -0.04604523 -1.56428289 -0.46386293 -0.16715088 0.35015073 -1.28644705 1.02195323 1.73453772 0.45972413 -0.71058202 1.15997303 -0.36530060 -1.10462654 0.94741231 -0.73585010 -0.65243483 0.61464792 0.26473820 -0.68514484 -0.27080989 -0.83310592 -0.03400411 0.19944777 0.14739080 -0.08965545 -1.69393528 -1.07867730 -0.51001716 -0.18191686 -0.02511663 -1.04450834 1.14611244 -1.63508868 1.24840438 1.04802024 1.63858938 -0.56667775 1.49430382 -0.54266405 0.42836908 -0.56590492 -1.36043549
0.89575624 0.90231454 -0.62473375 0.45701659 -0.28394082 1.01613581 0.14438792 -0.05526792 0.76688164 1.40580392 -1.16059422 -0.14123635 0.39176852 -0.95488697 -0.02486251 -1.19389629 -0.31524748 -1.85245848 0.35231170 -2.38834834 0.88150662 0.09838492 -1.56256592 -0.35912171 1.11917794 1.45809412 1.58951449 0.15309905 0.98422658 0.32029024 -0.47916898 -0.99754810 -1.29228044 0.87118757 1.58974600 0.53125441 -0.62351668 -0.17707765 -1.43182302 -0.15831555 0.65070105 0.40230897 -1.77309251 -0.43540117 1.10433722 -0.23421007 -1.39796042 1.45126700 0.27516493 1.08462238
-1.19894516 0.02239759 0.28119332 -0.70392251 0.35019666 1.87575853 0.22185253 -0.77403504 0.77292442 -1.14182198 -0.95669073 -1.99557352 -0.22375903 2.78403616 1.49591577 -0.59214556 -1.31486237 0.47880951 0.64918232 -1.04974329 -0.49590471 0.23498397 0.18617184 -0.58821499 -0.58091038 0.18526939 0.46290955 -0.07586561 -1.05083406 -1.12164676 0.02228685 -0.00145003 -0.65444916 -0.95525175 -1.45657158 1.82047236 0.71423495 -1.88843358 1.18028140 -0.24589981 -0.41678452 1.23272634 1.37859297 -0.60150599 1.17150784 1.87994695 1.12425411 -0.17505558 -1.77044141 2.56512403
-1.26339209 -0.21419148 1.12446761 0.44917151 1.08992851 0.04948519 -0.51220822 0.52947396 -1.82531798 -0.76323295 -0.22105333 -0.46753892 -0.52005178 2.14384532 -0.50751668 -1.02938104 -0.98400635 0.44490191 0.37085894 -0.01029631 1.46706748 -0.65117562 -2.11360860 0.25780609 0.88032460 0.15435305 0.44838899 1.00576329 -1.59885454 1.29468441 -0.08461318 0.46792021 -1.56163275 0.00103608 -0.61433965 -0.70674574 -0.75866985 1.50016510 -0.74036509 -0.57196784 -0.19961128 -0.24987873 1.86444700 1.37972999 0.62039620 1.35943747 0.95411074 1.08870423 -1.50172353 -0.23119798
-0.54633582 -0.75765944 0.00053185 -1.10435450 0.24626236 -0.82945758 -0.23383184 -1.08996677 0.17193946 -0.68776417 -0.98480064 0.63622916 -1.27514660 -0.56710255 0.34178832 -0.65321666 1.25034690 1.66046333 0.32478714 0.38925931 0.34228736 1.58343089 1.33223867 -0.71407568 0.26538754 0.57132065 -1.40860939 -0.53199196 -0.16808012 -1.44149864 -1.08211911 0.34018382 -1.40078366 -0.21402556 0.73476624 -0.38744509 1.36009705 -0.24904221 2.30364919 0.58757943 1.01562130 0.15772744 -0.36465934 0.58629137 1.35932040 -1.46550393 0.97411513 -1.26532793 0.27061081 1.71032691
0.20638914 0.27527481 1.72717452 3.38114810 0.61939466 0.83019000 -0.27984354 -0.57266819 -0.32914844 -0.24931237 0.94025230 -0.98189187 0.87977284 -1.07424319 -0.09552402 0.77880061 0.04657695 0.25707707 1.79729545 -1.02373183 0.58927733 0.32855678 -0.35793114 0.21312161 -0.52800655 0.50381690 0.33686855 -1.75826800 0.14573343 1.78947401 -0.85790193 -0.44759026 -1.25634074 -2.16791272 0.34336099 2.51694822 -0.40416539 -1.27676535 -0.72082299 -0.59889567 -2.46071410 -1.52041972 -0.64544243 1.36000848 -0.36556137 0.07821886 -1.16642475 0.10781505 2.17226505 -0.23025924
-0.25480506 -0.45666647 1.56398904 -2.04234004 0.05919099 -0.54949576 1.77041543 -0.01560643 0.81952453 -1.33513880 -0.35962388 0.10750931 -1.02494311 0.72143316 -0.57142675 0.69214898 1.48681021 -1.92426062 0.19904368 1.25522196 -0.21198021 -0.53328657 1.36092293 0.93075460 0.26901698 -1.99002337 1.81705904 1.98673093 0.29353642 1.06491423 0.71435165 1.00089288 1.25171924 0.44171226 -1.47658682 -0.49163944 0.58713681 -1.10899866 -1.38061285 -1.14859688 -0.48414010 -1.30562091 -1.46662593 0.84053922 -1.19347239 0.26054776 0.99421829 -0.24658093 0.19731233 -0.15270376
0.80317247 1.54677057 0.26921961 2.68755531 0.24717358 0.34398463 -0.17788818 -0.21906044 -0.28344610 1.29608476 0.53414947 -0.34184977 0.42302117 -1.66893351 1.22654653 0.41710067 0.76040643 -0.96987736 -0.64622259 -0.36192846 -0.33177248 -0.39892355 0.52650803 -0.59985691 -0.05186201 -1.50065649 -0.46944210 -0.74713397 -0.43322429 0.30752987 0.07061061 -0.94553304 0.04660338 0.14785498 1.70819020 0.39793533 1.32379425 -0.93797034 -1.95028067 0.65344471 0.19650939 -1.49887812 -0.62299103 -1.49335456 0.69799191 0.16188389 -0.08356235 0.23687227 0.74542254 -0.15914150
-0.55961871 0.04305494 -0.20915617 1.54131186 1.59865415 0.26840863 -0.35188133 -1.08737862 0.12142190 0.67205095 -0.07650246 -2.20128942 -0.86651009 -1.06072044 -0.86154819 0.53831708 0.12015079 -0.28861541 -0.79379714 0.82287252 -0.99879503 0.34980175 0.54466492 1.95307004 0.99679691 0.44816950 0.61031598 -1.44172847 -1.33584201 0.80529153 -0.01408410 -0.99723846 0.79711968 1.76352334 -0.34260216 0.86096251 -1.00373685 -0.80142975 -0.81559741 -0.16987179 -0.10969399 -0.27441958 -1.77605402 2.43514490 -0.51011008 1.62777734 1.60715842 0.49766219 -0.84759855 -0.20760463
-0.78485435 -0.54465574 0.49086800 -0.13056292 -0.10409106 -0.75462818 0.51488680 -0.40515271 -0.53113264 0.62800479 -0.65752047 0.41861260 -0.14770423 -1.01692080 -0.63185108 -0.24482179 -0.33026120 2.08051634 0.72375643 -1.37195671 2.88768911 -0.56061655 1.69299316 -0.51185131 1.14473844 -0.50217217 -0.28017238 -0.16363396 1.25028932 0.17164424 1.39700890 -0.31190994 -0.77878559 0.75945628 0.62485254 -1.49421215 1.03320265 -0.24654680 -0.68237424 0.30968723 0.43897963 -0.31544018 -1.20097911 -1.08509803 1.54791176 -0.12384215 0.48217088 -0.63190758 -1.00300181 -0.05212031
-0.84825611 0.87080759 -0.77260053 1.20192063 -0.01963942 0.31447041 -1.58558917 0.22680052 0.76470530 -1.97249484 2.03041792 -1.42421556 0.27073535 1.14466500 -0.15435289 -0.34735236 -0.54582155 0.37195393 0.46679115 -0.86295956 -1.32094622 -2.15499878 -0.75452632 -0.44602266 0.62752748 0.11874335 0.54850137 -0.57259691 0.41104895 0.33229879 1.50721538 -0.42881063 -0.86644667 1.07914197 0.29339644 -1.49094212 1.15429235 1.61319184 0.26689684 0.44893992 -2.02067351 -0.66259706 1.49721885 -0.81488228 1.32689655 0.54591960 0.16826409 0.09308132 1.82073176 -0.39996076
-0.12370309 0.37165043 1.09753084 1.96414936 -1.71618414 -1.37171781 0.61105233 -1.19666660 0.39671892 -0.90813643 -2.23142481 -0.40110725 1.21645832 -1.81562614 -0.10583648 1.50287890 -0.02008215 1.48124063 0.12572744 1.74508929 -0.77627259 -0.45335382 -1.19778490 -0.97729975 0.26941922 0.96844447 -0.29715946 -0.13547555 0.07322849 -0.26703271 -0.56432891 1.06531823 0.21576035 -0.56698328 1.15183365 -0.58703804 2.43029618 0.84065664 -0.82444674 -0.64474857 0.03407065 0.43264696 -1.12435210 1.25085473 0.09923166 -0.08712265 0.04740710 0.08667861 0.01264611 -0.07571065
1.11585379 -1.71222448 -0.06383587 -1.16602075 -0.42714760 0.44649756 0.07523622 0.48822978 1.78218758 0.13255815 -1.04487133 1.34852242 0.13574028 0.08842151 -0.66091061 -0.80341291 1.35284162 -0.59577233 1.66205776 -0.55363774 -0.28626749 0.59741265 -0.90902257 0.41528392 1.96908545 0.38188964 -0.77244729 0.18857127 0.02561840 -1.05304170 -0.47050598 0.23334889 -2.18146491 0.65858805 0.45998958 1.40714312 1.51795757 -1.38969588 0.32547933 -0.19383051 -1.25750113 -0.98637813 0.16055907 -0.06212174 0.46442932 0.05109174 -1.51537907 1.04801929 0.47983560 0.06723953
0.61526400 0.43226251 0.20980503 0.02439952 1.92267287 2.20648241 0.58769333 -0.39619899 -0.36050588 -1.66428328 0.02211845 0.00137896 -0.66752082 0.25157359 -0.18563572 1.36145246 -0.34998703 -0.65755886 0.55258942 -0.97430694 -0.39058515 2.46353722 0.31775555 0.65109438 -0.15550952 0.46059477 -0.19219349 0.22036955 -0.94162291 -0.33708778 -0.11454505 -0.97972172 0.41920546 -0.89020425 0.44561335 0.85617864 1.46344066 -0.28607857 0.47529721 -1.02200174 -0.57282174 -2.20372939 0.18345669 0.67844772 -0.57396567 0.16673432 -1.55927384 -0.61009049 0.57898152 -0.59774917
-0.07962619 0.58078551 0.33735475 -1.32411826 -0.01305472 -1.01894653 -0.63234103 -1.33821595 0.36243936 1.01572788 -0.03721083 0.53771430 1.53003609 1.19941676 0.92816913 -0.30674836 0.39025447 -0.94241607 1.26265144 -1.10736501 -1.01683915 0.01573857 -0.70476604 0.25831479 1.60036290 -2.45531058 0.38997021 1.09546423 1.64642894 -0.89616048 -1.53811121 0.36944816 0.45972380 0.49311411 -0.06171568 1.10479844 -1.41418386 0.80328745 0.06152454 -1.49599040 -1.06741881 -0.33934253 1.49766552 -0.56244022 -1.64507353 0.16098055 1.43536019 0.53503442 0.96899468 -0.04639595
0.93348068 1.44610739 2.13828945 -0.95207918 -2.89138007 0.40520138 2.51656342 -0.75267506 -0.37184030 -0.27578270 1.09043050 1.09734404 -0.50292546 0.98115796 -1.96512914 -0.88203025 0.44796047 -0.24052642 0.22226615 -1.21214950 0.13634108 -1.85052621 -0.26892552 -1.04201210 0.64222860 1.67196417 1.88284266 0.72605687 -0.66641772 0.40541899 0.42652908 0.14797120 -0.59682596 -0.81364530 -0.76004118 0.19399779 0.33139446 -0.56629586 1.42965329 -1.03741610 -0.73667717 1.01005340 0.05851257 0.32424459 -0.10198338 0.83770472 -0.68178666 0.25773367 -1.41522515 -0.24041928
0.80497205 -1.28065169 -0.32642934 -0.79225194 -0.49611184 1.07310414 2.24552178 0.07163554 1.49386835 0.60552603 -2.08353877 1.15430152 0.19683444 -0.47216976 -0.13011591 -1.55377901 -0.40511745 0.49324679 0.19283603 -0.12515904 -0.14579062 -0.41322601 -1.26461780 0.63019288 0.06964622 -0.45720318 -0.91717470 -0.25056240 -0.71886545 -0.54189944 2.12722754 0.44053784 0.99629748 -2.33871245 -1.53167844 -1.83169937 -0.27500704 -0.09600754 -0.84801149 0.47794935 1.86146128 0.99542648 1.65387416 1.38439441 0.64940977 -0.44668540 0.27489647 0.20465311 0.99188125 -0.32557398
-2.03560305 0.84779423 1.17270291 0.16164583 -0.33534038 -3.11951232 -0.59440428 0.50527310 -0.28048000 -0.61008203 0.67850477 -0.07435565 0.49081033 0.85573024 -1.88229680 -0.03292089 0.96062481 0.05070392 0.59223485 0.47075358 0.04362521 0.22556329 0.16403955 0.98261607 -0.16442268 1.02231944 -1.23381078 -1.12046933 -0.92184180 1.31874859 1.91181207 0.74071699 -0.09299839 0.85077721 0.26991534 -0.22086476 -1.00756335 -0.70909280 0.38441297 1.32953906 0.92807335 -0.51954806 -1.53169012 0.09832189 -0.88538462 1.18108213 0.00330017 0.67299283 -1.21062624 0.70357233
-1.55633116 -0.43737438 0.28432134 -1.05947471 -0.78951585 2.03332520 -0.51581073 -1.36793125 0.29844725 0.21319246 -0.98293674 -1.88424814 0.01714330 1.47284305 0.98919302 -1.18609273 -0.25053039 1.24428427 1.75946164 0.10926914 0.43584916 0.40047014 1.06878722 -0.59887934 -0.52033418 -0.08326244 -0.55189353 0.13182414 -1.30277193 -0.23335902 -1.76102114 -1.28220320 -0.94601536 0.72894740 0.26498768 1.41976333 1.36470425 -0.61399019 1.27418399 0.70710969 -1.25007606 0.36865324 0.03719016 0.94616485 -0.25526345 0.53118831 1.77326143 -0.53056705 0.24892402 0.91773093
-0.22068882 1.54426074 -0.40165839 -1.11022866 -0.22592440 -0.22723085 1.24357915 -0.73047495 1.02630758 -0.09866206 1.41782403 0.15747291 0.17413156 1.71675730 -1.19009554 -0.32115054 -0.68741679 0.79264480 -2.51735854 0.40509555 0.53069001 -1.51658082 -1.20023108 0.90770799 0.36695674 0.96857005 -1.57954443 -0.49047765 -0.37315634 0.57492024 0.47103691 1.71935833 0.36293447 0.80695957 -2.13724017 -0.43340454 1.43371296 -1.04970300 0.29736754 -0.17124474 0.70013863 -0.33275852 -0.32407665 0.35020533 -0.21843384 -0.34109366 -2.17875338 0.10510988 1.91177928 1.07117260
-2.90952373 -0.33939940 -0.40863141 -0.31419030 -1.20155978 1.06729949 -1.85815215 2.48710370 -1.42250717 0.38786352 -2.36076188 -0.35973850 0.88877052 0.99508137 0.56378537 -0.87198591 -0.24835418 -0.04636322 0.44849023 0.14186297 0.80943257 -1.42848599 -0.47885802 -0.49784499 1.41140246 -1.03131247 0.27569157 -0.68606699 -0.16153999 -1.17510879 1.85573328 -0.59683102 0.49329743 0.61840302 -0.89605492 1.00485539 2.15238762 -1.55619621 -2.09762955 1.38645124 0.24911132 0.08509197 -0.22400704 2.54670215 0.41046679 2.17157936 -0.43346679 -0.46478298 0.92709792 1.84447682
-0.33578801 0.03811983 0.76358539 0.71637559 0.82024813 0.64480829 1.37654710 1.15466225 1.31322730 -0.96414006 0.29568198 -0.75408787 0.90347064 0.42986399 -0.52738553 1.30533588 -0.56507117 0.28751943 0.70065689 1.23737490 -0.87478983 0.55745637 -1.55891621 -2.68324351 1.81665182 -0.98809218 -1.08345091 0.13792667 0.20034908 -0.83367485 -0.49942309 0.98068404 0.14723083 -0.69508916 -0.96707636 1.33670616 0.98480189 -0.00297967 -1.13925433 -0.73613304 0.11740568 -0.27860886 0.83787376 -0.12930749 0.68097150 -0.77277225 2.35984898 -0.43922994 -2.34253883 -2.10442019
1.28139758 1.25427210 0.36047015 0.35331839 -0.74731112 0.62610668 1.38461316 -0.04474186 -1.51020813 -0.48123595 1.28164804 0.14878239 -0.22106783 0.44478276 1.99677444 1.22742486 -0.44980887 2.09816313 0.93354839 -0.92509699 -0.19160755 -1.09618318 0.97952265 0.71550578 -1.31227553 -0.91482782 -0.17572647 -1.31413186 0.97020894 0.57646030 -0.41614541 0.07183068 -0.96982759 -0.61682272 -0.46371916 -0.55499387 -2.10056448 -0.51505941 1.51039231 0.95386249 -0.76780015 -2.20392823 -0.47178099 -0.45729002 -0.10393626 0.71267724 0.30340526 -1.58517432 1.14569557 0.14072046
-0.43415478 0.63127768 -0.02054389 0.79684961 0.90479106 0.40058294 0.55716860 2.97871804 -0.49241823 0.28755724 -0.88698947 1.21378410 0.22768798 0.60158926 -0.99202561 -0.43147552 -1.00424385 -0.68721420 0.96635371 -0.21641277 -1.07795906 -0.12553756 0.12003285 2.59196401 -2.37407875 1.07328367 -1.62626851 0.16502795 1.26151705 -1.13950777 -1.09295416 0.71273112 -2.25420046 0.79908043 0.15392306 -1.36317313 -1.50021267 -0.82490695 0.65427583 -0.14525352 -0.57534057 0.87597179 0.27891558 -0.55928785 0.13271382 1.28668129 0.99421555 1.15898907 -0.00054303 -1.07201540
-1.10145521 0.50182384 0.18143602 -0.13395377 -0.00791621 -0.33284688 0.03640788 1.29340851 -0.75226319 0.39772329 -0.27148455 -0.31274062 1.52159142 0.49450746 -1.70094562 -0.49525782 -1.20621920 -0.47790638 -0.20992142 -0.75984949 1.79062319 -0.34192038 -1.16532016 -0.14003971 -0.78421885 -0.73593861 -0.81493264 0.18311253 -0.05359472 1.31511283 0.51192039 -1.84880042 1.71210027 1.46155226 0.19148558 0.25830802 1.82846558 1.00733256 1.01579559 -1.88288367 -0.00178622 -0.39105815 -0.36351445 -0.56504160 -0.38842794 1.68804801 -2.05453396 1.23396170 0.09545900 1.61664951
-0.26367980 0.65881878 -1.29700315 -0.67186129 0.03455396 -0.12360496 -0.61921680 0.12171207 -0.28583497 -0.61068088 -0.39539161 -0.60399300 0.99568903 -1.47452152 0.21655717 0.81008923 1.56871867 -0.36318743 -0.71968853 0.52344531 1.05425608 -0.08750676 0.73375958 -0.40240782 -0.36168066 -1.74968338 -0.87522751 0.96224630 0.31544787 0.51935983 0.73475182 1.05134547 0.88384050 -0.19225182 -0.36105254 -0.97391939 -0.35152227 -0.00049937 -0.21897668 1.32919681 1.44237375 -0.08854195 1.10468793 0.95330799 -0.43696663 -1.43007517 0.27317342 -1.35130060 1.64337397 -0.57767439
0.13432817 0.63219512 -0.48141727 0.42460585 -0.20518039 -1.03646505 -1.34210515 -1.22290146 -0.29574931 1.22344625 -0.60260201 -0.14738245 1.70029914 -1.22512996 1.22765303 1.08732593 0.44548449 0.96977925 0.32303777 0.50078428 0.49217510 -0.00823873 0.51420200 -0.48314020 0.47268900 0.01358880 0.31539235 0.19079667 0.77593875 -0.03307390 -1.61696744 -0.00407901 -1.52109170 0.17415109 1.95153093 -1.34359097 -1.00009823 -0.37849921 -1.63271666 -0.17951797 2.57643557 -1.35572302 0.38013944 -0.33840439 1.86253941 0.52659237 -0.67052096 -0.99204576 -1.79730105 1.97587383
-0.64132327 0.33608955 1.61140406 -1.80262065 -0.49288189 -0.47026134 0.46803811 0.28169382 1.24621403 0.05925293 1.07407522 0.31964612 -0.79594064 -0.41473731 -1.02333057 2.46956325 0.34003571 -0.59797221 0.61393487 0.08429037 1.42415476 -1.92565942 0.58706999 -1.02174878 0.38492417 -1.19325280 1.64446366 -2.07393408 -1.11322463 -0.31827220 -1.68337798 0.88513607 1.50676513 -1.15441239 1.39685309 0.25514790 -0.04067158 -0.02331912 0.49723160 0.67972785 0.24942653 0.09188601 -0.58188617 1.48099661 -0.05135936 0.22119330 -1.05926085 -0.16872717 -0.81709838 0.22880410
0.14216113 0.40727499 -0.25037020 1.53412032 -0.22176351 0.63118577 -1.51070046 0.35938632 0.61404181 0.13755772 0.26434517 -1.85788262 0.94646633 0.79598820 0.31992632 -1.02603304 -1.85031986 0.55742073 -1.01501703 0.16695426 0.23401241 0.95943707 0.03872844 1.80882037 1.40909898 0.08884957 -0.33280692 -0.59403998 -0.10474168 -0.56044686 0.60742074 -1.82606983 -0.89247328 0.01936465 -0.26920867 -0.72225726 1.14980757 -0.24161160 -1.21922636 0.64267921 -1.01365709 -0.66620743 -0.51182598 0.74801749 0.78257966 0.92465240 -0.02308436 0.81707782 -0.30269849 0.88601130
-1.31840754 0.64446259 0.76408482 0.05111083 -0.18003550 0.44061226 1.24632204 0.58413714 -1.10668933 -1.28367126 -0.06801772 0.22101013 -0.48148185 0.37622219 1.68640447 -1.87286162 0.00162356 1.01108456 -0.76405644 -0.68003416 2.38316989 -0.88401854 2.07720637 1.30941951 -0.03603702 -1.47240031 0.49438927 -0.68143910 -0.09578829 0.29649797 -1.65910220 -0.21019931 -0.29918486 1.19683576 -0.29380322 1.17150927 1.56835008 -1.49327946 0.35506392 1.99441516 0.85063946 -4.32367516 -0.02300599 1.88629520 0.29301444 -0.54826301 -0.69353902 -0.10784726 -0.21251534 -1.15861690
0.72995144 0.54164469 0.26069590 -0.27310577 -0.55326664 0.50016040 0.71873474 0.96889132 0.76701611 1.90496683 1.23452616 0.29554945 -0.24580587 -0.23769602 0.34043780 -1.08693326 1.87637269 1.61912930 -1.72484982 -1.66254318 0.59380078 -0.51967627 -0.41850951 0.22924525 0.05783431 1.13677847 -1.96487486 0.00430048 -0.54911143 -0.27488673 -0.21925135 -1.46228945 0.44501054 -0.89771771 -0.74855417 0.59458584 1.13774014 -1.22846270 0.48890734 -2.17601323 -0.61690134 1.13697243 -0.60358948 0.08196975 0.52978384 -0.29539928 -1.88119996 1.25169337 0.29893205 0.78702754
0.80960929 -0.60342646 0.75223690 0.76437724 0.22032154 -0.57579064 0.74492192 -0.82081759 0.05821916 -0.73352182 -0.28700098 2.01214743 1.48561978 -1.28028536 -2.53500199 -0.05500467 -0.92227513 0.57280886 0.90947682 0.36113429 0.11176232 0.10421385 0.68280876 0.61241984 -0.02830925 -0.07338479 -1.16574526 -0.69853252 1.23711991 -0.21304992 -0.08605359 1.27641404 0.00733945 0.92488062 -1.38370955 -1.01943994 0.48532113 -1.24834406 0.65984130 0.50513840 -0.24904788 -0.19349474 0.36747855 -0.32303119 -0.30212292 -0.76571971 0.02613755 0.84994859 0.40837857 -0.42465737
0.71342540 0.26484862 0.80287611 -0.41717497 -0.38620937 1.82730579 -0.14519151 1.08874607 -1.44140732 -0.51456654 0.12776852 -0.52420717 -0.45141327 -1.16006863 0.36416468 -0.23915948 -0.49299404 0.09188108 0.38152170 0.78721988 -0.93553150 0.39896980 0.42589304 1.05947185 0.28570560 0.37314570 0.59237587 0.55999255 0.64602298 -0.02908760 -1.28715622 -0.68580180 -0.51930124 0.52773106 0.57189089 -2.43538356 -0.72164237 -1.94264889 0.87343568 -0.56002033 0.96329486 0.32363963 1.89704800 -0.39932588 1.18862796 -0.43789309 -1.40174758 1.01043260 0.03787247 -0.08857856
1.01486468 -0.27577576 0.49375632 -0.45308715 -1.17618811 -0.19371459 0.72004884 0.24454294 0.43910390 -0.23009713 -0.06396399 -0.06782755 -3.04477262 -0.58786964 -0.97598904 1.53972852 -0.58058780 -1.66791856 -0.11249106 3.17791605 -0.85673183 -0.03915032 -0.61799955 -0.12834439 0.35568655 1.65692163 2.20047832 -0.21546906 -0.03598260 -0.65328228 -0.92572373 1.27891445 -2.61018944 1.68523598 0.87320936 -0.46663308 -0.38968313 1.21850502 -0.67928523 -0.80057943 0.63195133 0.34240064 -0.03679749 0.37575701 -0.76454997 2.15211320 1.98349822 -1.86314774 -0.17970991 -0.66554713
-0.27329221 -0.30143541 -0.05982430 0.28802246 -0.93967038 -0.62454975 0.95556891 -1.20521033 0.07412593 0.41336635 0.55433589 -0.37002525 -0.92011106 -0.81794679 -0.36974913 -0.85846788 -0.67927879 1.18028617 0.70941526 -0.51508111 0.27724722 0.86288124 0.70341170 0.29996085 -0.47156900 0.48211327 -1.40558827 -2.43443847 -1.61452973 2.19759107 0.89201963 1.87406719 0.00034216 -0.53397197 0.69476455 -0.88520813 0.37414199 0.47221315 0.46556970 -0.26338753 0.69799316 -0.43207595 -0.27454770 -0.78071320 1.73062110 0.49555939 -0.27299732 0.62537467 -0.76764470 1.81711352
-1.52025127 -0.77225834 2.05821252 -0.48681113 -0.02660104 0.19245036 -0.42118174 0.94766909 0.75373560 1.13748729 -0.05516894 0.31845400 0.40492490 -0.09495250 0.37771904 -0.14495748 0.96991426 0.17048424 0.74410802 -0.61880362 -0.21416761 0.72107005 0.09989700 1.10903239 -0.15738671 0.77904701 -0.35043421 -0.70590472 0.50682020 -1.97757888 -0.27783260 -0.06105472 -0.14590143 0.00397244 -2.27543402 1.50396657 0.86313629 0.03115974 -0.92546695 -1.27140832 0.11676932 1.06772161 0.05897077 -1.31385660 -0.01129899 1.40898371 -0.09000923 -0.34659719 -0.55576414 -0.59357727
0.30770969 -0.72299093 -0.64728189 -1.04928565 -1.13648224 -2.04973817 1.00785244 -0.65151930 0.56422865 -1.51931357 -2.49682021 -1.24642479 0.95547396 -1.23726761 0.12908421 -0.55984956 1.68751001 0.02226352 2.08132148 0.75028259 0.65210760 1.28751290 0.78551877 0.22116028 -1.08073795 0.12612242 -0.32537401 1.30547726 2.43445110 -0.52853554 0.51963645 -0.34223366 -1.29812849 0.04380660 1.51854801 1.70180964 -0.58415359 1.11061084 0.50965077 -0.33543712 -0.05694553 1.38515389 -0.17510147 0.32659990 1.63071489 -0.80318612 0.88632774 -0.61834794 -1.74725676 -1.65631056
-0.34745067 0.49693933 -2.08570147 0.04531490 0.61166579 0.49712887 1.13531864 0.69092387 -0.43763238 1.00902259 -1.56312883 0.52521598 0.48934990 0.07958870 0.40302247 -0.35825384 -0.13283598 -0.10385067 -0.09596562 0.59673798 1.53962708 1.50217414 -0.22086367 0.06261031 3.05875158 -0.51334673 1.08527219 -1.09527802 -0.80481958 -1.91798627 0.64763868 0.15217832 1.15091705 1.27768195 -0.39557698 -0.82347023 0.26386040 -2.06309962 -0.02110674 1.25644219 -0.16059156 -1.47883940 -1.37322044 -1.14945841 1.13503003 -0.98860341 -0.99690193 -0.01044078 -0.48090336 0.82985950
1.03539431 -1.02262127 -1.13849020 0.24636716 0.44577345 -1.39291656 0.06492487 -0.93605012 0.79961187 0.19543423 1.15581453 -1.35791922 0.50893688 -0.34236959 -0.13066809 1.29541922 -0.52675986 -1.00409901 -0.62469804 0.42856866 -0.59552139 0.02712695 1.05562985 0.87910485 -0.85152447 -0.46124303 -2.02401757 0.18668433 -0.97440338 0.55751669 -1.46830142 -2.44386268 2.11877227 -0.34141219 1.00885296 -0.55687505 1.84053695 0.66712046 0.58436912 1.29710913 0.59692335 -0.56163472 0.66752613 -1.38719440 -0.37577188 1.59844410 0.69186974 1.00009751 -0.08810169 0.72106856
1.08497679 -1.35582852 -0.12120476 1.98594117 -1.20573640 -0.21276531 -0.22360772 -0.00753246 0.37005666 -1.17487299 0.04793135 0.19132289 0.41911259 -1.26100743 0.23289953 0.98009831 2.69893861 0.53640825 0.97483832 -0.16079183 -0.75024855 0.28456372 1.74647999 0.99563026 -0.16240598 0.81444103 -0.39622864 -0.70233345 -0.53044635 1.49819171 1.55589545 -2.12646461 0.27949420 -0.67951035 0.49434757 -0.42292002 -0.54394865 -0.58336073 0.40932730 0.17577736 -1.40171707 -0.48558205 0.09855337 -1.13782883 0.33588493 0.10703079 -1.15620279 0.00985745 0.05695111 -0.66302162
0.37754521 -0.11138208 1.74118412 0.08094579 -0.39682084 0.16628875 0.22254451 -1.22854877 0.69969904 1.32070315 0.75818580 0.02221260 1.09387207 -1.89190888 2.12660980 -0.06301025 1.11311102 -1.37460852 0.58764362 1.37291992 1.71919429 -1.43997526 2.23991084 0.33761230 1.08370924 -0.90363896 -0.65912414 -1.11422443 -0.76696563 -1.29885447 0.01714710 -0.62362790 -1.45347750 0.42468706 -1.01960731 0.65098000 0.01555082 0.28113928 -0.30464321 0.56499630 0.64052963 -0.30482084 -2.35064888 -1.80251920 2.13767695 -0.90910685 -0.64821762 1.77817631 -1.67941773 -0.35648325
