-1.42602193 1.42901957 2.47035098 0.12461150 -0.38360721 0.65545392 -0.48644060 -0.93585467 -1.23546422 -0.47731853 -0.33941111 -1.68748140 -0.24980490 0.56634748 1.83583188 -0.20506436 -1.38439822 0.08040156 0.56062073 -1.39151859 -0.32506374 -0.82428849 -1.79488683 -0.05220342 1.83426917 -0.24649857 0.49093223 0.22091541 0.59305471 -0.87894821 0.37691283 1.84272695 0.02450865 0.25808397 -1.63628602 -1.09247315 0.47877666 0.39786398 1.32001615 0.14916709 -0.10098428 1.75631487 -0.01861665 -0.81524104 -0.88527811 0.51155788 -0.60407358 0.52738994 0.72217506 1.28646588
-0.75352663 0.72295690 -1.61384106 0.40788019 -1.10686934 -1.72138488 0.97522521 -1.51911533 0.27155343 0.81555974 -0.04752415 -0.64329660 1.12130713 -0.99186176 -0.19098398 0.86409855 1.47090173 -1.52719223 -0.21525852 2.69395494 -2.11712360 1.24024808 0.47162011 0.21470045 -0.77404791 -0.63241762 -0.62440443 0.71435505 -0.60012257 -0.39684066 -0.49850982 1.07869518 -0.40127060 0.86310577 0.25173992 0.81070083 0.35730398 0.71603280 0.32661480 -0.83796197 -0.50752079 -0.01710632 -0.09583380 -0.44862273 0.01285073 0.96759576 0.00078997 1.91223514 -0.34603319 0.41452664
-0.49660584 0.56367487 0.29634571 1.71632433 0.05088720 -0.89225572 1.10118592 0.37971810 -0.61620802 -0.38127965 1.85054779 -2.13489199 2.97436953 -0.45659986 -0.58971304 -0.55896360 0.64023745 -0.20497872 0.25925094 -0.85243595 0.06816572 -1.44283450 0.14818263 0.02373949 1.29699624 -0.62112045 0.23637214 0.26635322 -0.89019436 0.67271054 -0.47315535 0.70813566 -2.18766880 0.43507805 -0.07665679 0.45703068 0.98948872 0.36600521 0.39602751 -0.74577862 0.53957635 -1.31735861 -1.43904507 -0.13598342 0.30986944 -0.90970331 0.13015500 1.79070890 0.97850412 -1.27867723
0.87479234 -0.09326901 0.03222626 -0.01686281 -0.96351266 0.10232072 -0.31212327 0.33653170 -1.13949025 0.44867736 -0.41593492 0.63909370 1.72012293 -1.43752241 1.25986528 1.39303756 -1.36181414 0.26295081 -0.52109277 0.34940183 -0.05039724 -1.03845775 -0.45268720 -1.95376575 -0.00311405 2.26954126 2.00372791 -0.00604748 -1.89797986 1.33595192 1.53586102 0.44753996 -1.45586455 0.08810056 0.28193098 -0.68310052 -1.95323575 0.87938935 -0.02636384 -0.60010964 -0.42144763 0.11694069 0.64614350 1.72276533 -0.79436398 -0.22435282 -0.65946835 0.66494441 -0.17280492 0.22592776
0.25846201 -1.34628773 -0.11007356 0.54536825 2.00623202 1.19496572 -0.01781321 -0.76426661 -0.33131820 1.08662760 -2.01622033 -0.58902681 -0.17461023 0.57032865 0.50429428 0.39183268 -0.08591095 1.24298429 2.80432177 0.54951102 -0.38005763 -0.68095553 -0.20273103 -0.57765615 0.16781478 1.27680779 1.84096682 1.22619307 0.45816463 -0.42501685 -1.61506331 0.05193860 0.48932862 -0.62172318 0.86885357 -1.10722363 -1.25332618 -1.91858053 1.92991304 0.87878931 0.49018785 -1.14677894 -1.14850211 -0.63468367 -0.63212132 -0.23848666 0.70130849 -1.32271099 -0.53881836 -0.75442046
0.76359373 -1.53683591 0.04910162 -1.11311936 2.06572223 -0.70422715 -0.23398936 -0.63496035 -0.22329640 0.72597617 0.42702600 -0.47471970 -2.15330839 -0.70095927 -0.25670397 1.59914780 0.65080494 -0.25155878 -1.34325302 1.16740572 -1.80202270 0.18281421 -0.19489194 -0.23724440 -1.23579514 0.98928565 0.78004032 0.26344982 -0.41921535 0.34171453 1.26364338 0.23734845 -1.28313768 -0.30651724 1.26062632 0.94708151 2.05167341 -1.28783381 0.46596047 0.47906357 -1.19374967 0.87494546 -0.80652028 0.78745234 1.48473573 0.66887432 -0.91453499 0.65998280 0.24583603 -1.07222033
0.53119689 0.07024231 1.34098339 -1.05192232 1.35672653 -1.96165192 0.74105477 -0.55194193 0.88360810 -0.18982169 0.23525305 -1.07538092 0.80310941 -1.05014825 -1.03494370 0.52493799 0.17550452 -0.35288000 -1.34639144 -0.43696097 -0.62943327 0.57035148 0.06286706 -0.13918312 1.31644571 -1.58753574 -1.34954810 1.65384769 -1.22736490 1.38862658 -0.22631040 -0.10595278 0.76498532 0.46854904 0.40258572 -0.05596133 0.36403593 0.09488330 0.98168856 2.05793595 0.40402231 -0.97692090 0.98138285 -0.32713309 1.47666514 -2.10858250 -0.97396535 0.18441495 1.68301833 -1.75485718
-0.45225948 -1.42202914 -0.08587896 -0.88086110 -0.94355756 1.46479237 0.58982438 -0.61853814 -0.65537363 0.67465127 1.32691383 0.84966284 0.16267572 0.31758657 0.30576012 -0.38527623 -2.05901670 -0.72209877 -0.99279630 0.54867941 -0.84072685 -1.34435678 -0.90103275 -0.79655564 0.56950998 0.26361635 -0.66420108 -0.90265554 0.24247353 0.01043275 -1.33495128 0.07107858 1.65923464 0.16769311 1.22996974 1.78742707 -0.39512593 0.22241092 0.82292235 1.87042320 0.09960432 -1.81235647 1.42639196 1.03938389 0.40593600 0.44006583 -0.17564793 0.24487658 0.17403285 0.48615643
1.29531908 1.29045367 -0.60379648 1.00805414 -0.85075533 0.43542525 -1.36477363 0.31750670 0.03856869 1.04914367 -0.31324968 -1.86682594 -2.50292706 0.31213361 -1.43845153 1.50927126 1.19288301 -0.91242349 -0.84133995 -1.00640929 -0.48321995 0.15104464 -1.38033342 0.15997975 1.90044880 -0.25107169 0.33166286 -0.10489558 1.46163058 -0.34571791 0.41185617 -0.90036905 -0.54075909 0.31392276 -0.13534833 0.20925623 -0.32096401 0.66295594 -0.81533629 0.67147511 0.12639907 2.13218570 -1.99084973 -1.22995901 0.82905495 -0.13766105 1.71744227 0.13520744 0.03546195 1.67464483
0.07775144 1.09287310 0.01869440 0.23327380 0.68789768 0.52346730 0.56906021 1.14907610 -0.07026455 -1.48021913 -0.13825619 0.03116878 -0.91647524 -0.84955627 1.18343854 -0.01594180 2.01657128 -0.64597529 1.19486475 -0.02321766 -0.64567703 -0.79585189 -0.02290273 0.01711932 0.93456072 0.05681489 0.28774911 -0.80221266 1.39315963 -0.20465267 -1.45392442 -1.14054072 0.47778922 -0.48846924 0.32099399 -0.10686549 0.35055223 0.75959349 0.28654265 -0.03010987 -1.27133310 -2.27938533 1.58345819 -0.68895078 -1.10520625 -0.01346271 -0.36373377 0.46040812 0.37113038 0.39820307
-0.22614901 -0.13933650 -1.00077534 -0.63904768 -0.58067942 -0.46909130 -0.38718945 0.00015453 1.29804337 0.27654213 -1.96812141 -0.92405772 0.62626028 0.43914753 -1.08243620 -0.31721580 -0.91306800 -1.31402099 0.97609228 -1.49149096 -0.36336109 1.61295807 1.33375430 0.02930360 -0.66031766 3.06019402 -0.81306642 0.19674048 -0.63555062 0.18110211 1.54592180 1.82679975 2.50699949 0.86513299 -0.49001029 -0.54962784 0.01812626 -2.54272056 1.11654294 0.09685469 -1.50451899 0.71161735 -0.40709573 0.52762657 -0.37897277 -0.23445305 1.41375840 0.86413282 -0.36584264 -0.04778276
0.22185537 -0.95850682 -1.05897546 -0.71349674 -1.53734386 0.99682516 0.46999758 1.19503319 0.75132388 0.36694479 -0.87062132 -0.54353762 -0.08579917 -0.44142404 -0.38728234 -1.47233009 -0.67932284 1.28730714 1.54543853 0.63634700 -0.60193419 0.95417321 1.15370297 -0.41418019 -1.65778255 -0.13697873 -0.67062801 0.10719997 0.19638678 -0.76196980 -0.55365336 -0.26828977 -0.94679844 1.10357690 0.68189758 1.03248835 -0.59032828 -1.09748077 -0.64154220 0.47092456 0.54304653 0.82289022 0.56233460 2.20216799 1.14112461 -0.21342312 -0.08021053 1.31578159 0.41974631 -1.73413241
-0.53342217 0.22449286 0.31272158 1.17858839 0.09830719 0.70011061 -0.63285512 2.59817314 0.14702030 -0.50468475 0.41640574 -0.62367105 -1.28822613 0.39044750 -0.68316740 0.62250066 1.16529596 0.63676226 1.46943665 -0.28546035 -0.00330203 -1.28192091 1.03777850 -0.37218168 -0.78311020 0.44163612 -0.43717247 0.92078590 0.03389598 -0.56272399 0.83311796 -1.20037353 -1.48361278 -1.13962817 -0.06175826 -1.13382721 0.49633062 0.19124542 -0.83594126 0.58603007 -0.34115022 -0.17189619 0.89657074 -1.30115700 1.20625615 0.99846148 0.11330160 -0.81930768 -0.98558271 0.67784238
-0.42210978 0.75244009 -1.45014620 -1.23939729 0.34164205 0.48205948 0.96169597 0.03703595 -1.21663249 0.38761294 0.28282896 -0.76938188 -0.17205176 0.38653791 -0.94170856 0.07672126 -0.15731472 0.31781632 1.02840757 1.16661286 -0.78126878 -1.12093997 0.36820924 1.00173807 0.66812700 -0.91528535 -0.63828737 1.48107874 1.33923197 1.28496587 -0.25070459 -0.21121593 -0.25793424 -2.13645172 0.26868334 -0.44208509 -2.39608932 1.77244854 1.15696800 2.26812601 0.03137438 -2.59002376 0.67513591 1.02808678 -1.06658447 0.70064121 -0.75931430 0.25234276 1.68275559 -1.24874496
0.10101926 -1.04795504 2.06846476 0.66125083 1.78324556 0.49599776 1.97960424 0.36891299 0.27969864 0.27215782 0.09385303 -0.05344416 -1.22596586 -0.93780720 0.72792208 -1.18808568 -0.76638162 -0.64989918 -1.32575679 0.34817645 -1.36839581 0.40826905 1.27630949 -0.20232414 -0.36827701 0.02001217 -0.11106057 -0.03421715 0.40183818 1.41488552 -1.04599404 -0.53204054 0.96364737 -0.73146480 1.25184309 0.74497700 -1.82283199 1.06334686 -1.37786901 -0.72295362 0.63593721 0.44564235 -0.41122213 0.64712477 -0.38253659 -0.32275343 -0.31807125 0.59604561 -0.44162521 -0.74532330
-0.22598124 0.25006968 0.84490097 -1.03012419 0.16236265 -0.56805092 0.35389280 -0.97904021 -1.65116501 -2.10578585 -0.16158320 1.02541912 -0.31627637 -0.49611279 0.16572921 1.01106870 -0.50103533 -0.70064646 1.75878417 -1.83479095 0.01967773 -0.36616358 -0.72761476 0.75007993 -0.27123243 0.38906333 -2.98324370 0.21683949 -0.92802835 -0.13471876 1.48054302 1.00787151 0.63379776 1.66741812 0.20718415 -1.57444799 1.02222097 -0.53360701 -0.25974151 -0.21716519 0.89752364 1.35134101 0.00844002 -0.53265470 -0.60021037 0.41683638 1.82621980 1.09919131 1.38958406 0.86034679
0.68143278 0.18686402 0.09311443 -0.73775810 0.90186256 -0.24978520 0.80582911 0.05675403 -0.51898134 -0.26713943 -0.31995869 -0.70158762 0.69522071 1.52643776 -0.41385096 -0.06645910 -0.87542278 0.52378970 1.05999279 -0.70831567 -0.43787912 -0.96116102 0.01977339 -1.49857378 -0.32467204 1.97221625 -1.93726552 0.44635439 -0.06264666 -0.70429176 -1.31206954 0.38215119 -0.21936572 -2.04103661 0.53639066 0.46212986 -0.21328712 -1.43814075 1.34488463 0.49538884 -1.18485880 0.91984528 1.62454176 0.57899421 -0.27274552 -0.65617955 -0.74304408 2.08772039 0.61700284 1.86831713
-0.54826188 0.67890507 0.53734040 -0.22943030 0.07141844 -0.42409876 -0.04164924 1.17158020 1.36987841 0.61431962 -0.96450883 -0.45878291 0.14616993 -0.92962795 -1.06391883 0.94531196 -0.19991538 0.95985258 1.07238793 0.48670265 -0.72235358 -1.44838095 -0.65051252 0.25593731 1.70718312 0.45854652 -0.62677968 -1.59988451 -1.71389711 -1.67065191 -0.81596780 0.03429727 -0.56180590 -0.43204391 0.51426631 -0.27123189 -0.09097347 1.19500899 1.38535047 0.40894115 0.41731578 -1.41652620 0.16089267 1.28263354 0.45723665 0.20493801 0.75938380 -1.13748133 0.72884607 0.99452013
-0.32684329 -0.41985175 0.52021581 0.35865942 -0.33784592 0.12906700 0.69089931 1.36635303 1.28821635 1.61431551 0.44589302 0.42156932 -0.21719162 -0.18504578 0.36051023 -0.21587466 -0.60704005 -0.06060065 -1.25682974 -0.12308212 0.20573124 -0.66315997 1.03078198 0.32283193 -1.06488454 -0.57758027 -0.54389775 -0.12320625 -0.93427414 0.06448216 -0.10891071 0.36578417 0.66422021 -0.45376629 2.00653768 0.39368197 -1.15787482 -1.43642628 0.32689819 0.31068933 -1.12589145 -0.39839345 0.42165148 0.22593796 0.84480864 -1.81724846 0.61075395 0.61900926 0.14770852 -0.67361730
2.00877500 0.83731246 2.21101451 -1.00454617 0.86517876 -0.20073274 -0.40930620 -0.09538461 -0.39069989 0.10404447 -0.53670990 -0.52729189 -0.67898041 -0.20990783 -1.09269345 1.69225168 0.15810719 -0.87377232 -0.21765232 -0.02616486 1.47117782 -0.78858370 -1.07998121 0.39078662 0.76032251 0.07019399 -0.34182191 -0.76874769 -0.93128556 1.06831372 -2.90675497 -1.69331157 -0.86835814 0.30624670 -0.51099116 0.18059015 -1.04317605 2.60967040 -2.09954143 0.54460216 -0.84974182 -0.72721213 -0.70223802 0.56085503 0.62385875 1.88113821 1.27256644 2.36714458 0.22897314 0.34641427
-1.74079716 -1.67046022 0.60309970 -0.82256520 0.88861442 0.99680603 -0.06676503 2.45503235 -1.17112410 -0.26858535 0.83461219 2.16093588 -0.66089618 -0.27164152 0.16225357 0.12784064 -1.63285232 -0.10159662 -0.10036808 0.77641803 -0.48965403 -1.48982048 0.68822247 -1.15220189 1.07192218 -1.08344626 -0.57141739 0.36447167 2.10062075 -0.05584120 -1.04665303 0.61853671 0.62149543 0.67827302 -0.36198714 -0.13914321 0.37399545 0.36037070 0.69394529 0.64749801 0.04620502 0.52532589 0.36886713 0.52636695 -0.06002874 -0.87931710 -1.19443154 -0.01441927 0.57865614 -1.22432697
-0.49003422 0.37270054 -0.80530006 0.26012462 0.08341235 -0.77813464 -0.72285497 -0.54417390 0.37587941 1.77542830 0.46540019 -0.56363028 0.62181044 -0.33195573 0.04655725 -0.11965224 0.44411036 -0.04189195 -0.73195523 -1.49061573 0.19052443 -0.27454039 -0.06976259 0.65681392 -0.21569519 1.46333730 -1.38335085 0.54223162 -0.02023336 0.05547487 -0.81263554 -0.03703272 0.88290179 1.82995272 0.26721272 -0.13450165 -0.64818645 -0.30948716 0.16698827 -0.96825206 -0.27190155 1.28016162 0.35191679 0.46000642 -0.04995545 1.61227620 -0.75774252 -1.01713777 0.35695091 0.04693215
0.03626163 -2.17670298 2.09929872 0.76419961 1.20186198 0.03605079 -1.39174271 0.43943363 1.50044715 0.41975603 1.96081519 -1.08450282 -0.80150771 0.35917339 0.74468809 -1.25432205 0.44804552 0.88394636 -0.51509625 -2.00653124 -1.54089117 0.57172155 1.79576635 -0.31840149 -2.29788542 0.16052693 -0.43168750 -0.42831519 -1.94132447 -2.15374660 -0.54574972 -1.37596524 1.18963468 0.14027376 1.51596677 -0.19115202 0.34805024 2.34383726 2.56446838 -0.01853463 -1.88995612 0.83715695 0.40863609 -0.27810395 -0.14548610 -0.40264910 1.23526716 0.46606067 0.05499849 -0.34663901
1.62843800 -1.25699008 0.06307946 0.63232464 0.09822381 -0.42970946 -0.79525453 0.18456386 -1.06536782 -0.15756960 -0.18616356 -1.08053505 -0.56818038 1.61787784 0.29473597 1.21469116 -0.09420642 0.87668782 0.27121466 0.39118409 0.16080970 -0.30796021 -0.00539856 -0.58670497 -0.16415067 0.78763151 -0.05158206 -0.20004162 0.65311074 -0.46662220 1.05522978 -0.63238597 -0.11977344 -0.90030837 0.29850861 0.35414004 -0.69751066 0.36618862 2.05376983 0.95144409 -1.07500899 0.32504183 -1.01904559 -1.43384755 -0.63511997 -0.21439643 -0.14313191 -0.58684993 1.42040980 0.15009180
-1.09683430 -1.89418352 0.19321324 1.26432765 0.11147184 1.16230845 0.06681160 0.63872266 -0.70215344 -0.10210717 -0.93503845 0.01937883 0.47510320 0.29361641 0.97631484 0.20930609 -1.24025941 1.98899555 -1.43801093 0.50258750 -0.17193797 -0.02680291 0.54729176 -0.18949677 0.91710722 0.60085845 1.51256466 -1.03784180 -1.05877149 0.27358115 -0.36496043 -0.61554188 0.35137931 0.18122226 0.23373167 0.03337226 -0.70084196 -1.00442505 1.49690902 -1.34179938 0.33327004 -0.42988810 0.13674586 0.55647951 -0.66681111 2.35378885 0.17976031 -0.60850877 -0.20035841 -0.79325956
0.08706943 -0.27780208 1.12727642 0.38266772 0.27076194 -0.95598853 0.40194789 -0.12249851 -0.02195172 0.71735466 -0.74450976 -1.44143116 0.98799592 -0.62286758 0.30891794 0.98217541 -0.23993209 0.09766242 -0.03149896 -0.57784522 0.96466404 1.47894657 -0.95298308 -0.05939271 -0.58654606 -1.19060922 1.72252262 -0.20956713 -0.14000902 0.28019252 0.73300016 1.33388782 -1.01541114 0.20062970 0.55324775 -0.53527266 0.39747322 -0.80063903 -0.37458548 -0.28111386 0.65910953 -2.02073264 0.33094186 -0.07307047 -0.69226557 0.98721814 0.71118635 -0.50973332 0.02006013 -0.29512995
0.02944778 0.04501070 0.22933142 -1.68829513 0.85749894 0.90027750 -0.88417530 1.23940122 0.01350229 0.88126624 -0.12818083 1.50927210 0.52354068 -1.51594734 1.37096786 0.37117505 -0.82899034 -0.55487520 -0.30354211 0.52378994 -0.34939307 0.76749152 -0.18454081 -0.89229918 -0.98588884 -1.10868514 0.01193423 0.05016290 -0.93060613 -2.06104684 0.47160134 -0.95524216 1.27675211 0.79614395 0.47168913 0.27992362 1.52829337 -1.81484973 1.05966270 -0.15170671 0.35916200 0.25486347 -1.35624790 2.28931022 -0.39809161 1.58096588 -0.58445132 -1.14059448 -0.48607114 0.58892232
-0.63473785 0.05497374 -0.64593679 0.63158381 -0.57459843 0.46267045 -0.24916047 -0.44258472 1.36426425 2.32170677 0.17195523 0.29969126 -0.68623692 -0.99114925 1.28447330 -1.08336759 -0.81671727 -0.48143020 0.98162681 1.13207436 2.13668966 -0.22799945 -0.33302990 -1.95494413 -0.72892314 -0.30610660 0.61636698 -0.78465307 1.66644859 0.36042276 1.19401932 -1.22283709 -0.21874291 -0.38340804 -0.14367390 -0.39853099 0.52777213 1.44637012 -1.66514146 1.94664264 0.81505239 0.98815143 0.52017784 -2.53249526 -2.24753261 0.29121467 -0.26807836 0.62297237 0.46827877 -1.32787454
0.58438331 -1.28308678 -0.87390292 -0.29743391 2.19134045 1.09758508 1.11645663 1.32987189 0.52527297 -0.85649419 1.70547652 1.73409820 0.24936081 -0.33945891 -2.17810464 -1.18856585 -0.98228252 0.27243823 1.13705313 1.28915346 -1.42916846 -1.19503689 0.08845998 -0.22755350 0.48799166 -1.31010699 1.38568139 -0.46397159 -0.07875020 0.89251047 1.84039795 0.49982107 2.41292500 -0.74061984 -1.46198082 -1.13696229 -0.20647284 0.22614786 -0.44681650 -0.71764195 -0.35240257 0.61077362 0.19961110 -1.25671840 -0.63870233 -0.03813197 0.11790553 -0.49605054 -0.18723902 -0.70682031
-0.47810364 0.05419192 1.25060773 1.90997899 -0.95654130 -1.22131872 0.13336229 -1.63158476 -0.91207325 -0.50911176 -0.43675378 -0.11395714 0.74874514 0.18493214 0.62146157 0.84845877 0.86229300 -1.34450424 -0.87439191 1.09272432 0.44616953 -0.69320649 -1.20122147 0.69560117 2.01569366 -0.29692215 -0.03321761 1.02312112 0.10673700 0.58547604 -0.45462552 0.09769603 0.57624245 0.08356588 -1.39271188 0.76009142 -0.68748194 -0.02741315 0.05836955 -2.34547782 0.73616016 -0.67272305 0.83660507 1.45232117 0.12054237 0.49812844 0.57202399 -0.75789690 0.25388572 -0.58411920
0.50907260 0.54159731 1.70091879 -1.05442798 0.11834891 -0.58363366 -0.27311414 0.87996304 0.81510478 0.95349067 -0.93747532 -0.15856309 1.51495516 0.24549733 -1.53359985 -0.82713342 0.27442315 -0.26768330 -1.12354791 -0.10286947 -1.26535487 1.10449100 -0.27613595 -0.00514615 0.07318085 -0.71956879 -0.73599380 0.34083337 -0.49203059 -0.90074337 -0.79205692 -1.08853137 1.08640361 -1.19395792 -0.21267548 -0.46660316 -0.77644819 -0.33223170 2.60248566 0.55005854 0.26396868 -0.30133468 1.06225598 1.78544736 0.36452684 0.13265562 -0.53961349 -0.50608045 -0.46167856 2.00539327
-0.25356275 0.30901939 0.11575264 1.32259047 1.60766709 0.46063364 -0.64339584 -0.90500814 0.91305584 -1.55558586 -1.09754968 0.05716033 -0.77009749 0.45288470 -1.17274225 -0.93216783 0.04269036 2.17186475 -0.68248749 -0.09459633 -1.13312161 1.31322777 1.10727632 0.79322654 -1.03261900 -0.02903198 0.73737288 2.60516453 -0.32885927 -0.28243461 -0.61512721 -0.08495291 0.40033686 0.77687597 0.22910675 0.90096998 0.29451227 -0.59422487 -0.35441199 -0.20642452 -1.91128862 -0.45017210 0.33009556 0.54130131 1.62292004 -0.12534781 1.24123526 -0.45071882 -1.67473507 -2.01015377
-0.52122450 0.45489955 -1.66722667 0.13293432 -0.11804604 -0.56317824 -0.93964362 -0.33833623 0.48665389 -0.19986023 0.17165050 1.37488675 1.60218537 1.66414642 -1.17607677 0.79965502 -2.11117291 0.45368016 0.09330416 -0.46786582 -0.54099035 0.28912055 -0.25019068 -0.19523579 -1.00474179 -1.82168031 -0.17440739 1.55885863 -0.11613662 -1.04228330 -0.74685687 0.94535649 1.73884869 -0.97326547 0.54058307 0.90156221 0.19730821 1.38011551 -0.94742334 -0.20993800 -0.23643847 -0.02571650 2.19949579 -0.35110182 0.33769420 0.43748841 0.56807876 0.73329014 -0.23839225 -1.04293227
-1.60152531 -0.44230691 0.95181912 1.14728355 0.96856642 0.01315002 -1.00800788 -0.99297798 0.24748553 1.57729936 0.13672219 0.65426308 -0.67625028 -0.96756750 -0.86192924 0.24553908 -1.23736167 0.97892940 -0.93002373 -0.94207406 -0.66561544 -1.63757432 -0.29519060 -1.01018369 -0.41167849 0.12354892 -0.20521510 0.15225118 -0.18271734 0.87551582 1.16101146 0.32915741 0.49461886 0.17469536 -1.56825769 1.30188000 0.28482848 0.54046935 0.78588217 1.90750372 0.19138438 1.42482293 0.92716420 -0.21599703 0.83675057 -0.39405420 0.23626572 1.11234021 -2.40315533 -0.07764634
0.55292612 0.71556270 -0.41623729 2.06677556 -0.08071432 2.12831926 -0.09919036 0.12338194 0.57902730 -1.48554420 -1.43256152 0.81617713 0.00816731 -0.45935914 1.42741513 -0.84684908 0.03337454 1.10933185 -0.09131245 -0.19594875 0.33396903 0.20000947 -0.27643108 -0.37753373 0.12440465 -1.24139118 0.08612322 -0.93787867 -1.49582672 1.14294815 -0.66759461 -0.85191774 -0.31552404 0.06556670 0.10629337 0.18526687 -2.18309426 1.80667090 -0.45020184 0.70895362 1.57687104 0.39303151 -0.64065504 -0.11956815 0.13824353 -1.26288927 1.24294984 -0.50701052 -0.32588077 0.01192156
0.73887503 -0.48042369 1.33559871 -0.78325999 0.51009595 -0.91148365 0.81311041 0.92169869 1.82443810 0.07228865 1.02626538 -1.58794582 0.93773663 -0.73356605 -1.39554918 2.87951136 -1.01276565 -0.39720225 -0.21277137 -1.80220580 -0.66392738 0.13817324 0.79556954 0.44901228 0.26388714 -1.26695204 -0.92663985 1.02440870 -0.38155830 -0.89210701 -0.63306910 0.39146522 -0.55589181 -0.53947049 0.36418796 0.13182138 -0.86190623 0.78664041 -1.42465544 1.83078027 1.83222079 -0.77458769 0.28987333 -0.64912689 0.88363689 -0.65334010 -0.89644134 0.04429220 0.03483891 1.07143497
-0.33943528 0.54614067 -1.35684073 -0.03765001 -0.14616859 0.43264118 -0.65721202 0.56285167 -0.45346385 -0.74083924 2.09255099 0.14138994 0.40943787 0.78366524 0.23916353 -0.32021841 -0.04847915 0.19384564 0.68941772 0.49642757 2.55656886 -0.72150123 -0.11326302 -0.85778278 -0.82291371 0.42531574 -0.68026584 -0.78842521 0.91251981 -0.34733677 0.17304660 -1.49045503 -0.75740588 0.69007450 -1.22541893 0.51896966 0.64895868 -1.01227081 0.57984519 -0.89106226 0.44058710 -0.25598961 -1.73240161 0.05536972 0.34674427 1.06427896 0.23753250 0.90810400 -0.20170841 0.83770108
-0.27058440 -0.14037943 1.03219700 -0.55205399 -0.35748702 -0.82314587 0.05167164 -1.40799499 0.54945832 -0.19516927 -0.47416165 0.96477097 1.44100523 -0.57811540 -0.32175946 0.88756073 -0.42178741 -0.28733587 0.56157768 1.00336790 -2.72020483 0.45446655 -0.83696258 -1.50793910 -0.89491773 -0.77389902 0.27746564 -0.43853813 -0.72138286 -0.67797023 -0.58479393 0.61659205 0.76591027 -0.61693954 -0.25652954 0.17709936 -0.11620414 0.55863678 1.29593873 -0.14069907 1.17207861 -0.43959171 1.81500447 -0.15864004 -1.62147546 1.28770828 0.07296852 0.90040386 1.58950222 1.94732106
-1.10938311 -1.13504267 -0.63851780 -0.41841856 -0.29209965 -0.38609001 0.90925574 0.99972349 -0.47599095 1.19449103 0.11814645 1.53403747 -1.41321135 0.60622633 1.33251894 0.32434383 -1.37389529 -0.18000375 -0.32476112 -0.05896674 0.65779006 0.68039393 0.85694784 -1.98195672 0.50584900 -0.44982871 -0.56765044 1.00031555 0.37079835 1.00357687 -1.42950439 0.69099575 -0.06023660 -1.36596942 0.92362922 -0.35576299 0.03429605 -0.85481656 0.51280153 -0.08924823 0.22128446 1.16744828 -2.30279827 0.34201777 -0.98740888 -1.70826662 1.48539722 0.65948194 2.49791503 0.35897624
-0.30044326 -0.88373238 0.00231851 -1.76716077 -1.31010783 0.37769860 0.51562768 1.52785325 -0.49986991 1.88350093 0.47484657 -1.01767588 1.68987536 0.94132555 1.14998448 1.64635301 1.20550907 -0.83539456 -1.39268363 1.15174961 -0.68798214 0.12316628 -1.16971684 -0.48973313 0.21114799 -0.12575172 1.52877736 -0.15513848 0.24258101 1.21904278 1.39997399 1.73176920 -1.83796513 0.90889257 -0.99197704 -2.66738605 -1.02835178 -0.61772293 -1.56836879 -0.52093011 0.56689423 0.07857531 -0.26525515 0.67908865 0.34298614 -0.53484672 -0.04005132 0.09903735 1.15232480 -1.19452858
0.65630114 -0.63835716 -0.35066599 -0.46946701 0.72323436 -0.96399724 0.59402102 -0.69215220 1.11052370 -0.04333749 -0.00370806 -1.80164325 0.02811247 -1.24966884 -2.40035248 0.11352048 -0.48587406 0.42265493 0.80074245 1.09625459 1.82952273 -0.36954811 -0.13238570 -1.00787950 -1.13526845 1.91952622 0.74010694 0.87544119 -1.36564922 -0.24478142 1.12356782 -0.37796855 1.24250925 1.09979308 0.84439063 1.18972909 -1.54774880 -0.97545600 0.22736037 1.69100869 1.58670247 0.70750147 -0.17639652 -1.12360525 -0.31379348 -1.90699816 -0.08721597 -0.46377051 0.42110142 0.31394759
-0.00290848 1.37994373 -0.26097459 -0.73319429 -0.45696566 0.84304482 0.40004620 -1.12935901 -0.71764511 0.68385571 0.06374159 -0.99719244 0.09595094 -0.15918267 1.65673232 2.13604808 -0.40208894 0.03873638 -0.85399699 -2.51221228 0.87043548 0.04287677 0.29724368 -0.15973137 -1.17990053 -1.55492067 -0.57077396 -0.63420641 -0.04567096 -0.49435559 0.53144163 1.10108852 -0.22104689 -1.42216861 0.15443578 1.15767312 0.37800786 -0.05991337 0.05246042 -0.72649211 2.98963571 -0.01955847 -0.04285572 1.27718496 0.39959809 -0.13626637 -0.18724503 0.45456871 0.41680425 -0.72429901
-1.10031152 -0.71155000 -1.12145615 1.69864225 -1.81855154 -0.12964384 -0.73061502 -1.10817790 1.71673787 -0.27844819 -0.27792484 1.18136656 -0.94706023 -2.24237061 1.62626541 -0.96855289 0.25756896 -1.65508604 0.90313751 0.16008300 0.03190505 -1.80824649 1.73902786 2.39664030 -0.22990328 1.58013117 0.32403842 -0.30295026 0.13628677 -1.11495423 0.32153735 -0.40119499 -0.45838246 -0.48465073 2.25492644 -0.37246066 0.54313207 -0.72197974 0.52354872 -1.15461969 -0.11805878 -0.16176216 -1.35419071 0.26343143 1.39297843 0.45872596 0.07818796 0.52511168 1.68624449 1.07309639
-1.31553447 0.14105095 0.00766069 1.89039838 1.00914991 0.69327480 0.95768273 0.02483548 0.73303592 0.23093043 0.02377118 0.07324583 -2.16162157 1.70364690 0.95308530 1.98022163 0.76872861 0.18208286 -0.97120768 -0.86737013 0.74816799 0.01728163 0.34378949 -0.77794129 -0.85430890 0.06892487 -1.60227966 -0.78950649 0.62253547 0.05016352 -0.65989536 -0.96967655 -0.83997864 -0.56200135 0.98421562 1.54499316 -0.92899638 0.47773936 0.58885604 0.17376885 -0.03672020 0.78517473 -0.78563231 -0.97414273 -1.50951052 0.88994586 0.52034295 0.74293900 -1.80616665 -0.62389082
-0.02442201 1.04986668 1.89473093 0.68959641 -0.81141180 -2.37286329 -0.81906080 -0.03480596 2.15156674 -0.39043090 -2.41036034 1.25333560 -0.55625218 0.95688194 1.85744393 -0.09013154 0.11946088 -0.06877823 0.35164383 -0.73320276 -0.17605478 -1.37787151 -0.73044890 -0.97001445 -0.81578726 1.03766572 -0.94395387 0.12411006 0.03982951 0.30946085 -0.10228848 0.74651855 -1.20249081 0.14933547 0.30470282 -1.34078896 -0.15412246 -0.09839368 1.27795029 0.47694314 -0.27996787 1.17341042 2.01212406 0.12680463 -1.01824331 -1.12941265 0.29963985 -0.48414558 0.90001827 0.82648504
1.51945448 0.40790465 -1.11006367 0.01753712 1.01629043 0.14064935 -2.27448177 -0.11767315 -0.41297537 -0.06214480 1.44846869 1.07379806 0.52979982 0.56586707 -1.40774608 1.24773860 -0.13721408 1.85646510 1.24150515 0.39124054 0.27317086 0.91477329 2.22783446 -0.36232916 -0.69556612 -0.09550136 1.19056380 0.21775584 -1.32676947 0.02458399 1.25346851 1.58046436 -1.39998853 0.25632766 0.74425274 0.11465571 -1.39105034 -0.40484118 -0.94983590 -0.88206512 -0.51161683 -0.11864177 -0.20213175 -2.05860186 -1.53534257 0.34821495 -2.30923653 -0.03403068 -0.47489274 0.52957082
1.82580507 -1.02757168 1.02118683 0.12326207 -0.09232946 -0.88292670 -0.82099444 -0.50932872 0.75125819 -1.00755858 0.32331419 -0.43159840 -0.43934706 -0.38477027 -0.44538391 -1.58036816 -1.76982260 0.30788043 -0.00243524 0.43319660 1.43827498 -0.58646291 -0.11500980 0.92711532 -0.65521163 0.59783643 0.78890222 0.62880796 1.68718934 0.68561053 -0.69731289 -0.91936678 0.80302042 -0.12576012 0.80568582 0.32919663 -0.60497701 1.23152447 0.85321522 -0.10068275 0.16970518 0.51764947 -0.60966688 0.09190904 0.53003663 -2.23489356 -0.21652138 -1.25857961 0.26796281 1.39425743
1.21524227 1.32414877 0.67838717 -0.52433485 -0.32292953 0.71245229 -1.50441206 -0.37692964 -0.20381907 1.36871576 -0.90577197 -0.37383488 -0.43652368 0.42895871 -1.09389579 0.98583168 1.23470199 0.45882398 -0.42866850 -0.98784608 0.10248943 0.28799915 0.70539957 0.88814110 -0.11342932 1.40246308 0.42355305 -0.89077783 -3.41178823 0.60883534 0.82326651 0.20929718 0.64921987 -0.11130702 1.55500603 -0.32827896 1.60559452 0.03004049 0.12237276 1.58932066 -2.89529800 1.07594001 -1.05536091 0.03692184 -1.08394670 -0.13009770 0.02492050 0.04956064 -2.45985913 -0.04018383
-0.86398947 0.62874985 -0.73961240 1.40890455 0.26953271 1.37808979 -0.65667105 -0.81019688 -0.51470715 -0.32628778 -0.81095541 -0.79638475 -0.04538751 0.39379513 -2.22601700 0.50245118 0.66931272 0.47404966 1.78162742 0.11734734 -0.81133550 -0.43883681 0.05281844 -0.13532239 0.98299468 0.47433671 0.19822602 0.56639266 -1.63965285 0.53876984 0.01438781 0.68868691 1.11711407 1.77477872 0.96322566 -1.60469651 -1.52953827 -0.87637430 1.03884983 -0.19508283 0.20708922 -0.72513992 -0.75396818 1.82318783 0.23948951 0.61207235 0.97715396 -1.23612547 0.09519826 -1.25129354
-0.92109311 0.99226797 -0.41469124 -0.66236603 0.89431530 1.80363834 1.48375547 0.23261216 -1.69134128 -0.32698897 0.14604400 -0.76784629 0.27010632 0.29188788 1.46418118 -0.98468912 -0.04081086 -0.08198627 0.72829789 -1.57730734 -0.31071940 -0.33633637 0.44053376 0.87839818 -0.65871197 -2.09904456 0.69802821 0.52499717 -1.66575336 0.07289051 1.38695180 0.89010668 -0.40538359 0.05233546 -0.97631657 -0.01670279 1.13941872 1.13506818 2.36979055 -0.13153239 0.69085288 -0.17861094 -2.27753878 -2.06565046 0.21426217 1.02326941 -1.23127210 1.10528433 -0.04819463 -0.08676139
1.08244383 -0.89469296 -1.34370875 0.78733736 -1.41367114 0.21783605 0.21685685 -0.80160654 -1.22199428 -0.62973219 -1.27891779 0.21110402 1.70218599 -0.55329400 -0.10359307 -0.05302272 -0.92897731 1.10370505 -0.35562184 -0.03284907 -1.24553311 0.96546674 -0.16600382 -0.07376390 -0.97428751 1.34823930 -1.63775754 0.12894909 0.79971665 1.74152935 0.10964041 -1.99624944 0.69265682 -0.14194685 1.31536853 -0.58752561 0.64914858 1.02911639 0.38521919 -1.04348278 1.38190877 1.70851028 -2.05677652 -0.52673548 -0.31696090 1.69601738 0.54219365 -0.37361002 1.38415372 0.64576566
-0.86449635 0.85023016 -1.83916020 0.07633522 0.33094114 0.48138082 1.62558818 0.66590250 0.07200766 0.62187481 1.30869150 0.17559135 -0.34817645 -0.68349546 -0.11930724 -0.57582855 1.29364157 0.37451455 0.75369167 -0.48899254 0.19736068 -0.22096851 1.81788433 0.52637142 0.76495904 0.97882867 0.02280120 0.73347580 -1.83330464 -0.43439862 -1.94483566 -0.38046414 -2.18772173 -1.04388428 1.37710488 -1.43815064 0.80172372 -1.47546601 0.61213285 -0.45624208 -0.10596438 -0.01827695 1.05775619 0.32550013 0.50409389 0.06843492 -1.41004622 -0.30356905 -0.31683218 1.00362885
0.46764842 -1.68913746 -0.51987666 0.17374878 -0.79557329 -0.47167078 0.22046390 0.14094734 0.47022641 0.04976207 0.40302143 0.52532101 -0.14186350 0.39429113 0.15610890 -0.20882741 0.22990084 -1.16540539 1.23682404 0.96043694 -0.33527702 0.33399695 -0.40241510 -1.57418406 -0.40371859 0.31471011 0.80460203 0.67477202 -0.06105974 -1.02132595 0.12629163 0.59890729 0.40932238 -0.78937298 0.29354063 0.65825909 0.86709726 -0.19563393 -0.69158864 0.86076593 2.12808681 -0.51411062 -0.48297250 -0.31535062 2.05973411 -0.39753437 -0.95560479 -0.45519909 -0.80837733 -0.15137815
-0.01137042 1.19426608 1.27460849 -0.27610075 0.51781136 -0.86573309 0.81520891 0.49231029 -0.96149284 -1.39771795 -1.20444429 0.98056668 0.16490278 -0.39198893 -0.41102171 1.27198780 -0.57773221 -0.56541532 -0.16094615 -0.93466008 0.42205554 0.75638729 -1.58359194 0.80066550 -0.81062031 0.33246997 2.70174074 -0.59223056 0.24662881 0.37151057 -0.63581955 0.23496018 0.52226406 -0.32996848 -0.62408119 0.44271931 -0.02022952 -1.62866616 0.69690943 1.19005609 0.14928935 -0.42230943 0.77609974 0.06378313 1.86817098 -2.40386558 0.13169943 1.35017347 -1.03643084 -0.95178884
0.69855601 -0.64027369 -1.66967142 -2.07837224 -0.11060479 -0.14782400 -0.10515160 0.24483678 1.79041815 -0.21054545 0.00366637 0.45036030 0.01532623 0.15841521 0.73932588 -0.95792276 0.22825813 0.63399512 0.20239900 1.23464751 -0.13955036 1.47260344 -0.93631327 0.73615807 -1.43232203 1.48494220 1.28118920 -0.88057226 0.08964567 1.00581622 0.85948259 1.70569432 -0.54512972 1.08750486 0.25376260 0.94716525 -1.36645365 -3.45761704 -0.99587494 0.70775968 -1.04506743 -0.36787027 -1.28977299 -0.20692042 -0.74873549 -0.28131855 0.63652390 2.82356620 -0.25769266 -0.62709117
-1.32975399 0.66095793 -0.65778482 -0.10579288 -0.89172053 -0.58068550 1.19394267 -0.25546154 1.52321482 0.31412014 -1.36612511 -1.00218165 1.65349960 0.05473636 -0.61902058 -0.18448450 -0.24965538 1.51310849 -0.47375810 -0.50864053 -0.27241036 -0.64078873 0.01819615 0.72565007 0.19459546 -0.43668866 1.79127836 -0.75150001 -0.11483259 -0.49324352 1.72735345 -0.89048910 -1.46611381 -0.10586486 -1.26451612 2.05361271 1.51449621 -0.66448855 1.26948094 -0.35776415 -0.08683716 1.52224648 -0.67802781 0.40783346 -0.27213582 -0.23440725 0.67294711 0.64209813 -1.45230365 -0.02154368
-1.82686043 1.31215942 0.70945519 0.35319051 0.40028444 -0.83517879 -0.91844201 -1.00646091 -0.39940953 1.73989594 1.60054934 0.18066886 -0.95534968 -1.15185869 -0.02719501 0.60578436 -0.99533153 0.40558696 1.49010062 -0.96451443 -0.88012278 -1.58263814 1.02430093 0.55682105 -0.50076908 0.36453903 0.15875614 1.95835781 -0.76040441 -0.42658594 -1.15608203 0.94509357 0.36957529 -0.41736880 -0.49877867 0.51479840 0.28727728 0.03526042 0.76139456 0.19714095 -1.11917031 -0.02985287 -1.29470253 0.99182534 0.42467275 -1.16853511 1.34874570 0.85111946 -0.60350585 0.94819230
0.15141723 0.02056792 0.76519018 0.78474498 0.17443338 -0.20802352 -2.02740812 -1.36968219 2.42751741 0.15710902 0.92929316 0.06564723 -0.48229289 0.08080000 -0.35955241 0.59370130 0.17239513 0.86228150 2.15204501 0.65399575 -0.44891691 0.39396378 0.11961409 0.01751141 -0.89542478 0.18784839 -0.51386189 -0.67547566 0.14913000 -1.17421031 0.04428473 0.08628508 -1.10200393 -0.79182124 -0.69307518 0.69050682 -0.15483135 0.61204094 -0.06547409 1.81332552 0.57714027 -0.28522167 0.22820151 -0.43905783 -0.52968055 -0.76002347 0.63512731 -0.30605718 -1.15893316 -0.17479686
-0.89833969 -0.04091547 -0.26678613 -0.49916971 -1.18503284 -0.47222900 0.76563203 0.77437210 -0.41964602 0.55755824 0.59709328 -0.09993000 -0.34511721 -1.06889594 0.93193942 -0.40425229 -0.17864943 -0.27358517 -1.07334805 -1.72877944 0.44824374 -0.96317965 -0.40015170 0.48478353 0.52217144 1.37646818 -0.26437783 0.81694567 -0.20585269 0.09124415 -0.02876871 -0.26700783 -0.65577072 -1.63205028 0.47323897 -1.00716197 2.32622218 1.33802211 1.46376967 0.29446870 0.17657749 0.40970856 -1.38173914 -0.75871533 1.05209899 0.82634532 0.34924337 0.79414046 1.03217912 -0.30070508
1.06571364 0.90229338 0.13622800 0.63280398 -1.74079609 1.23565924 -1.09592223 0.64668840 -0.10087722 -0.38165298 1.09062326 -1.30262399 1.23984742 1.42614543 0.42900833 0.89731306 0.45668632 -1.05097473 -0.81841254 -0.93181443 1.09924030 -0.76395696 -0.78885293 -0.37096125 -1.05092335 0.93276829 0.44007438 -1.40239823 -0.51817185 -0.71268630 0.71135551 0.39640522 0.65494347 -0.03244364 -0.21791653 0.34221846 1.16194260 -1.23094487 -0.24975103 0.31633085 -0.99122643 0.05058793 0.93511683 -1.15119481 0.15889567 0.59778023 0.48142263 -0.71167397 0.44418153 -0.32503539
0.18086702 0.56195772 -0.63952559 -0.79334205 1.26776075 0.87129062 0.15346855 -1.64599228 1.13681245 0.01920448 -0.62295276 0.86150986 -0.30422321 0.87358457 0.11500730 -0.65565246 0.16897474 0.22479601 0.96024776 -1.35320032 -1.30122781 -0.62788814 1.15921700 -0.35841444 1.60752964 0.13316523 1.31088245 0.69534409 0.05370669 -0.01766860 0.68859518 -1.19874835 -0.40658110 -0.65580553 -0.48254919 0.14849290 -0.43735695 -1.80348313 0.84820086 -0.22660194 1.04717863 0.09118598 -0.17026046 -1.04605079 -0.42754161 -0.14687356 -0.15330395 -0.07075297 2.22128081 -0.89258778
0.65873826 0.33891374 -0.04536346 0.55382997 0.22239657 -0.55359668 -0.58292836 -0.86787134 -0.45747852 0.29475880 0.52752292 -0.88076526 0.93506086 0.09782218 0.33995992 0.61529839 0.62092561 -0.33207846 0.52992082 -0.26406595 -0.10888617 -0.55297804 -1.74978316 -0.64564532 -1.33669257 0.69970119 -0.85479349 -0.39063689 0.30677691 0.42067698 -0.57988358 -0.42458439 0.51438147 0.76761472 0.19283795 -1.26130652 -1.03848004 0.96982646 0.97351217 -0.57075888 0.84277529 -1.04054105 0.63790029 1.11624372 0.08938693 1.74523735 -0.36794230 1.78088045 -0.67817116 -0.19045828
-2.19993854 1.29753315 1.65644956 -0.12462632 0.44836786 -0.31840414 -0.55944175 0.91914940 -0.25486702 -0.63847536 -0.25326845 0.78812504 1.28069746 1.15358758 -0.09770309 -0.36253333 -0.79332268 0.11932155 -1.02269542 -2.29593468 0.71300912 0.45020473 0.53960741 0.91982931 -1.09092653 -0.77367705 0.22008853 0.11216445 -0.42154336 -0.98227400 -0.30961663 0.85822028 0.26111484 -0.18978946 0.21492338 0.02955045 -0.04802212 -0.07363764 0.05610895 1.66125762 -0.19345410 1.60279870 -0.26718074 -0.60011119 -0.07248387 -0.34818563 -1.01788545 0.00044421 0.84063441 0.15138043
0.39503175 -0.91095346 -0.47988564 0.83281112 -0.66280544 0.38121620 -3.13477969 -1.57530177 2.64268565 0.76472574 1.07478869 -0.83973175 0.65591067 0.75357199 0.83902633 0.25243062 0.00547178 0.57957304 0.16029631 0.24279612 0.01509579 0.27133855 0.26140979 0.36375195 0.15065044 -0.78828758 0.76269823 2.15973878 1.00130022 1.87814999 -0.44948870 1.38621759 -0.69287151 -0.26861414 -0.17899458 -0.95421875 -0.41233155 -1.81827307 -0.81741548 -1.28180254 -0.63073057 0.68907684 0.23996857 -0.44700438 -0.72708148 -0.28854093 0.62095261 -1.56356919 0.23891373 0.24634053
-0.51323348 0.79824692 -1.31692851 2.14747190 -0.44943383 0.39825743 0.32815367 1.32906938 -1.80846262 -0.46885952 -0.90227991 0.49058497 1.52720487 -0.20861183 -0.94971770 -0.47845140 -0.80588555 -0.25441357 0.57128483 1.30067217 -0.14716272 0.04277213 0.05580493 -0.39028099 0.39484704 1.97547853 -1.05954552 0.02587111 0.01768566 0.96698540 0.63909042 -2.11107516 0.64631277 0.87507826 0.30876845 -0.52448559 -1.53406751 0.28296113 -0.86793846 0.37128893 -0.27291876 1.38227701 -0.94481248 -0.09050187 0.71252501 -0.51210630 0.88475180 -1.27478337 -0.49013916 0.87581396
0.43358669 0.32045504 -1.31937420 0.17981243 0.65212137 -0.35179904 -1.76501191 -0.21717128 1.45754051 1.44382453 -2.84176588 -0.19047625 0.20258266 0.53591037 0.03980822 0.42760724 -1.30522430 0.17037950 -1.43936336 -0.40476292 2.08817863 1.54396939 0.13192472 -1.34875751 0.81566924 2.12930226 2.11003160 0.17541559 -1.44477689 -0.11533072 1.90288305 -0.59905946 -0.56109864 1.14634824 1.49859273 -2.54092789 -1.48842978 0.62276453 -0.20567906 -0.00609144 -0.34926087 -0.29040867 -0.24428217 -0.52899182 1.32686377 -2.17622995 -0.02839031 1.54453266 -0.76776594 0.62492061
2.04284978 -2.16505003 -0.78069520 -0.53955644 -0.66485244 0.65506965 2.84236646 0.41025287 -1.46904850 0.28070384 -0.92853445 2.35029674 0.60266012 1.15667987 -1.26649010 -2.19906974 2.78269911 -1.01131046 2.19260049 -1.25980425 -0.06174332 0.93394881 -0.39372897 0.74672741 0.47935632 0.29676843 0.27410209 -1.79025567 -0.32551357 -0.18315458 -0.62678564 -0.27296510 1.48512828 0.07650797 -0.77266264 0.41454166 0.17057668 -0.69419920 -0.55401200 0.73091578 0.95836580 -0.75214809 -1.14444911 0.15228522 -1.13065207 1.71755052 -1.40855229 -0.37984774 1.16646922 -1.20912302
-0.45304817 1.82951784 -0.44662946 0.44847581 0.51670724 -1.75434113 0.81984097 -0.71338093 0.07636995 1.54438055 -0.62032539 0.22540841 -1.52759767 1.23210716 1.33682394 -0.07243825 -1.15084958 0.64535511 -0.07753073 0.03855463 -0.63681614 0.39701650 1.55478776 -0.51654714 1.08486152 0.37419099 1.59012043 -1.09206069 -0.23432337 -1.23822832 0.49786469 -0.05805490 -1.30623686 -0.69828302 -0.32031387 1.58363008 0.79777640 -0.95206094 -0.39128047 -0.28124633 -1.89919233 0.14981548 1.88253331 0.94141996 -0.38650149 -1.15334952 -0.27370864 0.61900622 -1.92378414 0.93338788
-1.36665988 -1.89613545 -1.01024985 0.94675714 2.24360561 -0.02479869 -0.45945069 1.21665788 -1.22595525 0.55147046 2.78313160 -0.13893795 -0.83969069 0.17104098 1.13485754 1.07272983 0.11398513 1.51161265 -1.19469476 0.70929199 -0.05724087 -1.54841030 0.35071728 -0.15788844 -0.42627400 -0.14818871 -1.02849281 -0.41509479 -0.39942250 -0.23758774 0.49282300 1.52941167 0.07709234 -0.10436980 -0.08517399 -0.31558302 -0.38902271 0.15349635 0.67056340 -0.07736429 -1.95197332 -0.33445308 -0.60922176 -0.22948903 -0.56307882 1.21746409 0.11830066 -0.66127241 2.21360087 -0.40585738
-1.95960736 1.24443924 1.02691531 -0.12889358 0.60653013 1.21882010 -1.08183670 -1.25280154 -1.58137846 -0.61681801 -1.42659020 0.16534548 0.40690249 0.82010883 -0.32107326 -0.03633055 0.27136257 0.96451479 0.78233373 -0.86797690 0.97395915 -1.66831017 1.75080788 0.15413857 0.76597524 1.96678030 -0.67973131 1.95327640 0.58661640 -0.38370562 0.43004960 0.31285620 0.10486930 0.74574614 0.95400941 -0.18713275 0.10640451 0.24753647 -0.26408044 2.33750653 -1.26676989 -1.28594601 -1.25255632 -1.14104390 1.20869529 -1.53408134 0.01614770 1.33188343 -1.04598141 -2.50698423
1.05964136 -0.16585957 -1.31456935 0.85686439 0.06990813 -0.33559376 -1.33779824 -1.00247014 -0.70403063 -0.76202738 -0.24400644 -1.40256131 0.55361670 -1.13391948 0.66370678 -0.74377346 1.57142162 0.37094623 -0.20994408 0.28588772 0.45087513 1.34298468 0.57897377 -0.18578699 -0.07729032 -0.19578873 1.12666309 0.79253805 0.65849328 -0.59248978 0.84912920 -0.83220500 0.57492083 0.18414001 0.23794022 -1.10835981 -0.04346520 0.32685363 -2.73515534 -0.83185351 -0.08035530 0.23037286 -1.24955237 0.14227752 0.19307528 2.85959864 0.39221692 0.19304143 0.94051111 0.84303814
1.30509961 -0.18182009 -0.13940394 0.10641649 0.72214305 0.38768518 1.52597773 -0.30524874 -1.11627162 1.08368027 -1.60114074 0.70438468 0.29001540 -0.14662421 -0.27738452 1.62640488 0.06051232 0.78691453 -0.93454790 -1.30627084 1.41002250 -0.20557122 0.03912660 -0.72263169 -0.61485916 0.01124852 -1.26237309 -2.36045384 -0.50761420 -0.68156797 -0.02277519 0.24159880 -0.62052429 -1.61078870 0.11581752 1.70043957 0.69033408 0.75011486 0.24918664 -0.50020796 -0.81870192 2.24879026 0.97130543 -0.19469731 1.01057577 -1.19937682 0.15309243 -1.80031931 1.02424800 0.87919486
1.48717391 -1.36384785 0.62548047 -1.08997989 0.58491063 -0.89569646 -0.16950099 1.05022979 0.85914701 -0.04916034 0.27839804 0.34363809 -1.23100495 -0.26904991 0.72330350 2.21787500 1.03962541 -1.39440286 -0.35059074 0.76507235 0.28054786 0.15541677 -0.62616241 -1.05877209 -0.64099884 1.04684734 -0.00785054 -0.09360871 -0.27701142 -0.61822784 -0.61968565 0.07146619 -1.32649577 -0.36312151 0.15673435 0.35920674 0.69145834 -0.38182712 0.20088173 0.24905945 0.03181515 -0.39030686 -1.29545641 -0.41756961 0.52840924 2.14062762 -1.22223949 1.90431952 -0.30530992 -0.36143228
-2.14111471 0.03970373 -0.78638178 0.72292310 -0.24121962 0.12343193 -0.54180729 0.94763190 -0.52479964 2.24176598 -0.40757820 -1.08919501 -1.23190522 -2.40447140 0.43486470 -0.99975210 0.92526889 0.11204999 0.82302940 -0.87662858 0.81951708 0.57128996 0.51803482 1.16958904 1.13218641 -1.01674223 0.01703209 -1.78981793 -0.22598946 -0.38341641 0.18090206 -0.19864793 -0.55053699 0.21803506 0.87909311 -0.35071871 2.45317721 0.43143305 1.12773347 -0.51853943 0.64062238 0.12768984 0.64473242 0.83818525 -0.23167831 -0.52529842 0.91505510 -0.28861955 -0.21828736 -0.44287336
-0.73175114 -1.50809848 0.00681503 1.66173136 -1.00279653 1.22188687 0.86739588 -1.22490299 -0.14767867 0.09745455 0.22547947 -3.69337320 -0.00639686 -1.22527432 1.05846977 -0.13793725 0.41126466 -0.79200685 1.79558778 -0.23257013 1.45759082 -1.08141005 -1.06271076 -0.14576671 0.15350732 -0.01994109 -0.06274290 1.21906257 0.40070912 0.61471474 -0.04668031 -1.84485352 1.51468122 -1.66968215 0.15301512 0.16649647 0.20025368 1.08872473 0.41018936 -0.05780863 1.50837731 0.07757463 -1.48713529 -0.50253165 1.66460419 2.58899808 -0.81869370 -0.98752058 0.65202910 0.34572482
-1.67070878 -1.42796254 -0.83879250 1.49110854 0.93730462 0.59766185 1.13853323 -0.52367038 -0.10155753 1.06426179 -0.98734123 0.07779264 -1.12797749 0.87760562 -0.08804648 -0.12229035 0.06636311 -1.09452748 1.63464642 1.33251846 1.14511299 -2.01265979 0.13772312 0.68892610 1.74702346 -1.80687857 -0.31412932 -0.87758994 -0.12226327 1.18759513 -0.86563188 0.63498884 1.56910563 0.58363813 0.41689289 -0.67190808 0.22881980 -0.50176591 0.11063907 -0.57343823 -0.52789122 0.67557818 -0.74092919 -0.65170729 0.04948335 1.18999481 0.44818813 0.66053182 -2.15680552 0.10552756
-0.78012818 -0.57300162 0.14651522 0.20914865 -0.22459829 2.57015300 -0.12546487 -0.97421587 -0.53897184 0.21218766 -0.43380031 -0.29641390 0.34153688 0.72225034 -0.90275711 -0.26627606 1.00947666 -0.26709685 0.21671985 -0.32636300 0.86406118 1.59992039 -0.64176047 1.47381473 -0.06964877 -0.12150144 0.75997579 1.80568624 0.12976271 0.42067483 -0.42358211 1.86953056 -0.15081085 -1.53111792 -0.93336582 0.22621366 -1.40606391 -1.31096327 0.48639029 -0.26782227 -0.10305437 -1.29690397 0.03265549 -1.89423168 0.45656025 -0.15325965 -0.33170006 0.02812116 0.88302404 0.84247053
-2.09380722 1.50667357 0.76561868 0.28627616 0.04377366 -0.55786401 0.27133486 -0.28856573 -0.42364320 -0.78633583 -0.59491271 -0.25371692 0.50319767 1.09047854 0.28473830 -0.47297347 -1.76114976 0.65747523 0.03794239 -1.27583158 -0.32618028 0.72930717 1.74654591 0.10805247 -0.39638761 1.47084153 -0.03903164 -0.64543444 -0.55344373 0.48985890 0.90070391 2.03811765 -0.32915843 -0.13227245 -0.78270477 -0.42033759 -2.33200192 -1.89437318 -0.05159752 -0.07099137 -0.71590710 -0.31133342 0.65088004 -0.51644528 1.86558366 0.99041802 0.83462244 0.71574342 0.23436090 0.83719140
-0.63854098 0.33518407 -1.16919243 -1.46117187 0.09474684 -0.79039645 1.43164384 -0.60447586 0.43492162 0.92276186 -0.52289003 1.16511810 -0.70340019 0.25872198 -1.30392408 -1.34937751 -1.18972969 0.86454087 0.58163267 -0.87722087 -0.59217256 0.15039539 -0.24066144 0.09951451 -0.77507621 -0.44652116 1.92998898 0.01992118 2.14094043 -1.00888038 -0.35842630 0.96800762 0.68455052 0.75239128 0.71495724 -0.44975317 -0.23366687 -0.57378274 0.21817203 -0.45221993 0.58661139 -0.81366384 0.58411962 1.12549591 -0.67438334 2.06446648 -0.06583191 0.96406782 -0.17326173 -0.54923671
0.32845864 -0.31269297 -0.02364784 1.30462432 1.51803482 0.33103040 0.18630387 -1.11406600 -2.57210708 0.53435379 0.11610467 -0.16171029 -0.97231519 -1.93369186 1.02741742 -0.03150530 2.34059954 -0.67106873 -0.79539162 -1.93254864 0.03402597 -0.24398954 0.91625541 -1.56889594 -0.04223653 0.62398702 -0.01760982 1.68084812 1.27855957 0.88979119 -0.85567367 1.43518925 0.04011014 0.68906307 -0.12876464 -0.48879188 0.71816081 -0.14612760 0.57645130 -0.47491819 0.30942261 0.29478803 0.39531010 0.30096799 -1.53182149 0.02393302 0.35174942 -1.15495574 0.28196555 -0.35820201
1.03556132 0.94142646 -0.99898607 -1.10684288 -0.03007353 -0.14028706 2.16143060 2.74254870 0.59583008 0.01798460 0.22468096 -0.86483508 0.30898827 -0.32017991 0.31134945 0.84926134 -0.58398455 -0.98457187 0.30038181 -0.53861737 0.33150369 -0.04741640 -0.30372995 -1.51483321 1.22084904 1.33890903 -0.29170319 1.02464759 0.86739445 -0.95379472 0.43820381 0.06761946 -1.31369758 1.07937348 -0.37301069 1.40481853 0.78687531 -1.85733235 -2.35279322 -1.76321256 -0.12837984 -0.28804675 -0.26888621 -0.47233972 0.50699711 1.34166682 -0.35745847 -1.86981869 0.59620255 0.12560412
0.19608097 0.33473483 0.42891961 0.05907833 -0.70201701 0.64637387 -0.75743681 -0.41682097 -0.02434390 0.79995304 -1.20132017 0.01900094 0.22029929 -0.76833642 -0.12102997 -0.80890852 -1.42582119 2.08203983 0.20475855 -0.76708645 1.24350309 -1.67771101 2.05138922 -1.04577482 -1.52592862 0.30083975 -0.41812456 -0.39819324 0.63297838 -0.92205334 0.63620061 -1.34953189 -0.14011951 -0.21919912 1.61875474 1.07524788 1.56287730 -0.19319016 0.05599224 0.10670369 0.38708723 -0.36292043 -0.46113002 0.95191884 -0.27696037 -0.42041382 1.05409515 0.11982394 -0.46733785 1.11844742
-0.06485886 -1.19084978 -0.43928489 -1.06486845 0.42863101 1.43204343 0.28442132 -0.35585862 -0.37754199 1.07303691 0.71978468 1.98628044 -0.82854682 -0.37193441 1.23766541 0.31704667 1.44379103 -2.22056508 -0.10339221 -2.09755015 -1.36057413 -1.13696349 -0.71068317 -0.16048467 1.21277201 1.13149691 1.21790802 -0.58795810 0.26248893 -0.26416501 -0.56850272 -1.39463127 0.50102162 0.80086094 0.50553358 0.76844496 -1.45189869 -0.54538012 0.74081141 0.51476514 -1.58900917 -1.42452478 -0.89403665 1.72540534 0.79070252 0.69176632 1.72936523 -0.83338356 0.52312911 1.02121568
0.22174996 -0.21618518 -1.09998512 -1.31141984 0.79478049 0.71341121 -0.08842357 -0.02487239 -0.87173527 0.86983216 0.64754081 -1.31605363 0.55315661 -0.04142131 0.64772356 -1.04112256 0.02154894 -0.96035302 -0.94563234 1.88977647 -1.36383462 -0.97215754 1.41223431 -0.81557268 0.47352976 -1.12123811 1.12060845 0.20078520 -1.39860630 0.66077131 0.81921715 0.23206276 -1.04643273 0.47060031 2.30705857 -1.67563140 -0.01281723 0.29001376 0.26816535 0.22665496 0.35395890 -1.28506720 1.87785971 -1.28003669 0.15287650 -0.33097720 0.89595759 0.10482747 1.43118989 0.61627203
-0.87949616 -0.35336092 -0.09956484 0.94880229 -0.08456096 0.26034042 -1.25731277 0.84732884 0.05308305 0.52227360 -0.48927268 0.68774390 -1.05782616 -1.60123956 -1.62149131 -1.55579484 -0.81779170 1.61390150 -0.03877044 -2.11471820 0.44943231 -0.83574009 0.51032549 -0.04024356 1.40490389 -0.27987489 1.48554707 -0.99219024 -0.77593601 0.87594372 0.36951309 -0.08043909 -0.93530554 -2.64261818 0.17001009 0.49541119 2.19268847 0.92009854 -0.48370868 -0.09199946 0.66895783 1.55381763 1.50990224 1.46623814 -0.40518129 -0.40554452 0.84081602 -0.42387721 0.42865813 1.19439673
-0.48070064 -0.95861799 -0.58229071 0.03220332 0.79190147 0.46745193 0.33933166 0.70196265 0.17421547 0.79172426 -0.08768719 1.31991148 -0.05072706 -1.94728434 0.81686389 0.82158107 -1.47977507 1.08613324 0.11667674 -0.94066811 0.41496822 1.16422939 -0.96429551 0.96925479 -0.45373639 -0.56051701 -0.06867586 0.04754597 -0.42777243 -0.09576064 0.39092815 -1.64493155 -0.79627526 -1.28288937 1.20866394 -1.52672696 0.13110633 1.01943755 0.14273056 0.27132744 0.90184885 -0.27548936 -0.41220912 0.22999257 -0.14304467 -0.42425558 0.39098623 -0.06266652 1.40480840 0.51480484
-0.86079305 0.43272966 0.63766438 -1.12830603 -0.33069813 0.09837060 -2.01072073 0.99702859 -1.44537747 -1.20970750 -1.25420630 2.68783951 -0.36804783 -0.07133584 -1.30444312 1.20338571 -1.10475123 -0.58906716 0.57783973 1.20405686 1.53236485 -2.31936145 0.91143334 1.58683825 0.84661680 0.14851297 0.70037025 -1.09931839 0.46564698 -0.98879486 -0.42694759 0.25749710 -0.71521634 -0.59917432 0.88922793 0.99345130 1.34479904 0.06273776 -0.57683659 0.61448818 0.20529266 1.53969646 -0.38122165 -0.07179771 0.04887096 -0.93393552 -0.05191799 0.83429128 0.86260986 -0.78301191
-0.20022617 1.53349245 0.36107105 0.71986282 -0.94831586 0.92695224 0.17244546 -0.85882330 0.12153003 0.81336319 0.40540385 1.51015329 -0.22143474 0.92695343 1.38408613 -1.21814632 -0.22301638 0.09119333 -0.84551924 -0.25695401 0.84432423 -0.09225973 -0.35352832 0.19273247 0.50683588 -0.82113224 -0.56092739 1.08283067 -0.45183241 -0.60661328 1.58905149 -0.48645237 0.23495865 -0.08975446 -0.00654721 -0.70046693 0.88243383 -0.32298264 -0.40212518 -1.32222891 -1.08780515 -1.02683055 -2.46806335 -0.21497980 -0.81556469 0.36281100 0.20639302 1.21750307 -0.44764817 1.86777139
-0.12311988 1.24872708 -0.33457583 -1.20409870 -0.66918260 0.38756147 -0.84617513 0.07323753 -0.51354545 0.23764004 0.10961454 0.66100121 -0.77566230 1.56091094 0.38448656 2.31282377 -0.83513623 0.37345925 0.80325443 0.05769117 0.30140746 -0.76630366 2.37097502 0.12377014 0.41517571 -0.74108052 -1.46497190 -0.58644825 0.50459617 1.18822610 -0.51695085 0.02932575 -2.48173404 -1.85654628 -0.20116891 0.32889390 -1.85962963 0.35058442 -1.02140343 0.52018315 -0.88014555 1.63734841 -1.45704007 1.68592441 1.17213523 0.16178720 -0.13860407 -0.46978468 2.18374014 -0.45931500
1.34363818 -1.89420009 -0.02798891 1.90255463 0.07131781 -0.97124940 -0.40902609 -2.21459556 1.37842762 0.45384893 0.26836851 0.24576849 0.74249703 -1.66013682 0.62432599 -0.33121026 1.85615456 1.12988377 -1.00020957 0.34851286 -1.80882204 0.25818864 -0.24701187 0.20482069 -1.33569467 -0.58072037 2.21233559 0.12147073 0.70891088 -1.29036415 1.04810798 -1.30340183 -2.38466835 -0.02338375 0.54032886 0.94206935 -0.20433494 0.67410177 -0.71771157 -0.64289153 -1.45125544 0.73434258 0.28310061 1.00792694 0.03490156 -0.71809155 -1.05135965 0.85705084 2.12102437 1.16645181
0.64136875 -1.81162488 -0.21046576 -0.79308289 -1.25265741 0.93123841 0.16534032 -0.23059699 2.07313633 0.04713560 0.61383486 -2.16826963 2.29575205 -0.78413230 0.62918746 0.23918335 -0.23227479 0.47017685 0.37057033 -0.47337684 -1.04016709 -0.02994836 0.38400927 -0.19726183 1.59787655 -0.29357007 1.07797158 0.14230096 0.95510280 0.02167328 0.36254787 -0.95568824 0.11790944 0.21595226 0.16412522 -1.20838058 -0.59268606 -0.75786310 -0.25658813 -0.11933335 -0.53295690 -0.17392343 -0.11203221 -0.50586081 0.86401802 0.56673008 0.59155023 -0.44117332 0.22830753 0.40391693
-0.85296297 -1.16318774 1.85520935 0.32326442 -0.39305952 1.01714838 -0.68995166 0.84005648 -0.92917120 -1.50868011 -0.94822496 -0.86967909 1.19682384 1.04525375 1.53824663 1.03107488 1.30683637 -0.11310518 0.09235545 -0.43653053 0.34743959 -0.49974084 -1.34465301 0.15219298 -0.79557449 2.38467813 -1.07636082 0.04363123 -1.36382365 0.76206839 -0.54339921 -0.86688739 0.31919855 -0.17608665 -0.95221531 0.20392503 0.42323425 -0.55505842 -1.07029653 1.49063146 -0.75367665 1.95113492 2.56276274 1.17323947 0.37787512 -0.12332042 -0.72354478 -3.05652165 0.51281393 -0.16313882
-0.85606360 0.76720190 0.40346313 0.79620481 -0.80613250 -0.33740425 -2.29130864 -0.62769890 0.23621015 -1.64119041 -0.06649592 -1.47181594 0.97395837 1.34733284 1.75823331 2.70802617 1.36900163 0.20289104 0.16933642 0.91706651 0.13986498 1.75228202 -1.71734214 -0.76660109 -2.16852069 -0.13360719 1.37686658 -0.52827120 0.33031037 0.73664373 0.50042361 1.00071514 -0.82397550 0.11019165 -0.25481528 0.12542461 0.10058717 -0.62188685 -0.26045272 0.23072743 -0.23628384 0.37359348 0.96315318 -0.43460664 -0.67194754 -0.05636752 -1.62442482 1.21492875 -0.25614178 -0.98291272
-2.19139099 0.79455471 0.19420125 -0.17535636 0.08817096 -1.57515347 -1.24808347 0.87360007 0.42340121 0.29589000 -0.18169945 -1.35338986 -0.43483886 -0.43864805 0.75010467 0.34585002 1.23088181 1.16980505 0.11065095 0.10564494 -0.58033842 0.24883772 -1.37939501 0.46017995 0.79686219 0.04743060 -1.44155562 1.20012045 -0.93989766 -0.05083483 -1.45401263 -0.74290061 -0.71680784 0.40680414 1.11796916 1.65827382 1.42869079 -0.94276953 0.53232378 1.68159330 -0.18339530 -0.01989760 -1.08757865 0.08232298 0.03837082 -0.29772604 2.18469810 -0.31131592 -1.01236904 1.56084931
0.24173385 1.18502092 -1.00432467 1.15661502 -0.50804490 0.62040639 -0.01113163 0.43050167 -0.26590389 -0.14586483 -0.19664057 0.11413058 0.53465569 1.01730549 0.57507056 1.75714040 -1.32501495 0.00060503 -0.74637818 -0.85342425 -0.07358775 -1.24156034 -1.77116942 -0.29125202 0.61732888 -0.76900601 0.75682575 1.62214947 0.58964396 -0.34488916 -0.04350026 1.48221195 -1.49482358 1.12026989 -0.95830643 -0.73503375 -0.47790438 -0.45811844 0.38776642 0.88110191 0.08054284 0.00655593 0.98146975 -0.24841054 0.09175871 1.34160662 -1.65531349 -0.22896381 -0.67995232 -0.11721478
2.43982577 0.61500341 1.11626995 -1.13465631 1.06933939 -1.09105098 0.38613620 0.74420303 -1.17190373 -0.78913808 -2.03476810 0.86433929 0.00111085 -0.22889920 -1.36178851 -0.83802092 -0.22001527 -1.66101789 -0.29428321 1.24970901 0.50893545 -1.00906837 0.77752441 -1.26807451 0.59703439 -0.99358720 0.76308352 -0.34247833 0.43142438 1.94082391 -0.31396791 1.08531487 0.41325536 -0.71520579 -0.66147155 -0.95529526 1.65709627 0.11846709 0.36824882 0.86461985 0.56757098 0.12673707 0.22705692 1.74977493 0.56260371 -1.03786504 -1.41345477 -0.17303719 -0.56210870 0.01564663
-0.86023986 -1.00109220 0.46615458 -0.72790861 0.08316901 -0.92859632 0.42208356 -0.40500379 1.16774297 0.62587100 0.23779820 -1.83257878 -0.74776679 1.68618548 0.70564795 0.40507090 -1.13524139 0.10131636 -0.18124740 -0.28790793 -0.20777020 -0.94091487 0.65341812 0.86255378 0.80710131 0.43339932 1.15825045 -0.63138419 -0.89362806 1.70469439 -0.93425083 0.90543216 -1.02429163 -0.69935608 -1.10810804 -0.00805973 2.77761793 -0.10095921 -0.70557696 -0.72152895 -1.35824060 0.57457757 0.58969957 1.35167575 -0.65840387 -0.67502671 2.73723078 -0.76072538 -0.33904636 0.45723510
0.65965587 -1.78883791 -0.80148405 -0.92441225 -0.84101140 -0.68446100 0.37840280 0.01338942 0.99824244 -1.39603376 -0.44034955 -1.81715786 -0.68768162 0.89605403 -1.83015597 1.76021838 -1.15234280 -0.69367468 -0.61184067 -1.43468130 0.08832899 -0.43771234 0.59179157 2.65925908 0.20382170 -0.07536885 2.51630807 0.08013063 -1.44655490 -0.54727918 1.38835168 1.11769438 2.58977938 -1.09223235 -1.95710027 0.64441007 0.66243893 1.17451739 0.29102355 -0.95796198 0.84186256 0.73999381 0.19469140 0.66247869 -1.26331627 -0.53505480 0.07258424 2.99640727 -0.53858513 0.87368107
-0.22953057 -0.53301430 -0.80560994 0.00945502 0.05398351 0.08266263 -0.30318153 0.57793814 0.12296329 0.17111655 2.22654128 -0.22881550 -3.36001372 2.29486632 1.43178761 0.82844597 0.43621624 -1.80101275 -1.23062015 0.30753908 0.84535438 1.68424833 0.35264647 -0.39208418 -0.24870162 0.43144539 -0.46048325 0.52317154 -3.04965305 0.69264400 -0.38967118 1.06495392 -1.17903113 -0.51740116 -0.47523499 0.11506577 -1.14748716 1.03050172 -1.04905605 -0.47624731 1.38023627 -0.32410830 0.18179958 -0.90349925 -0.40307865 1.61128497 0.47922695 0.92951041 1.10584724 -0.46125850
0.84667677 -0.87066633 0.27548033 0.79028106 2.46265268 1.85810900 0.28932005 0.52852505 1.52870929 0.23117651 0.43301582 -0.73100805 -0.59946537 -1.06836247 -0.68760020 1.13069141 -1.29131567 0.45875195 -0.73653024 0.03620233 -0.36814460 -0.24404718 0.29208419 -1.77126479 0.82773876 -0.19057141 -0.20265579 -0.20606022 0.41821086 -1.28559792 -0.85516673 -1.98925507 -1.33646917 -0.44979900 -0.09341069 -0.18367913 -1.79925132 1.97400129 0.76265883 0.26276991 0.67490232 0.75562286 0.33381429 -0.76073760 0.83594298 0.34308770 -0.70811814 0.33260095 0.05554172 0.61616015
-1.18319523 1.43490958 0.15719172 -0.91953671 0.61083633 -0.24112560 -0.65098923 -0.04308721 -0.61788696 0.74943328 0.50926584 0.77071923 0.29910102 -0.52667904 -1.68607068 0.42303351 0.53406495 0.39625224 -0.23743358 -0.05261451 0.20490381 -0.29590279 1.09437346 0.05797080 -2.05390096 1.41646707 -0.29525724 -0.72725445 -0.24471718 -0.97505885 -0.80214381 3.20415187 0.02803247 -1.55755293 -1.66211951 -0.20922635 -0.82574785 3.17439866 -0.17680585 0.28653002 0.89036667 -1.14053023 0.11055655 0.16312535 0.21865489 -0.23339911 -0.32010496 2.50330353 -1.39208293 0.84896964
0.04612887 -0.00729791 0.93163455 -1.03773677 0.08518862 1.18513119 1.16953266 -0.23070143 0.25767931 1.92144823 -1.45557070 1.36860633 -1.03007662 0.76941025 1.11162901 -0.09775220 0.06318603 -0.16521257 0.84119183 0.55894738 1.47816193 -0.02835439 -0.87531334 0.02030047 1.33371675 0.82183868 -1.40647161 0.13774934 -0.44403312 -0.56605214 -0.51743579 0.36337253 -1.04621577 1.13487935 -0.26786891 -0.99575382 -0.07312822 0.54378885 -1.12891018 0.26090127 0.29304057 0.84757805 -1.60289884 0.64755267 -0.86411214 -1.33806849 -0.87113088 -1.01986825 0.79135203 -1.04759777
-1.47202778 -2.25214314 0.91214776 0.29865411 -0.37076446 -0.20597981 0.10066204 -0.70651937 0.03613561 0.66537583 -1.28019571 0.03526843 -0.22552653 -0.67329234 -0.30278975 0.04805491 0.48020580 1.69645452 0.26552483 0.24288829 -0.71219629 -0.64119905 -0.01100678 0.42057785 -1.64835620 -0.62144995 0.45908275 -1.55973029 -0.83729625 -0.45539445 -0.02809903 0.61896247 -0.19226739 0.81294596 1.97196722 -0.01430611 0.91166860 0.48160559 -0.09086505 0.46780199 2.09322381 2.22730446 -0.34022486 -0.36652586 -0.54253250 1.47091401 -0.51281792 -0.95542395 -0.27881825 1.69095564
-0.44849610 1.40723872 -0.77235323 -1.78265810 0.71957725 0.00301007 -1.28923428 1.18759406 -0.43510470 -0.08534233 0.31253543 -1.32383311 -1.46615720 0.28554434 0.43529671 1.46290672 0.25686792 0.42213282 0.03256583 0.59736151 0.36336002 1.18726707 -0.53191847 1.39584625 -0.63437575 -1.02433884 -1.73966801 -0.02217216 -0.57422215 0.42651781 -1.55195248 0.74073094 0.71207809 1.96419346 0.48462170 1.19308960 0.32512859 0.48454148 0.08655698 -1.91035914 -0.46677479 0.43444625 2.23076153 -1.01461101 -1.78528452 1.59655344 -0.28921801 -0.73348039 1.71576345 -1.57140303
-2.02413702 0.14471036 -0.82072812 0.28805462 2.34913325 -1.19562840 0.86672199 0.34013838 2.41289473 0.38274440 0.26762483 -0.36929357 -0.87434584 2.07899547 -2.08910131 -1.77679300 -0.37006554 1.50077569 -0.85301512 -1.68198824 -1.10899258 -0.21268512 -0.92929977 0.08229682 -0.24777415 0.28960022 0.93556660 -0.53532410 -1.07754350 -0.07927497 2.20531297 1.34749699 0.70661700 0.46730006 -0.56902641 0.00890720 0.37399232 -0.79053277 0.49007541 -0.34044749 -0.82722622 0.73993438 0.13414289 -0.49889088 0.05302456 -0.85666937 1.96660113 -1.29103243 2.07975173 -0.06907067
0.02480787 -1.66091645 1.62956572 0.02738647 -1.76165295 0.79005879 0.36738029 1.26431453 -1.23052549 -0.97785282 -1.98595381 -0.59032220 0.65528464 0.23133127 2.62774420 -0.93864715 0.63815784 -0.18493675 1.70433509 0.14112727 0.76872176 -1.63294661 -0.42780799 -1.36149657 0.71346998 0.88276666 -0.75144386 1.98632884 1.67718458 -1.19347477 -0.05966308 -0.77577490 0.69486159 0.18639402 0.19627470 -0.23345904 1.65120316 1.47417653 -1.01282501 0.91409427 -1.01724744 -0.40938988 -0.25957286 -1.60940635 -0.36917791 -0.72233593 1.76193023 -0.39464131 -0.36981496 -0.08237628
-0.11156546 2.39780688 0.37491173 0.40623364 -1.76907122 -0.10851172 -0.96857917 -0.13199618 0.57597566 -1.27097058 0.49572158 -0.27475625 -1.10514116 -0.12059554 0.27589434 0.90564698 1.12882912 0.38272008 0.98610389 1.71883428 0.70181817 -0.40470940 -0.06584194 0.41466168 -1.32362175 -1.47926784 0.10943573 0.59856266 -0.54895014 0.27549317 -0.58231759 -0.22404127 -0.39254779 -0.04728251 0.97726196 -1.14054620 0.74446809 -0.73094642 0.08577011 -1.25213659 -0.94520766 -0.03872633 0.64647895 0.55446130 0.59624428 1.13472676 -0.49098647 -0.61506498 -0.31162897 0.93415773
-0.31458694 -1.52810931 -0.30646315 0.37870511 -0.32090002 0.22010393 0.09648561 -0.80830973 -0.13878495 1.18319941 -0.23188730 0.43606153 1.46216857 0.20923519 -0.24425367 -0.45004046 1.49789143 1.97015226 -0.73216283 -1.56596589 -0.06269141 1.32040322 -0.47623622 0.27819791 2.06646276 -0.05391381 0.75312626 0.42893574 -0.56446755 -0.81215292 -1.35190952 0.40456453 -0.38707790 -0.21581228 -0.35777262 1.11200666 -0.15352328 -0.44667324 1.66578472 -1.08113170 -0.44684699 -0.36178172 0.46704224 -1.59656572 0.19210777 0.19130731 -0.53231937 1.00807619 -0.89913392 0.07000601
-0.04454059 -0.27696934 0.65902609 -0.82043123 -0.91965735 0.20015591 -0.46262720 -2.23460031 0.09076798 0.91675377 -0.81456447 -0.31351274 1.08503389 -0.05567662 0.03331940 1.25258744 1.46602285 -0.38777113 1.24069226 0.30182558 -0.75036150 -0.35059717 -0.22998025 -0.77575845 1.04815125 1.47034132 -0.22909275 -1.27334082 -0.58587581 0.87662494 -0.66962117 0.37400359 -0.96875709 0.40086293 0.19387190 -1.41988385 0.57191145 0.76558000 0.32191014 1.34919286 0.19255419 -1.00653780 0.88082331 -1.09017050 -1.18362939 1.60593641 0.43888530 -0.46746463 -0.88029331 1.49773252
0.95379275 1.00353146 -0.03346776 -0.99676675 -1.93064487 -0.14174381 -0.49989587 2.54988551 -0.72217333 -0.13835473 0.68276411 0.31612414 -1.71769631 -1.32456362 -0.06193780 0.41846800 1.62029934 -0.70549023 -0.17806926 -0.76837152 1.97934437 -0.23381110 0.49554986 0.37819737 0.47467124 -1.28835988 0.56350178 0.84005034 0.16664626 2.06246519 -0.30366477 1.17480969 0.66725057 -0.19636239 1.15773332 -0.73742074 -0.10252625 -0.21947423 0.90965647 1.19145131 -1.07847178 -1.18539405 0.64587986 0.57002640 -0.49873415 -0.24080089 -1.02991772 -1.84753835 -2.10496330 0.40883744
0.98867524 -2.84029055 0.47031847 -0.92821801 0.20861663 2.38432741 0.41761103 -0.94338781 0.59009248 0.89218771 -0.04722012 0.79787385 -0.76700819 0.72553426 -0.11621850 -0.54531556 -0.35331172 -1.55840087 -0.15877636 -0.38077462 -0.18115653 -1.04969585 -1.07081187 -0.96781063 -0.77671826 0.06470054 -0.25419611 1.37999153 0.12596196 -0.92777586 -0.35589898 -0.69579685 0.70972216 -0.80606568 1.01892734 -0.80966830 -1.23830962 -0.07264489 0.25316086 -0.27445719 1.75189781 2.52160907 -0.26811269 0.92746472 -0.86017913 -0.05764860 1.40635586 1.84995258 0.70380598 0.18431465
0.92165583 -0.59577823 -1.71842909 -0.85191596 -1.26417732 -0.57092100 1.31431520 -0.08248067 1.04186785 0.82181990 0.35820389 -0.35480621 0.03309365 -0.53606826 0.19541170 -0.23716313 0.11199102 0.40817523 -0.25300214 -0.89545095 1.37466538 0.94691670 0.45664537 -0.53209835 0.74065799 0.33053628 1.05217707 0.45003358 -1.92609811 0.92134035 0.06830934 1.72847760 1.36437631 0.05853399 -0.15705121 0.10541969 -0.09290335 -0.86763412 -0.93789452 -0.71026433 1.75060201 -2.13243151 -0.45602944 -1.33988392 1.33506906 -0.37516201 0.94430858 -0.07201038 -0.27146077 -0.61367160
0.47604209 -1.25680912 -0.22120821 0.41237628 1.02752268 0.88395935 -0.26836032 -1.00338101 1.99902177 0.29558635 1.36862123 -0.11520740 0.02348779 -0.32517007 -1.75701308 0.98727590 0.35047537 -0.87988210 0.93797344 -2.28506160 -1.13259804 -0.29102528 0.15174928 0.77718598 0.57203221 0.97460586 0.61238694 0.16362682 -0.40756559 -1.07684624 -0.92154092 -1.61564958 -0.26344302 0.76448685 -0.75488842 0.56776160 -0.80750769 0.32239941 -0.81827044 0.49473304 0.27197433 2.28991938 -0.17689355 -0.88102764 -1.14842069 0.14410792 0.43948326 0.92074603 0.77719712 0.38837820
0.60414541 -0.04776762 -0.00681431 -2.24652386 -0.04170882 -0.13304873 0.84676355 -0.15292954 -1.74801040 1.15765274 -1.25471675 0.46336100 -0.85194206 1.09623754 -0.01940233 0.37924263 0.22637092 2.02410531 -1.06380022 1.25995243 -0.09283397 -0.94798875 0.88364249 -0.20510200 -1.06336391 0.27191702 1.38360357 -0.95768189 0.49357218 -0.11282059 -0.74243540 0.36144254 0.46437365 -1.02528799 -0.00352280 0.27006763 0.16978422 0.24329789 -0.23830637 0.66944802 -1.14261436 1.11673617 -0.17871493 0.17826931 1.41794777 0.67487103 1.18646407 -1.43631244 0.70709133 -1.82148635
1.65254164 0.04557439 -0.85671026 -0.53140897 -0.47540662 0.98268962 1.57917225 -0.48015693 -0.71721494 0.72078156 -0.98050779 -0.27816135 -0.36154544 -1.32082105 1.71309090 0.25113580 -0.21193658 -1.28787363 0.11792631 -0.39562175 0.59595156 1.40613973 -0.61081141 0.19334903 -0.53428072 0.71427953 -0.31071076 -1.20747852 -0.20808935 -0.80436075 -0.92059737 -1.58524680 1.00534284 1.01723182 0.78622311 1.70603168 0.51083958 -0.07176955 -0.10182563 -0.01347054 0.41446656 -0.14170641 0.44838938 1.98290956 -0.59233987 0.14447112 -0.49417597 -1.00483596 -0.16393358 -0.34067497
0.08864740 -0.21566333 -0.50549585 0.87995648 -0.22010551 0.32178828 -0.29819036 -0.59464622 -0.19796838 1.28838599 -1.36861503 1.24766493 -1.23668790 -1.26941359 -0.81553507 -0.77925110 0.91339546 -0.50029022 -1.31642425 -0.29460362 1.40824080 -1.09316373 -0.71225804 -0.07052083 -0.66978770 0.45703614 0.16984287 1.38103354 -0.27571574 0.24270532 1.94243503 -0.32664970 -0.64740396 1.57866418 -1.99988556 1.43399739 0.30677369 1.36526084 1.30838323 1.94907856 -0.98710388 -1.29215980 0.66197842 0.54440743 0.83848095 0.02638709 0.13614275 -1.24856341 0.07657985 -0.58570474
-1.08860302 0.75826168 -1.11005843 1.00430214 -0.14408009 -0.78656244 -1.19288611 -0.43460405 0.64942777 -1.14560008 -0.92219800 0.22392866 0.72823453 -0.02692149 0.83123100 1.08932149 -0.84465700 -0.33222917 -0.52198416 -1.22777522 -0.96556288 0.37903914 -0.68801939 -2.61728096 1.24624085 1.64281893 0.04933725 1.72092533 0.88098341 1.14364314 -0.06654192 0.56696582 0.24801944 0.39414325 1.78492689 -1.21907783 -0.84657401 -1.36521649 -0.58261210 0.44495201 -0.11656719 -0.19775912 0.96703887 0.01741050 0.43645775 -0.41038597 1.36458647 0.23034218 1.38141644 -0.25370681
-0.21018565 -0.14472963 0.24395348 0.30829710 1.57067502 -0.21002457 -0.43149522 -0.89322376 -1.05402744 1.20794654 -0.50736541 0.21789214 -0.14472196 -0.11753830 -1.01263213 1.18011844 -0.98098290 1.03456020 1.84660947 -0.16924813 -0.07883950 0.24832748 -0.47958955 -2.22612572 0.37943614 -0.13338801 -2.10044551 0.36209905 0.78993392 -0.56381691 -0.58902061 0.03767239 0.81720668 -0.86326951 -2.58978534 0.03532140 -1.52910411 -0.39348876 1.94794726 0.83022547 0.96481967 1.98112845 0.16957930 -0.38862383 -0.15927310 1.36291218 1.58376932 -1.02875102 0.82442850 0.08250502
-0.33451301 1.48141253 0.35737535 1.70210922 0.33934146 -0.26331922 -0.59003067 0.84539139 -1.39763844 -0.53129852 0.63207287 -1.95065248 -0.18114537 0.90200233 0.50583547 -1.54951990 -1.25927353 0.48420492 -1.12718439 1.77149487 0.10950577 2.23477578 -1.67282522 0.28455952 0.85872358 0.58906549 0.84999210 -0.22879198 0.89781249 -1.48726332 -0.27382696 -2.59679008 0.51874286 0.68445587 -1.02218759 0.22313385 0.31236848 -0.10300480 -0.54836529 0.20252088 -1.60265076 -0.41485187 -0.72247571 -0.17450817 0.44040588 1.22214305 0.81417078 0.11158110 0.64604884 0.99287051
0.27037248 0.11585824 0.77312970 -2.32143903 1.34001434 0.64052749 1.53247571 1.28458905 -1.16906011 -1.11978960 0.57189661 -0.16371527 1.07131279 0.47906619 0.12777166 0.47706911 0.20273606 -1.18676865 0.13103229 -0.54143018 0.89994138 0.30957928 0.27324009 0.81173605 -0.09895596 0.45689881 -0.51508158 -0.43979156 1.12022197 -0.78079653 0.53785503 1.41451812 -1.88991237 0.29977709 0.69191867 0.37666240 -2.91960597 -0.25678962 -0.26542613 -2.44026971 -0.38110530 -2.70442867 -0.24480832 -0.40979511 0.12678124 -1.60581851 -0.02436595 2.45323277 1.05654490 2.57167459
-0.64232123 1.94836569 1.41194928 -0.53195286 0.00328587 0.22604723 0.75624031 -0.48166427 -1.60346973 -1.11099482 -0.21328425 0.79482991 0.10367757 -0.63944000 0.27913040 -1.04121494 0.60959977 -0.79884183 0.16976477 0.23283088 0.39633366 -3.20101643 -0.35366535 0.03542034 0.13409680 -1.27074027 0.78533036 1.22214723 1.42185831 -0.02405082 0.24993350 0.89077818 -1.08289111 1.68697274 -1.18000305 1.53996623 1.50898528 0.33669806 0.17253231 -0.72287577 -0.86967939 1.22066748 -0.96676159 -0.65714347 -1.36162293 1.39308345 -0.67636722 0.59546679 0.07834867 0.22398604
0.51214010 -0.89528811 -1.33868003 -0.01158526 1.33367920 -0.52683604 -0.11664348 -0.59006351 0.74810725 -1.33764303 1.74191332 0.06515147 -1.27945530 0.67713815 -1.95382273 0.68010277 0.68915224 0.16912173 -1.80366266 -0.07713651 -1.53250027 1.77899492 1.94818246 -0.43074799 0.03725635 0.45312190 0.37194753 -1.54365623 0.14941782 -0.31910390 1.21774793 0.67010760 -2.30490708 -0.06879795 0.21635064 -0.22605661 -0.35060680 -0.71010697 0.37759793 0.40444675 0.20076644 1.47372699 0.80819404 0.39702797 0.86818278 -0.52425945 1.58051109 0.43529409 -1.03287184 0.01788089
-0.75782263 0.83498782 -1.09871280 0.97659135 -0.18192743 0.40174145 -0.45725316 3.68714786 -1.08209813 -0.10932927 -0.29544029 1.50221694 -1.80025411 -1.61003184 -0.27457047 0.31049588 -0.30882293 1.38165617 1.17073011 -0.41274399 -0.51948869 0.43677506 0.28200677 0.87529361 1.32413602 0.28265923 -0.22677168 1.85998976 -0.52780724 -0.03939076 0.99840999 0.47660467 -0.13861838 -1.88069999 0.55432105 1.36529958 -0.90286583 -0.51387626 -0.40591961 -0.21378824 -1.67911732 -0.82431883 0.70788044 -1.77492392 0.70087832 -0.03649440 -0.53227496 -1.09350812 1.59811926 -1.10180604
-1.42042923 -0.26797879 1.24766779 -1.03508890 0.47672746 1.00374877 -1.75368679 0.50035316 0.71151316 -0.63513577 0.43791384 0.08958361 -0.75595176 -1.69153583 1.31910598 -0.15001419 -1.38784242 -0.00374600 0.49410269 2.77370834 -0.35927251 -1.64560699 -0.87206870 0.74008256 -1.59282756 0.29760721 -0.25443962 0.51878566 -0.41229168 0.04307318 -0.13887949 0.30772349 -0.14010203 -0.07118499 0.09456914 0.82057935 -1.49201572 -0.27131075 -0.04429717 0.06536518 0.28869095 1.15892613 1.48229384 0.43088990 -1.03164947 0.99304461 0.28032696 -1.66011071 2.41408896 1.16339457
-1.09784913 0.04382429 0.43941456 -0.29741171 0.46278346 -1.27785480 0.18246369 2.24879026 -0.11985704 -0.50366205 -0.79552144 -1.83165419 1.22499347 -0.41861278 0.86870152 -0.80264384 0.56513488 -0.83136207 -1.46272075 -0.67504585 0.25892174 0.29518679 2.04339504 0.31170371 0.05682717 -0.90247720 0.41529807 0.17756206 0.97886020 2.38506198 -0.89110249 -0.19645423 0.44538933 0.20627785 0.96580058 -1.17378783 0.80515105 -0.18703510 -0.16965878 -0.46598020 -0.04995658 -0.46872640 1.64036596 1.84397852 1.41038859 0.13975449 -0.40200332 -1.95245469 -1.75880265 -0.68101507
0.30839217 -1.63978195 0.34842688 -0.34139892 0.83015573 -0.33030629 0.06587690 0.79216999 0.86100990 -0.01372837 2.40379381 0.01935486 -0.41533545 -0.22488898 -0.39326176 0.96863562 1.11216271 1.01136339 -0.51871836 -0.25263193 -0.32387060 0.85761303 -0.74683112 0.05400775 1.39573395 -0.16399680 -2.42167401 1.98379123 -0.36301169 -0.22971173 -0.91846335 -0.47416130 0.08921305 0.84339565 0.79734248 -1.44124293 -0.03198147 -0.59551334 -0.40307119 1.23870802 -0.75425905 1.58745146 -0.46185181 -1.49862993 -1.47137427 -0.46948197 -0.37873298 1.89384437 -1.53703427 0.27449739
1.26784849 -1.71792817 -0.15464145 1.39935172 -1.34885740 1.47785473 0.44321373 -0.98749548 -0.78512561 -0.07053312 1.71198356 -0.48032510 -1.42575729 -0.69093657 2.05183315 -0.19716127 -0.68403417 -2.00130415 -0.00640267 1.18269968 0.04970183 -0.34871903 -0.52977508 2.85612345 0.63200343 0.98805910 0.70743734 0.79227066 -0.23174962 -0.06470221 -1.30075300 1.15521872 -0.41197520 -0.54711562 -0.87406355 -1.15575826 0.03204164 1.77367640 1.77568662 -0.52780515 -1.09771991 -0.70352131 -1.61872137 -0.68545949 0.30840293 -0.46145454 0.29045779 -0.39727280 0.16309467 1.42528546
-0.53166115 1.33878553 1.58739448 0.16913560 0.32864463 -0.57831192 1.03230131 0.81676680 -0.61725706 1.83474779 1.05301738 -1.14695096 -1.34330702 -0.45981801 1.33282614 0.03799344 -0.60883939 -1.31676149 -1.55180955 0.70253235 0.19879246 0.47926390 0.18770097 -0.50110269 0.35190329 1.24138570 -0.18856968 -1.04039180 0.24369094 0.17405963 -0.99256605 -0.28335577 0.36993459 -1.04819024 0.00901173 -0.34197563 -0.71948141 0.32299066 0.25273517 0.35984939 0.54835492 0.99314696 0.23297444 0.80782712 0.20938051 -0.31246698 -0.21060161 -0.64219105 -0.68081236 -1.18389976
0.08948211 1.12011623 0.70240241 -0.77972198 1.73921227 -0.36488673 2.35251093 0.36511797 -0.60875690 -0.03417009 0.35596845 0.82113302 -0.06517589 1.45699668 -0.19818117 -2.19320703 2.28557920 0.91668034 0.15003385 -1.26027429 -1.02655840 0.50426817 0.20142046 -1.32199419 -0.07309503 0.38137889 -0.14500844 -0.00177034 -1.64337158 -0.05901930 -0.68737495 -0.21069105 -0.51286352 -1.12539983 0.12890168 0.42452365 -1.21487081 0.48030442 1.84442163 0.53494781 0.99410909 -0.10985129 -0.57806540 -0.09127250 -2.02345586 -0.66178608 -0.54218191 -0.20654860 1.34344351 -0.57024050
1.18027079 0.04664147 0.16315135 -0.15038343 -0.56577384 -0.04814376 0.08065563 1.44639444 0.73731327 -1.50771844 0.52336615 0.08341006 0.18130778 0.00869733 1.47574997 -1.25930440 -0.06532817 -0.30967999 -1.12487650 0.22051173 1.11884224 -0.93429697 -1.43990052 -0.72837025 -0.42366931 0.69745916 1.04335952 0.32443511 -0.98623008 -0.00366624 0.59130925 -0.83239752 -0.94396335 0.59454340 0.42428163 -0.32403442 0.06768574 0.81799281 -0.67815024 1.08178365 0.90920925 -1.41336060 -0.52647716 1.53133512 0.29886347 -1.05116510 0.69639260 -0.46070141 0.32410702 0.08209821
0.59585619 0.72700125 -0.74673551 2.17984605 1.47467482 -0.98097843 0.24264687 0.44320387 -0.73115355 0.48243043 0.68031508 1.66917682 1.29092145 0.01647510 -1.18174839 0.33689019 0.28083518 -1.70414722 0.13804626 1.35222387 -1.06538713 -1.57649124 0.92765641 -1.03401983 -0.98467237 -0.55300379 -1.54258847 0.77942860 0.47876549 -0.67223620 1.64499927 -1.15839791 -0.21260318 -0.13129324 0.93951494 0.62299538 -1.76562846 -1.05058336 0.80594599 2.56920099 -0.59949005 0.82570189 -0.22047898 -0.43842366 -0.57199758 -0.19735804 -0.55179769 -0.87490803 -0.33054423 0.27082652
-0.44871226 -0.71736205 0.66114873 -0.09225722 -0.26064706 -0.54254520 0.83210963 -1.23529136 0.85051841 1.16895306 -0.98585057 0.26889393 1.00465429 -2.17540574 0.89526826 -0.62826484 -0.75465149 0.61207968 1.54838037 -0.48016551 -0.05730631 -0.56822360 1.89601707 1.36622465 2.32888007 1.34272587 -1.11255467 1.77064323 -0.41018385 -0.37621972 0.69128537 0.73394662 0.39142257 0.55414897 1.11431611 -1.62051392 -1.04634380 0.65277994 -0.40604347 -2.00581336 -1.92223084 -1.70338178 1.16022158 -0.16069083 1.97587550 0.87979192 -0.04242812 -0.64262301 -2.11685181 -1.24582577
-0.80142331 0.71945894 1.88842380 1.05299366 -0.36688685 1.04540324 -0.25676087 0.82517582 -1.22401106 -0.44936833 0.74651206 -0.21318750 -1.27243996 1.08101845 0.25758502 -0.19372426 -0.20887518 0.13889262 -0.20856863 0.97848105 -1.60010862 -0.20287827 0.91629887 -1.37641704 0.22871649 -1.30077493 0.86511320 -0.87488180 0.42746460 -0.37895888 0.94907004 0.07901041 -1.27525926 1.54020393 -2.11803627 -1.38284206 0.69123250 -1.14914334 0.23168339 2.90945411 -0.48665604 -0.25405964 -0.73256284 0.73089701 0.13747093 0.23608810 -0.75719756 0.12248069 0.60175657 0.64473170
1.21763599 -1.21295512 1.15463042 -1.09585309 -0.54353893 -0.22550780 -0.49893340 -0.16679253 0.58556235 1.50102758 0.62542546 -0.03137239 0.64299351 -0.10528940 -0.59146303 0.17770807 -0.21224643 -0.42200971 -0.56104493 -0.43155688 0.14031614 -0.78988713 -0.03591271 1.06767249 0.74249363 -0.14316489 0.78371871 -1.18566203 0.62929130 0.85321540 -1.04610574 -0.10163961 2.04156375 -0.44828889 0.43698469 0.41012302 -0.25541380 -0.56576508 0.62683368 -0.99597394 0.70071119 -0.21510518 -1.81095147 -0.06125991 -0.87550527 -1.23141313 -0.06230643 0.54220849 1.57414615 0.44446331
0.01448089 0.19221540 -1.30127275 1.22164130 -0.46666625 -0.22549060 -0.35380167 -0.69696170 2.40440655 -0.54474282 0.87970090 -0.26232880 1.67888939 0.16256979 0.48198417 0.03838382 0.39367136 -0.16399965 0.06529032 -2.17047024 -1.69547689 -1.24044108 0.22381574 -0.34524149 1.23085976 -1.08321810 -0.75700527 0.02309024 -0.20091958 -0.21824929 0.85561025 -0.21013519 -1.19309998 0.19950685 0.94435692 1.11017632 0.58454865 -0.19129708 0.06085904 -1.49212289 0.06925888 0.40696439 -0.06006783 0.42299330 0.08266252 -0.17281985 0.09025416 1.23847795 -0.71097118 1.68811905
-0.87908018 -0.91405547 0.83596075 -0.44830170 0.27761713 -1.04308820 0.27120879 -1.91254640 2.32572508 0.89260221 1.78309584 -0.00643558 0.02088668 -0.82829553 -0.68808722 0.90795320 -0.91658479 0.56925350 -0.61866254 -1.91395557 -0.85103810 -2.45470190 1.37299323 2.88488078 0.54140013 0.45776019 -0.65229166 1.57703614 0.58606017 -1.36156321 -0.13888453 -0.45675203 0.37860471 -0.61192107 -0.72515136 2.76588988 -0.57481974 -0.18582982 0.52237135 -1.75324845 1.16001427 1.49716604 0.39769131 0.10260779 -1.68060601 -0.16719605 0.06307814 0.33029857 1.10425484 -0.82704717
0.34690520 0.38340887 -1.08026302 -2.22652292 0.02121848 0.13779613 0.03717102 0.55607682 0.86081028 -0.07127624 -0.39231730 -2.12888956 -0.07689090 -0.76561898 -0.07053861 1.27961433 -0.36634988 0.40185040 0.57424498 0.67396122 0.89858627 0.55391860 0.07614452 1.58745170 0.89858091 -2.34211111 1.46907675 -0.80921662 1.10789108 1.02830410 0.79393268 -0.51888889 1.78214705 -1.87793553 0.58029348 0.23461092 1.26157689 0.80934930 -1.01135647 1.12029576 -0.37584057 -1.34733927 -0.49750432 -0.25355166 0.41205201 -1.94624901 -1.45286334 1.79267418 0.49865666 -1.57435489
-0.60412097 1.11966455 -1.03805768 1.38481581 2.59580040 -0.77870762 -0.90732658 -0.60755312 0.51287174 -0.29407704 -0.33774853 1.16760635 0.81130409 -0.93678814 0.85904193 -0.37624210 -1.72116983 0.34580076 -1.10438633 1.36293983 1.76064050 -0.20656313 -1.98283064 0.12608559 0.53811616 -1.04297650 0.73641759 -0.53670394 -1.36884248 1.75076723 1.22293782 -0.20620975 -0.44839972 -1.14494550 0.39214101 -0.64205915 0.98193413 -0.27814937 0.13775459 1.54947233 -0.37259582 -0.30341631 -1.09310675 -0.02130533 -0.73107845 -0.97057915 -0.55583191 -0.43565390 -0.73905051 3.39119172
0.12614162 -0.40722108 0.86545604 -0.48531699 -1.55527020 0.98500341 -0.01918380 -0.36073744 -0.34394947 0.42915738 0.11508102 -0.11322430 1.02442205 1.00205779 -0.44837275 2.29544640 1.47874868 -0.70944959 0.78115016 -0.80528152 0.06026652 -0.05594467 -1.05444276 -0.22865115 -1.79417944 -0.69073898 0.36525688 1.09198248 -1.09636784 -0.37352809 -0.88161319 2.26573992 -0.17933488 -0.09218208 -0.72238922 -1.13821435 -1.52098072 2.01649499 0.15472306 2.41326785 -0.08042759 -0.44908383 1.32296622 -1.80953002 0.39065683 -1.56112671 -0.25607356 0.27019134 0.18786196 0.55950361
2.51850772 -1.43691421 0.31481925 2.00238180 -1.01250827 -1.69465852 1.05481398 0.85974503 -0.57173789 -0.81953400 0.07240818 0.57628685 -2.32368565 0.42829382 0.18906477 -0.34125280 -0.68163496 0.06803260 0.76725799 1.10794306 -0.01899394 -0.93157917 -0.21151707 0.53888810 -0.49151707 2.24968815 -0.08468395 -1.74284899 0.67182583 -0.94740474 0.06387169 0.06198191 0.50531292 0.64466035 -0.65463531 -0.94004184 -0.60364336 0.15912162 0.13726051 0.21968013 0.58591545 1.14815819 0.01983546 -0.73300934 -0.04584257 -1.97480500 1.56209230 -0.66489488 1.12187278 0.25590658
0.15042508 0.39067638 0.35091579 -0.27197757 -1.11861563 -1.71543980 1.39825010 0.67203450 2.13666177 -0.95728934 -0.01431741 0.11078377 -0.88568968 -0.05194007 2.50512314 0.24211016 -0.17347878 0.18774441 0.27081066 0.06270898 0.51742512 -1.13124895 1.43432951 -0.12632501 1.09598780 1.22654057 0.01407806 -1.34713233 -0.81962842 0.15540484 0.61077261 1.02583575 1.23996484 0.91790283 -0.01640076 -1.14155614 -0.37129655 0.38071150 0.51882750 -0.50745338 -1.00460052 0.68479180 -0.53758621 -2.46051931 -0.40556195 -0.61228329 -0.89240611 -0.01317141 -0.41910055 -0.40287206
0.16953900 -0.61833519 -1.55794442 1.51961732 1.05188036 1.28224969 -0.41130891 2.07761335 -0.12918495 -0.16800877 1.93853891 -1.02021825 -0.66923976 0.93598831 0.69753528 -1.51294470 -2.04871321 1.41853130 -0.30209613 -0.72477460 0.19465221 0.33143955 -1.10683835 -0.11005563 -0.85627568 0.93727249 1.02021170 1.00236273 -0.41845950 -0.40312496 0.85666758 -0.47316334 -0.56949562 1.57480133 -0.78115976 -0.59555286 -1.34378529 1.14121425 1.17890358 0.83680344 -0.86562067 0.24705306 -1.70727563 -0.09153908 -0.03388787 -0.02781325 0.25017473 0.61602300 -1.98468316 0.18623789
0.86402160 0.08568892 -0.33494091 -1.35970128 0.01809355 -1.02133596 -0.05063760 -0.42572778 -0.14413540 -1.33900166 0.13783354 -0.35011676 0.06326798 -0.65955776 1.36818123 -0.87197453 1.03757489 -0.56403381 0.70828396 2.16514492 -0.87020463 0.51759249 0.01718504 1.14240634 -0.32704327 -2.11756563 -1.33256400 -0.50099206 0.22279367 1.17590487 -0.43375957 1.49867332 -0.63871020 0.42528990 0.43996495 0.46405211 0.62083280 -0.03256891 0.34664524 0.12213293 -0.87537014 -0.10369965 0.57101107 0.34101042 -1.02798092 1.03484201 -0.08563635 -0.10976775 1.85722232 -0.62115294
-0.98694611 0.65698564 0.24786955 1.04632282 1.88023484 -1.80697227 0.55837405 -0.03567200 0.26736912 0.09244786 2.46696091 0.56903714 -0.50110090 -0.40756956 -0.73796082 1.55687344 -0.83171809 0.59890449 -1.50411999 1.86291373 1.51442635 -2.06994653 -0.65777791 1.63022494 0.07782657 0.40563464 -0.85144848 -1.00603569 -0.31447461 -0.11716903 -0.47163931 1.09820282 -0.28934890 -0.20539108 -2.83614492 -0.65088642 0.12285563 0.09127953 0.05597298 -0.95379335 1.07580650 0.49283877 -1.37161016 -2.48518181 1.26389635 -0.65119731 -1.06510735 0.44990218 0.34874234 3.30882716
-0.49369913 1.53864503 2.70038080 -1.21751630 1.43972695 1.09040225 -1.84372270 0.04754958 0.19185831 1.38758004 0.59227806 0.37502623 0.45310017 0.06832118 -0.10965921 -0.83753598 -0.62316948 -0.25408342 -0.15226977 -0.03635209 1.04349673 -0.86034524 -0.57530993 0.95886797 0.94461036 1.67668593 -0.65480328 -0.48281932 -1.47615802 -1.53439403 -0.79061800 -2.10818648 -0.87296104 -0.82274288 -0.03689340 -0.27222180 3.34993911 0.35583174 -2.09244823 -2.52246761 1.20343828 0.49885800 0.24407822 0.14450306 -1.04416609 1.80626452 -0.39754698 -1.05908847 0.77781641 1.19469798
0.44857621 0.65507621 0.01469971 -0.63038796 -1.24542713 0.72586149 -0.99895132 -0.27308959 0.74734956 -0.46321177 -1.50324035 -0.29359943 -0.47968230 -0.21940102 0.93952388 -0.08332235 -1.67649376 0.60431856 -1.28496695 0.06443419 0.66486675 -0.64512068 0.77375954 -0.72413462 0.78436989 1.18923104 -1.11674726 -0.67732853 -0.46768948 0.82974428 -2.24554253 -0.05368397 -1.26838660 2.03453255 1.69844151 -0.98227882 0.58691370 0.09242364 0.64015454 -0.83333957 0.18950215 1.42043972 0.93766618 -0.28095931 0.72598308 0.62562662 -0.60374391 1.00531459 1.10649884 0.63197613
0.50126213 0.22813921 -1.64580595 1.55703568 1.00533092 -1.45994198 -0.14999267 0.85937887 1.25987577 1.72415590 -1.16273928 0.02701677 -0.92695665 -0.98663050 1.32970834 -0.18190004 0.51192462 -0.29766056 -1.15444171 1.59047604 -0.04910284 -0.33726487 0.15199754 -0.68994850 -1.77877569 0.19293426 1.47598326 0.00933472 0.34365126 -0.19755903 0.17178558 0.60558546 -0.49300492 0.75012273 0.09955597 -0.70213765 0.31851822 -1.66047561 -0.07695863 0.52713507 -0.02963085 -0.48261562 -0.17172419 -0.45023668 -0.61795431 0.87670267 1.38175809 0.33732107 -0.27485257 -0.89941502
-2.22299457 -0.25335222 -0.58448809 -1.58395827 0.38507271 1.34504557 0.75719947 1.76647425 0.35924694 0.62100953 -0.19195260 0.57451916 -1.16298628 0.07420368 0.52617359 -1.30746269 -0.79922867 2.09096050 1.07249045 0.50300401 -1.22780430 -0.32591876 -1.63374782 -0.77687407 -0.72216415 0.65604454 -0.64738941 0.68170714 0.81138825 -0.08401890 0.24386144 0.53341484 -0.23457675 -0.36359397 -0.30114761 1.09370959 2.53098488 0.51108772 -0.82061899 -0.03450491 -0.63715374 -1.36154449 0.25748220 1.14484334 1.20398390 0.38253921 -0.48601052 -1.79609048 0.24166937 0.20801999
0.25855428 0.55450040 -1.81587815 0.82399052 1.50871861 -0.63833755 0.84926617 -1.07548892 -1.25849104 0.33164465 0.71150529 -0.59450310 0.79962766 0.72583175 -1.08660138 -0.36364922 -0.51025021 1.95329380 0.69021094 -0.92986649 1.40676057 -0.69790441 0.63309646 0.75037277 -0.37128389 0.14837474 -0.11706281 -1.78198338 1.52131844 -0.34212434 -0.28166252 -0.94465750 0.31442189 0.53885567 -0.74705702 1.70249128 -1.47169948 -2.10936689 0.62641865 1.29409921 -0.13646081 -2.04532361 0.64969760 0.23165241 0.51118821 -0.38115835 0.70570260 0.22978124 0.59091330 -0.38503602
0.59385264 1.24210775 -1.31772172 -0.39914784 0.59709752 0.35803112 0.14709954 0.00412684 -1.29871321 0.00494521 -0.72574979 0.18391882 0.90243107 -0.12189894 0.52809465 0.79696882 0.82363629 -1.35499263 0.04886501 1.15922093 -0.38238865 0.16424835 -2.27109194 -1.44556022 -0.17588742 -0.21810149 1.20502412 0.07712753 0.38041466 -0.53894174 -0.17119041 0.37694851 1.20904374 -0.80328614 -1.72971714 1.65905261 0.00057443 -0.28813976 1.15872204 0.71161795 0.90849859 1.46648347 -0.72986209 -0.84579867 -0.96435630 -0.06369609 1.97184205 -0.43790603 -0.51282644 -0.89726186
-0.10202432 -1.64114976 0.22208025 0.86852264 -0.20785531 0.30783823 0.80350214 -0.61311042 0.40228584 -0.55039614 -0.99691200 -0.09471410 0.43857229 0.51760823 0.74137306 1.32444906 1.82479703 0.16535854 1.58515096 -0.30564320 1.47982168 0.07144729 -1.10311651 -0.54898024 -0.67674273 -0.99709380 0.06392834 1.52008486 0.89829463 -0.12466410 -1.09331250 0.18150215 0.56306732 -0.50661892 -0.03100008 0.07391446 -0.51819491 2.67829132 0.14376865 -0.20100048 -2.11469197 -0.49191213 -2.07261109 0.72951519 -0.02771123 -0.99216670 1.45390725 -0.97701448 -0.20611654 -0.93422151
1.22478712 1.26392639 -1.65826285 -1.62823439 0.36740288 0.42212564 -0.43227306 -0.05517057 -0.65567422 0.64521956 -0.31974754 0.91189945 0.55948788 -0.36336142 0.70225877 -0.27060470 1.04219508 0.57947010 0.01944804 1.11005998 1.20021868 -0.35527003 -0.69725466 -0.75405657 -2.47563791 -0.12798569 -0.26847497 1.67091012 -0.21442376 0.48236424 -2.86113286 -0.20854905 2.08879948 -0.75875264 0.07105444 0.27599299 0.05584741 -0.69892830 0.74587530 0.45641962 0.08674505 0.02140633 -0.08172645 -0.31728292 0.34156463 -0.36812729 0.27268240 -0.91734588 -0.81536269 1.65762639
-0.82396215 -0.02284488 1.77564657 -0.76776594 -0.36837980 1.08133411 -0.32553732 0.60373348 0.74803573 0.79202271 -0.01200441 -0.14273363 -1.71975243 -0.21342330 -0.63205516 -0.13808164 -1.00325739 1.12769985 -0.06150375 0.13699272 -1.07830238 -0.25414303 -0.28260258 -0.50387037 -1.09144187 -0.78176033 -0.02528231 0.75442559 1.07410574 1.19903195 -0.92476732 -0.08987850 0.50852042 0.41564858 -0.84684426 0.49208939 1.51484382 -0.98652643 0.64247054 -0.43983003 0.98612690 -0.40282407 0.21572021 0.54177141 0.90176558 -0.85157090 0.22816341 1.07970715 -0.16765128 -0.85052758
-1.05600214 0.84759897 -0.99306101 0.35286400 -0.21230859 -1.17059791 0.23073459 -1.63441241 -1.10650945 1.10463452 0.97428060 0.22459646 1.33071268 -1.35469282 1.47580850 0.12281381 0.23843154 0.54809201 -0.85052651 -1.17852247 0.75676847 -1.59371436 -0.25954413 0.12373666 0.42288220 -0.91722447 -0.08358478 0.55309385 -0.08623224 -2.03024197 0.25473410 -0.84657693 1.60067236 1.00581264 1.41316271 -0.59438241 0.40234584 -0.62800235 1.16902518 0.21629159 0.79848754 -0.71681517 -0.91728669 1.47661960 0.42897207 -1.36245894 1.41243911 -0.52476871 1.27209508 0.41859293
0.53234696 0.18140982 1.12095368 -0.42225713 -0.78777319 -0.69608891 0.48753476 1.04751301 -0.66525489 -0.07746544 -1.37737727 2.18546057 -1.25811219 0.10253100 0.95818102 0.32006496 -1.01052272 -1.89949143 0.74564034 -0.49395165 -0.29445750 0.45508716 0.00543517 0.87613457 2.06822538 0.36893839 1.32571685 0.19733106 0.59851229 -0.86947954 0.17123455 0.08958822 0.00089725 -0.76919800 -1.71154606 0.06694261 0.65272963 -0.61849189 0.13826059 -0.49371463 -0.06104676 -1.57891285 -0.38329330 0.87226367 -0.24976324 0.08978936 0.48856521 0.97365999 -0.34597340 -0.08858978
0.84547794 -0.54381222 1.35357046 0.58108097 0.52514130 -0.61727643 -0.40412903 -0.76173538 -0.13754089 -1.38437748 -1.20618129 -0.76829159 0.74778867 -0.55811614 -0.76608658 2.14540911 -0.75887471 0.41095161 -1.20324755 1.09530652 1.20335424 -0.28003481 1.13618195 0.34681901 1.40444779 -1.23470509 -0.79717141 0.23233786 1.60561371 -0.21529114 0.31854740 -0.53328478 0.99907458 0.21633652 0.16870263 -0.12813589 1.77281249 -0.91931486 0.90211469 -1.35416615 -0.87733757 -0.12452748 1.03813291 0.51777446 -2.33689189 0.43744516 0.43060550 -0.42249084 -1.73265719 0.60008007
-1.10973728 -0.85499763 -0.85083222 -0.49652576 0.03427260 1.72581530 -0.16628310 0.73575455 0.02146408 0.64485079 0.29765373 -0.93005002 -0.02166515 1.50167668 -2.65299964 0.87533706 -0.70732147 0.50644869 -0.29821709 1.89440441 0.15380184 -0.54602832 0.27913499 -0.18379106 1.28586698 -0.20654528 -1.84934604 -0.93142539 -0.41412917 0.08213219 1.09248853 -0.71126276 -0.11479893 -0.95764720 2.88751173 -0.99160767 -0.06384539 1.15819085 -1.22767878 2.64748883 0.54950446 -0.18808638 1.67949080 0.04211487 0.13555528 -0.94136906 -0.79897016 -1.15068269 1.49677598 -1.34648633
-0.38775563 0.90147752 -1.32626379 -1.49706173 1.48119175 -1.74021709 1.43222153 0.46827960 -0.42728034 -0.56245065 -0.15565078 0.96902293 -0.48058590 0.55843383 -0.04935151 -0.80351502 -1.26147759 -0.32738143 0.63738430 0.17891437 0.29178458 0.73122066 0.95724398 0.23624551 1.79477286 -0.34211868 1.24452841 0.87919056 0.55814445 -0.67526525 -0.49363500 -0.27658769 -0.31601438 -1.80350649 0.01473662 -0.73683369 1.30125070 0.90387648 -0.81469917 -1.69812155 0.19364834 -2.14678741 0.95377702 1.50032544 -0.55297107 1.67520022 0.10396310 -0.60997272 0.27018479 0.25842568
-0.12679894 0.38278884 0.85895222 -0.30637062 0.37833256 -0.08159118 -0.49218604 -1.34426713 1.78542495 0.65752578 0.33355749 -0.88503736 -0.70629227 0.53682011 1.55195701 1.38199723 -1.12426960 -0.17923243 1.67275059 0.13606615 -0.59582281 -0.02320973 -1.34637380 -0.16020626 -0.96479690 -1.44528544 -0.02411618 1.76425660 0.55285573 -0.35193607 0.18598340 0.55251342 1.79385078 -1.24246013 -0.37282285 -0.63229549 -0.98801899 -0.30565897 0.22985089 -1.31941736 0.83706951 1.59031725 -0.22544059 -0.17023352 -0.06839715 1.59703434 -0.55718762 -1.16329014 0.12236431 -0.75167882
0.27332899 -0.38886002 -0.01230352 -0.27812251 0.39255235 -0.25664279 -0.89273751 0.39861134 0.70835930 -2.03792310 0.30411640 -0.09680139 0.02278069 0.63918519 0.38212895 -1.12186587 0.42686379 -1.03747201 -0.69018424 0.17070784 2.79725885 -0.65815806 -1.33267808 -0.16093631 0.00136654 -0.93514299 -0.05097208 2.05820060 1.93259346 0.69088644 -1.28072774 -0.22332519 -0.33683634 1.12902546 -1.53181839 0.02521042 1.46448755 0.34725791 -0.32692367 -1.14837515 -1.57846582 0.44144791 -0.69135463 1.75394237 -0.61220670 0.00377603 -0.12071629 -0.89685500 0.84990442 2.51771140
0.52563751 1.14907026 -0.93828768 1.14694619 -0.42060584 0.28913915 1.29574955 0.14352420 -0.44744271 -0.05794126 -0.00325362 -0.58437651 -1.61071849 -0.10130138 1.55348253 -0.05659474 -1.21563363 -0.15569802 0.65849233 -0.37320232 0.04795920 -0.21953367 0.92292637 0.82458961 0.33012491 -1.15351450 -0.59005046 -1.77511311 -0.20508295 2.27613997 -0.24601646 0.87445849 -0.63710618 -1.25578630 1.81320870 -1.03861082 -0.37977970 0.99388021 1.01942718 1.45281649 -0.49380454 1.12830377 0.17181386 -2.09411168 -0.53760839 -0.12012014 1.83209562 -0.99422854 -0.80521744 -0.98874301
-0.20636697 0.46522510 -0.59084320 0.90362281 0.13299380 -0.54108369 -0.42336848 0.56247675 0.03006249 -0.70396876 1.22893572 -1.06302845 1.03765607 0.74670237 -0.70599616 -0.63652539 -0.19284052 0.05859593 -1.46306229 -0.23354825 -1.53638411 1.66206539 1.13445425 0.04752488 0.45470408 -0.15615775 0.25569582 -0.37846926 -0.57471317 -0.25145760 -0.06900032 1.77244210 0.31452167 1.14342964 -1.04744804 -0.74066740 0.55312884 0.70944214 0.13721684 -0.10560716 1.20066977 -0.47805381 1.04466569 0.47059786 -0.33584514 -0.64748371 0.82266617 0.02187913 -1.66935658 -1.17923236
-1.25302589 1.74537063 1.94720542 0.13853845 2.03569055 2.43548727 1.86556554 -1.63999820 0.78690827 0.66736424 -0.51860851 0.91712743 -0.50857276 -1.84949422 -1.50206232 0.99515337 -0.26907662 -0.67782855 0.71151364 -1.22377121 -0.37632677 0.50285012 0.20484300 0.37432069 -1.00534105 -0.59261233 -0.93141639 0.72667956 0.44061571 -0.71118885 -0.36548299 -0.51732892 0.63459313 0.92884165 0.13072413 -0.45487651 -0.35083309 0.45359737 0.75410181 -0.56790584 0.23642445 -1.03775704 1.35243952 0.01540487 -1.00675893 0.33960587 -1.52275121 -1.79689908 0.58129066 -0.37833744
-0.31572166 1.39009047 -2.69526958 0.27002075 -0.17498003 -2.31427503 -0.13035221 -0.00002784 0.34135109 2.06368971 -0.25097048 -0.07924637 -1.73965263 -1.61103594 -1.27098107 1.03187191 0.93648100 0.02493608 -0.06814916 0.81098902 1.06754756 1.51187205 1.54461133 -0.42628935 0.26186728 -0.75629991 1.68217087 1.45579267 -0.17069052 0.93503892 -1.62112153 0.45286325 -0.52169812 0.83392161 0.09534997 -0.10871227 0.40774658 -0.74330080 -0.28441295 0.52771896 -1.44590318 0.57684171 0.76507479 0.44718733 -0.39993837 -0.53832525 -0.16840117 -1.03001308 -0.46668085 0.92003894
-1.38191223 0.65043962 0.58147073 -0.62967396 0.02236576 0.46572244 -0.34354550 -0.84201467 1.27426815 0.82264596 1.02622724 -0.02603018 0.79150748 0.11978029 0.28806773 -1.08612895 -0.35213485 0.17830952 1.48753405 0.90000248 -0.87061399 1.15478075 -0.36132315 -0.52613157 0.74776441 -0.44679248 -0.31302154 0.31783310 -0.71585417 1.34717691 -0.33565125 -0.14996476 1.45008874 0.25575322 -0.04517161 -0.66597909 0.71204913 0.08968754 -1.74939656 0.79985493 -0.93607163 -0.48348203 1.25922096 -1.23481572 -0.79730725 -0.81962860 0.10571379 1.26190305 -1.63837934 -0.42943409
-0.41266575 -0.64898533 -0.30580732 1.97619867 -1.68802655 0.33341736 -1.14145768 0.14835510 -0.29733214 0.71106261 -0.91201341 -0.20379892 -0.37003693 -0.32708293 1.35419822 -1.20131648 0.68396366 0.31530422 0.16797641 -0.62327713 -0.94167566 -0.09170216 0.24694405 -0.10245964 -0.54213482 1.44250739 0.14754438 0.62181574 0.09037231 -0.22997105 -0.45456013 1.16828775 0.15446329 -2.22439766 -0.29220200 -0.65575773 -0.57643402 -0.99663907 0.04233603 0.00879020 1.43755686 0.70068502 -0.52302939 -0.68571979 0.02504151 0.48237917 0.46125624 1.85077953 1.99676824 0.95732278
0.57649857 1.65401947 -0.01952485 0.53427202 -0.39714488 -2.14080548 0.80936253 -1.93322206 0.36320218 -2.16946054 0.52507991 -1.03864372 0.71255797 0.32602274 0.32239279 0.70681149 1.88930213 0.51579523 1.31096339 -0.31348690 -0.26543877 -1.65331662 0.55453181 -0.36192045 0.55693114 -1.04905033 0.60755962 0.04968226 0.46064994 -1.03213418 -0.14651823 0.17360125 0.34024194 -0.84306264 0.54224044 -1.46690154 1.41312075 0.39864439 1.00772512 1.29498231 0.75518727 -0.46428391 -1.17427826 -2.08349919 0.49623886 0.48438939 0.66755205 1.04153526 -0.79269981 -0.76233864
-0.38750792 -0.20870416 -0.25597659 0.61804014 -2.14828157 -0.44523993 1.38733065 -0.55550057 0.33895299 0.73564446 0.65510851 -0.56349885 -1.40596008 -0.37292901 0.15513739 0.27771977 0.23918055 1.31132102 -0.75433797 -1.37397885 -0.56215650 0.42519861 0.65565246 0.84427750 -0.57566714 -1.02915394 0.07175307 0.54248047 0.95095366 0.07521255 0.91778374 0.71328151 -1.32284057 -0.60285991 0.46218896 1.87498975 -0.68201345 0.15020342 1.16877043 -0.22368403 0.57221580 -0.96860814 0.06150975 -0.14478882 -0.38330036 -0.48552507 1.79940450 1.84366083 0.26733336 -2.63102031
2.28055167 0.26280200 -0.08164596 -1.09966540 1.44087529 0.85904992 0.26044938 1.15056098 -0.57876909 -1.74045479 -0.21389000 -0.11810725 -0.13899896 -0.74861777 -0.95108652 -1.35687995 1.15819216 -0.32057440 -0.64346379 -0.62860739 0.63010865 -1.28527248 3.02031708 0.79026181 -0.05610150 0.33795124 -1.28074729 0.36903059 0.15768085 -0.04762662 0.37186661 1.42426705 -1.05926907 -1.10016274 -1.70543134 0.55068564 0.70516920 -0.76120085 0.17571047 0.38408008 -2.24085379 0.08751214 1.17000198 -0.46318394 1.24751651 0.35865292 0.60286504 0.23989798 0.35758102 -0.80702090
-1.93823707 -1.42135239 0.46887708 -0.67236608 1.06457067 0.61421883 -1.40604901 -1.53202581 -0.22444728 1.27521718 1.65158474 0.42841646 -0.18401015 -1.30837011 -0.53317910 -0.45921528 1.58813953 -1.76592672 -0.39866611 0.73645997 -0.99412501 -0.46332616 0.77246302 1.93622935 0.49463853 1.24672461 0.91755575 0.10306288 0.45185044 0.83058250 -0.01479351 -0.92178309 1.87651265 -2.57215667 -0.89866060 0.92189234 -1.76845479 0.43463635 -0.52547079 -0.43371215 0.28548405 0.17607805 -0.20763037 -0.27392298 -0.12447783 0.86860454 1.46565044 0.62347782 -0.44870064 1.32949698
0.15174979 -1.35936999 -0.75325984 1.49521518 0.11292571 1.27545261 0.02125166 0.27479574 1.14754391 0.33794829 0.09605705 1.89078808 -0.03856725 -0.93592507 0.23841727 0.69374508 -0.61243838 2.03043675 0.67834264 -1.06637371 0.70788062 -0.05258236 -0.44566068 -1.30383623 -0.34239236 1.02745092 0.15425609 0.31496215 -0.15202545 0.26427430 -1.01415098 -1.18399143 0.36913779 -1.14241767 0.55197620 1.78470254 -0.13464354 0.64683878 -0.62184596 0.09355807 0.65618896 -1.70876813 -0.60258621 -0.95814866 -1.26033616 -0.01378683 -1.39103687 0.82431859 0.71427733 -0.56009912
0.09167676 1.48826647 -1.37813616 0.18015979 -0.53472483 0.51015657 -0.27552235 -0.85738438 1.14483154 -1.64183939 0.54162782 -1.02526915 -1.18186617 -1.26227009 -1.29641283 0.09482207 0.27426425 -0.46824449 0.76346987 1.40793276 2.38622212 0.77084839 -0.08073903 1.52584696 1.00500202 -1.61436677 -0.37973565 -1.50937331 2.04227710 0.78618771 -1.02608192 0.47055233 -0.49237609 0.34259939 0.09077058 -0.78189510 -1.23630679 -0.23704059 -0.37516659 -1.59168637 0.04863298 0.09011664 -0.02443632 1.13532865 -0.27218249 1.01176322 0.12323117 0.97725701 0.50711530 0.76949358
-1.21534681 -0.29652429 0.48356560 -0.43840247 -0.67020136 0.75462633 0.70392954 -0.92739671 -0.95729232 -0.37148115 0.61938107 0.05529440 1.33232224 -0.03440972 0.12033419 -1.02193403 -0.86461216 1.09201312 -0.90361047 -0.58706689 0.26854163 0.98493457 0.13024513 0.97482640 1.41125453 1.13148868 0.97289556 -0.45182061 -1.01882839 -0.69032490 -1.23320341 -0.49759138 2.17719269 -1.06158793 0.03157644 0.52677238 0.26288050 -2.09494877 -0.06019426 1.42035878 -1.18694317 1.19965971 1.85996032 -0.32861093 0.38039616 0.09927346 -1.41356111 0.66281331 1.47614336 -1.78812051
